tree
version=v4
num_class=3
num_tree_per_iteration=3
label_index=0
max_feature_idx=131
objective=multiclass num_class:3
feature_names=ret_1 ret_2 ret_3 ret_5 ret_10 ret_20 ema_ratio_9 ema_ratio_21 ema_ratio_50 ema_ratio_100 ema_ratio_200 macd macd_signal macd_diff adx adx_pos adx_neg ichimoku_a ichimoku_b rsi_7 rsi_14 rsi_21 rsi_slope stoch_k stoch_d roc_5 roc_10 roc_20 williams_r cci ult_osc atr_pct bb_pband bb_wband bb_hband_ratio bb_lband_ratio kc_pband kc_wband realized_vol_10 realized_vol_20 realized_vol_60 vol_ratio obv_slope vol_ratio_10 vol_ratio_20 mfi cmf vwap_dev log_volume log_volume_zscore bar_range_pct body_ratio candle_dir upper_wick_pct lower_wick_pct open_gap close_position ret_1_lag1 ret_1_lag2 ret_1_lag3 ret_1_lag5 ret_1_lag10 ret_2_lag1 ret_2_lag2 ret_2_lag3 ret_2_lag5 ret_2_lag10 ret_3_lag1 ret_3_lag2 ret_3_lag3 ret_3_lag5 ret_3_lag10 ret_5_lag1 ret_5_lag2 ret_5_lag3 ret_5_lag5 ret_5_lag10 ret_10_lag1 ret_10_lag2 ret_10_lag3 ret_10_lag5 ret_10_lag10 ret_20_lag1 ret_20_lag2 ret_20_lag3 ret_20_lag5 ret_20_lag10 macd_diff_lag1 macd_diff_lag2 macd_diff_lag3 macd_diff_lag5 macd_diff_lag10 rsi_14_lag1 rsi_14_lag2 rsi_14_lag3 rsi_14_lag5 rsi_14_lag10 atr_pct_lag1 atr_pct_lag2 atr_pct_lag3 atr_pct_lag5 atr_pct_lag10 roll_mean_5 roll_std_5 roll_skew_5 roll_kurt_5 roll_max_ratio_5 roll_min_ratio_5 roll_mean_10 roll_std_10 roll_skew_10 roll_kurt_10 roll_max_ratio_10 roll_min_ratio_10 roll_mean_20 roll_std_20 roll_skew_20 roll_kurt_20 roll_max_ratio_20 roll_min_ratio_20 roll_mean_50 roll_std_50 roll_skew_50 roll_kurt_50 roll_max_ratio_50 roll_min_ratio_50 hour_sin hour_cos dow_sin dow_cos month_sin month_cos
feature_infos=[-0.095873438699119393:0.081189285431815972] [-0.12722100291601321:0.10866041328581004] [-0.14200688348361376:0.11907893411185407] [-0.18703613101666394:0.14372020548483508] [-0.22094112894387358:0.17576141903297796] [-0.31621487248049335:0.26574984784472871] [-0.11378919666111043:0.091101713585269639] [-0.15749234945819512:0.13544538458605482] [-0.21688776698090984:0.17105752419958153] [-0.29139672568687058:0.21372476593015199] [-0.35835608063852498:0.29098919036807835] [-3925.6456852572301:3366.246247906558] [-3276.8273406245817:3071.5215160172916] [-1266.5664923394568:1332.8217872082828] [7.3191717062317307:73.995147468319402] [1.3652744134766146:65.951452171413109] [1.770148511313955:73.838492023373973] [-0.12964737751316413:0.10037468306893249] [-0.25159183220264592:0.17350544985333149] [1.2788004721745665:97.684298638784711] [5.4836690373052761:92.696500541519967] [10.188506602623633:90.741174413525016] [-45.57547204837563:39.322303824983287] [0:100] [3.6218311753962169:98.224879793447954] [-17.0586231718665:15.45610234865158] [-19.823612041279929:19.21535995601344] [-27.109718781566222:30.440871721915176] [-100:0] [-486.58230204132963:615.71592725777214] [24.646404572690816:81.777872107635176] [0.0037092835058357338:0.053179947481888597] [-0.51355134774061251:1.5744145616291183] [0.32739028344429694:39.307541356309308] [-0.29431554587056341:0.047902616812261378] [-0.072228006217734397:0.40814354152333299] [-2.7375969491593044:4.1693371589156838] [0.5964629230508216:11.588093498610284] [0.044467081384593703:3.2212415823270995] [0.064159837614850293:2.5585105992336969] [0.19095185123446648:2.0819632797922623] [0.12360853403273582:2.1624003834560233] [-4.8019343078987076:4.6649276124086718] [0.06551609147980561:5.6923704485369404] [0.058645262086644265:9.6731649695793234] [2.0532847280281032:98.585939010294041] [-0.45623439758550405:0.48001128665427528] [-0.15055249477203736:0.13627006119939544] [0.70254240687604486:10.253692592440835] [-3.5221584559822672:3.7984536969244496] [0.00070041556254200432:0.21694941588775155] [0:0.99999999999941802] [-1:1] [0:0.95431411148760481] [0:0.9892473117854087] none [0:0.99999999999965505] [-0.095873438699119393:0.081189285431815972] [-0.095873438699119393:0.081189285431815972] [-0.095873438699119393:0.081189285431815972] [-0.095873438699119393:0.081189285431815972] [-0.095873438699119393:0.081189285431815972] [-0.12722100291601321:0.10866041328581004] [-0.12722100291601321:0.10866041328581004] [-0.12722100291601321:0.10866041328581004] [-0.12722100291601321:0.10866041328581004] [-0.12722100291601321:0.10866041328581004] [-0.14200688348361376:0.11907893411185407] [-0.14200688348361376:0.11907893411185407] [-0.14200688348361376:0.11907893411185407] [-0.14200688348361376:0.11907893411185407] [-0.14200688348361376:0.11907893411185407] [-0.18703613101666394:0.14372020548483508] [-0.18703613101666394:0.14372020548483508] [-0.18703613101666394:0.14372020548483508] [-0.18703613101666394:0.14372020548483508] [-0.18703613101666394:0.14372020548483508] [-0.22094112894387358:0.17576141903297796] [-0.22094112894387358:0.17576141903297796] [-0.22094112894387358:0.17576141903297796] [-0.22094112894387358:0.17576141903297796] [-0.22094112894387358:0.17576141903297796] [-0.31621487248049335:0.26574984784472871] [-0.31621487248049335:0.26574984784472871] [-0.31621487248049335:0.26574984784472871] [-0.31621487248049335:0.26574984784472871] [-0.31621487248049335:0.26574984784472871] [-1266.5664923394568:1332.8217872082828] [-1266.5664923394568:1332.8217872082828] [-1266.5664923394568:1332.8217872082828] [-1266.5664923394568:1332.8217872082828] [-1266.5664923394568:1332.8217872082828] [5.4836690373052761:92.696500541519967] [5.4836690373052761:92.696500541519967] [5.4836690373052761:92.696500541519967] [5.4836690373052761:92.696500541519967] [5.4836690373052761:92.696500541519967] [0.0037092835058357338:0.053179947481888597] [0.0037092835058357338:0.053179947481888597] [0.0037092835058357338:0.053179947481888597] [0.0037092835058357338:0.053179947481888597] [0.0037092835058357338:0.053179947481888597] [-0.037407226203332769:0.028744041096967037] [0.00026294469579145314:0.052815048541411586] [-2.2332615183111972:2.2230593419108819] [-3.3317760103949943:4.9898453773991163] [0.84465574333264204:1] [1:1.1264588308065413] [-0.022094112894387383:0.017576141903297798] [0.00057178496838998201:0.041420697265855094] [-3.147338539222365:2.9742956969127379] [-2.2633807426551358:9.931649970829282] [0.78769014337198251:1] [1:1.1966079738836186] [-0.015810743624024688:0.013287492392236446] [0.00082500648974960272:0.03289889636460655] [-4.3179672820572303:4.2148621967395972] [-1.40615145919301:19.053281631793116] [0.73747648793462617:1] [1:1.2909667608817981] [-0.010155140559785971:0.006816727033632025] [0.0024222486989731438:0.028072475154426166] [-4.5265914315163087:4.0472289256319138] [-0.80310562097388927:24.242076147973076] [0.61328923776940547:1] [1:1.4078835686385724] [-0.8660254037844386:0.86602540378443871] [-1:1] [-0.97492791218182362:0.97492791218182362] [-0.90096886790241903:1] [-1:1] [-1:1]
tree_sizes=990 1278 1502 1211 1478 1077 1634 1717 1732 1184 1499 1533 1319 1516 1530 1096 1187 1534 1220 1500 1440 1430 1191 1424 1530 1418 996 1538 1316 793 1418 1498 1735 1185 1598 1107 1610 1208 1517 1625 1625 1331 1318 1506 1530 1219 1419 895 1646 777 893 1536 1525 1623 1189 1315 1524 1008 1100 1103 1638 1078 1725 1099 1742 1092 1118 1207 1199 1210 1534 1622 1083 1199 1519 1105 1069 1746 1526 1195 1638 1416 1386 999 1633 1395 1510 1432 1320 998 1426 1288 1107 1219 1507 1405 1528 1413 1109 1730 1745 1729 1319 1061 1176 1093 1525 896 1305 1426 1642 1634 1317 1536 1854 1384 1858 1857 1406 1868 791 1735 1094 1747 933 787 1384 1367 1320 797 967 1203 1528 1677 1308 1399 787 1513 1113 1594 1761 1617 1299 1110 1431 1719 1215 902 1305 1314 1760 1703 689 1208 1428 1319 1312 1180 1323 1760 1506 796 1534 1511 1423 1612 1604 1647 1659 1086 1431 1200 1619 1218 791 1761 1436 1213 1295 1220 1623 1293 1835 1646 1199 1738 1307 1319 1730 1209 1497 1107 1836 1685 1429 1638 1090 1496 1107 1396 1526 1213 1481 1068 1420 1407 1413 1736 1321 1007 1217 1472 1209 1423 1477 1176 1742 1414 1497 1621 1294 1109 1630 899 1418 1415 1193 1548 1549 1486 1109 893 1813 1649 1635 1173 1739 1225 1293 1191 1117 1836 1114 884 1820 1440 1512 1177 1425 1721 1614 1540 1623 1677 1850 1848 1509 1203 1297 1792 1732 1645 1385 803 1185 1480 1071 1852 1753 1528 1838 1684 1749 1431 1462 1666 1645 1386 1086 1760 1493 1516 1426 1362 1505 1007 1772 1084 1224 1666 982 899 1100 896 1104 1203 1000 1224 933 1007 1301 857 1222 1017 1168 1312 1632 1692 1523 1537 1484 1008 1753 1258 1218 889 1502 1114 1640 1574 1652 1606 1614 1859 1639 1688 1645 1112 1648 1109 1011 1157 1430 1872 1709 1616 1530 1295 1117 884 1214 1210 1633 1380 1316 1689 1505 1314 1503 1536 1324 1759 1687 1229 1305 1663 1005 1418 1699 1002 1313 1454 777 1738 1453 1121 1296 1691 1003 1217 1299 694 904 1298 1108 1633 1207 1717 1529 1779 1554 1329 1575 1639 1200 1564 1646 1004 1370 1213 1195 1739 1662 1428 1668 1617 1731 1797 1528 1740 1519 1758 1441 1809 1548 1299 1768 1879 1328 1610 1742 1521 1577 1408 1740 1757 1520 1533 1288 1521 1744 1614 1756 1008 1452 1100 1620 1573 1535 1707 1581 1644 1540 1726 1843 1844 1443 1738 1856 1669 1646 1739 1563 994 1302 1815 1748 1295 1718 1215 1520 1194 1540 1511 1516 1212 1334 1568 1745 1634 1568 1330 1745 1732 1112 1544 1567 1270 1327 1721 1753 1757 1665 1317 1715 1737 1853 1219 1632 1534 1429 1603 1640 1228 1195 1402 1216 1672 980 1418 1539 1653 1395 1754 1623 1758 1697 1636 1755 1574 984 1646 1675 1098 1405 1088 1437 1520 1474 1541 1117 1186 1745 1226 1762 1622 1409 1777 1649 1009 1159 1011 1404 1553 1427 1112 1696 1303 1090 1395 988 1212 1628 1307 1120 1584 1822 977 1383 1200 1328 1575 1428 1543 1775 1427 1403 1326 1327 1841 1760 1723 1757 1349 1200 1640 1775 1393 1620 1242 1707 1624 1235 1757 1624 1807 1434 1537 1360 1731 1519 1559 1645 1642 1600 1737 1735 1482 1720 1755 1707 1116 1087 1298 1225 1761 1593 887 1010 1292 1652 1206 1537 1212 1844 1491 1861 1112 1662 1602 1845 1565 1541 1614 1574 1094 1544 1582 1715 1443 1556 1403 1740 1431 1733 1647 1353 1528 1647 1796 1653 1743 1524 1546 1731 1749 1296 793 1465 842 1323 1163 1420 1426 1144 1545 1636 1784 1832 1528 1690 1538 1012 1288 1221 1211 1535 1735 1109 1566 1406 1619 1549 1539 1309 1330 1115 1408 1763 1837 1305 1472 1325 1650 1352 1401 1626 858 1728 1430 1537 1507 1714 1628 1610 1330 1462 1544 1332 1757 1326 1282 1442 1206 1618 1691 1509 1746 1456 1735 1202 1574 979 1198 1368 1596 1111 1245 1431 1306 1441 1521 1736 1622 1480 1619 1531 1401 1312 1641 1298 1639 1636 1735 1650 1554 1312 1727 1059 1818 1635 1423 1510 1323 1552 1631 1647 1659 1531 1114 1773 1822 1823 1616 1317 1543 1140 1090 1628 1653 1843 1643 1624 1858 1832 1625 1733 1631 1617 1746 1093 1546 1119 1296 1460 1645 1738 1646 1728 1535 1531 1534 1010 1755 1017 1644 1548 1443 1698 1411 1730 1752 1514 1511 1519 1596 1735 1514 1742 1760 1184 1655 968 1080 1401 1518 1424 1426 1220 1760 1714 1656 1550 1712 1516 1601 1623 1627 1761 1711 1499 961 1638 1131 1534 1434 1620 1422 1733 1205 1372 1524 1307 1334 1652 1093 1336 1631 1315 1444 1606 1746 883 1334 1312 1512 1644 1391 1821 1501 1717 1427 1610 1862 1643 1516 1523 1536 1508 1622 985 1725 1005 1566 1308 1199 1500 1303 1511 1304 1425 1403 1530 1329 1625 910 1611 1077 1423 1509 1546 1762 1416 1221 1647 1722 1523 1499 1511 1773 1518 1414 1705 1552 1679 1640 1719 1702 1309 1515 1426 1500 1820 1393 1729 1438 1502 1436 1847 1507 1857 1534 1501 1421 1320 1432 1333 1617 1601 1096 1510 1593 1809 1603 1528 1642 1608 1447 1535 783 1609 1833 1397 1611 1200 1698 1626 1541 1530 1206 1280 1421 1580 1542 1549 1593 1396 1441 1382 1502 1740 1420 1732 1658 1109 1611 1729 1497 1271 1713 1109 1704 910 1625 1316 1197 1402 1521 1851 1412 1627 1218 1398 1100 1627 1496 1646 1731 1597 1726 1851 1419 1643 1606 1515 1758 1214 1388 995 1648 1586 1622 1741 1107 1745 1425 1424 1431 1010 1116 987 1747 1502 1620 1335 1198 1412 1313 1516 1623 1650 1380 1625 1838 1202 1727 1746 1315 1741 1187 1382 909 1318 1221 1746 1615 1477 1009 1745 1316 1745 1527 1388 1552 1414 1394 1100 1078 1110 1643 1439 1395 1529 1186 1376 1106 1428 1396 987 1616 1491 1851 1755 1589 1217 1294 1395 1627 1201 1119 1169 1831 1286 1597 1481 1199 1658 1394 1477 1400 1688 1193 1530 885 1387 916 1507 1202 1590 1396 1198 1321 1724 1100 1654 1554 1108 1752 1741 1325 1870 1296 1111 1298 1547 1306 1107 1609 1199 1321 1404 1505 1407 1744 1379 1606 1422 1386 1608 1528 1500 1539 1434 1416 1086 1441 1306 1768 1757 1390 1553 1739 1290 1438 1860 1288 1758 1615 1111 1506 1708 1201 1604 1406 1388 1519 1495 1081 1552 1381 1394 1389 1527 1209 1597 1310 1194 1419 1322 1200 1512 1335 1110 1223 1648 1399 1525 1634 1310 1482 1525 1191 1745 1514 1191 1537 916 983 1520 1438 1188 1706 1407 1278 1499 1452 1202 1395 1336 1101 1312 1643 1200 1643 1677 1219 1552 995 1195 1645 1395 1196 1339 1871 1189 1825 1743 1380 1749 1747 1270 1752 1743 1089 1657 888 1082 1648 1698 1086 1752 1550 1274 1540 1522 1167 1288 1118 1098 981 901 1094 1734 976 1011 1319 1422 1022 1457 1734 1083 1535 1623 1012 1639 1104 1091 1100 1637 1379 1432 1427 1286 1729 1621 811 1604 1817 1099 1846 1317 1007 1309 1217 1004 1333 1845 1093 1871 1756 1105 1620 1747 1010 1830 1315 1103 1745 1281 1008 1309 1164 1288 963 1876 998 1584 1369 1085 1401 1825 1113 1844 1846 1008 1091 1745 1195 1750 1420 1198 1451 1669 901 1533 1435 1196 1512 1805 1204 1432 1575 1091 1203 1624 1080 1841 1529 1090 1428 1249 896 1297 1311 1082 854 1651 1002 1521 1701 1192 1838 1864 900 1778 1485 1086 1734 1286 817 1096 1432 1098 1650 1501 1184 1717 1847 1004 1400 1444 901 1742 1451 821 1636 1103 1074 1401 1827 1079 1079 1528 1084 1637 1210 1093 1667 1173 1094 868 1109 997 1191 1852 1100 1857 1832 1090 1004 1477 1096 1614 1407 1092 1707 1448 1097 1431 1736 892 1522 1771 890 1860 1376 1089 1511 1568 895 1551 1195 1085 1763 905 1080 1630 1605 894 1132 1505 883 1288 1217 903 1814 1539 906 1421 1807 906 1703 993 986 976 1517 890 1536 1298 1089 1291 1746 1083 1643 1645 1091 1587 1487 1098 1517 1636 902 1589 1320 812 1019 1610 900 1713 1319 817 1724 1728 1189 1720 1845 896 1758 1744 899 1742 1340 894 1418 1679 897 1656 1711 888 1819 1835 1085 1310 1519 902 1821 1637 894 1644 1758 1104 1866 1592 1091 1729 1768 894 1781 1728 1090 1730 1311 1085 1305 1617 992 1306 1719 894 1576 1531 1087 1636 1096 908 1107 1752 898 1757 1824 900 1549 1552 883 1717 1271 889 1739 1293 895 1321 1432 893 1724 1529 918 1525 1850 713 1737 1730 992 1617 1389 898 1634 1695 229 1396 1390 543 1277 1747 895 1742 1620 894 1754 1404 911 1722 1131 896 1533 1835 906 1678 1592 901 1614 1863 906 1734 1822 1082 1823 1011 905 1726 1656 991 1827 1299 898 1198 1673 810 1745 1753 906 1832 1839 902 1194 1848 893 1605 1511 886 1584 1575 1101 1589 1390 804 1299 1514 901 1853 1631 902 1840 1690 900 1706 1670 898 1642 1623 901 1641 1601 622 1593 1546 818 1699 1214 895 1188 1816 819 1735 1520 900 1092 1069 814 1736 1709 988 1422 1589 896 1633 1502 898 1820 1426 890 1869 1454 719 1490 1576 615 1486 1735 810 1613 1620 909 1669 1694 917 1729 1493 640 1599 1715 650 1702 1179 817 1177 1460 545 1508 1641 810 1358 1747 914 1723 1728 809 1571 1615 913 1806 1790 830 1699 1527 825 1603 1693 904 1746 1603 909 1688 1809 899 1818 1578 811 1733 1383 229 1499 1737 229 1774 1783 904 1702 1656 904 1700 1615 887 1796 1833 809 1812 1600 809 1500 1623 898 1074 1627 894 1660 1455 900 1763 1713 902 1812 1392 895 1210 1078 229 1392 1810 635 1693 1821 818 1724 1682 807 1712 1501 799 1617 1514 902 1792 1703 907 1610 1594 633 1241 1741 617 1676 1855 622 1848 1602 616 1866 1498 618 1800 1632 617 1493 1504 623 1582 1805 820 1743 1434 739 1392 1613 742 1721 1812 554 1803 1608 818 1603 1585 542 1372 1808 440 1790 1688 229 1798 1802 229 1374 1697 229 1690 1388 229 1473 1526 229 1304 1656 913 1689 1609 902 1852 1772 726 1573 1772 545 1584 1345 622 1809 1109 441 1476 1517 718 1504 1407 542 1391 1186 229 1273 1286 229 1208 1390 229 1378 1362 438 1442 1651 907 1805 1299 904 1570 1218 712 1212 1678 906 1681 1704 912 1662 1272 902 1077 1525 808 1691 1507 229 1822 1176 229 1292 1669 229 1668 1290 229 1722 1683 229 1737 1366 610 1264 1297 615 1566 1437 617 1499 980 615 952 1574 229 1101 1596 229 1585 1178 890 1204 1800 229 1485 1243 229 1708 1743 229 1830 1839 229 1762 1270 229 1644 1313 820 1708 1480 917 1543 1402 818 1402 1487 730 1681 1832 825 1838 1563 637 1650 1540 896 1524 1466 607 1461 1568 722 1564 1522 613 1809 1795 438 1582 1680 535 1666 1545 903 1716 1724 814 1446 1085 732 1695 1454 725 1656 1177 903 1394 1176 532 1194 1621 905 1382 1480 622 1584 1151 899 1598 1695 616 1559 1709 812 1273 1367 725 1499 1807 611 1313 1688 620 1736 1271 533 1263 1780 533 1675 1454 229 1723 1367 229 1275 1604 906 1481 1678 545 1816 1404 544 1800 1276 545 1278 1468 546 1806 1478 729 1399 1607 614 1433 1576 802 1591 1702 722 1557 1731 532 1723 1620 229 1308 1181 229 1091 1699 896 1712 1690 1089 1441 1593 811 1520 1509 901 1563 1670 811 1613 1454 609 1471 1699 611 1686 1841 907 1678 1658 810 1804 1809 613 1798 1783 615 1674 1786 620 1755 1570 804 1717 1475 719 1575 1730 620 1826 1568 619 1469 1810 443 1667 1556 437 1478 1808 620 1779 1658 618 1611 1825 615 1830 1866 619 1678 1599 229 1560 1686 229 1719 1612 347 1778 1823 449 1682 1593 450 1492 1668 229 1686 1695 450 1086 1758 229 1777 1666 610 1677 1548 612 1436 1697 618 1787 1080 442 1455 1391 229 1816 1697 229 1797 986 623 1072 1419 610 1681 1764 616 1824 1584 617 1578 1615 527 1547 1622 350 1812 1701 727 1334 1749 532 1687 1740 530 1793 1483 229 1482 1677 532 1733 1709 442 1695 1659 720 1658 1778 624 1789 1837 902 1769 1640 613 1554 1763 718 1821 1780 718 1269 1557 620 1708 1653 440 1607 1709 440 1752 1103 438 1794 1783 229 1734 1544 229 1638 1784 623 1742 1824 229 1789 1753 229 1787 1609 229 1814 1168 229 1166 1577 229 1586 1763 612 1704 1785 619 1673 1768 443 1823 1567 229 1647 1368 442 1803 1804 229 1373 1672 530 1597 1565 443 1799 1778 229 1759 1673 229 1636 1471 229 1575 1714 229 1724 1792 615 1761 1761 229 1471 1638 348 1378 1778 229 1749 1616 229 1342 1468 229 1612 1261 728 1104 1688 532 1587 1410 446 1680 1770 443 1749 1511 446 1781 1642 229 1570 1578 349 1470 1574 441 1584 1462 229 1785 1356 229 1660 1693 229 1708 1762 229 1676 1785 718 1148 1325 229 1662 1798 229 1176 1588 229 1538 1061 229 1177 1241 229 1306 1483 902 1800 1561 724 1777 1772 438 1770 1548 229 1739 1652 229 1647 1334 229 1455 1684 347 1771 1548 348 1681 1662 229 1664 1362 348 1369 1811 229 1569 1594 229 1502 1532 618 1678 1643 618 1458 1664 618 1700 1663 229 1688 1355 229 1426 1388 348 1761 1691 726 1552 1762 620 1609 1756 440 1700 1545 439 1560 1364 229 1720 1741 529 1675 1805 623 1732 1693 442 1643 1660 442 1619 1376 229 1168 1538 229 1144 1668 229 1574 1828 350 1553 1808 350 1670 1742 536 1410 1628 229 1719 1759 229 1632 1753 229 1763 1736 440 1796 1679 229 1661 1778 229 1772 1728 229 1754 1541 229 1750 1584 229 1683 1691 442 1767 1665 442 1575 1482 229 1488 1763 229 1760 1463 229 1550 1442 229 1654 1648 229 1647 1769 229 1628 1771 229 1338 1550 229 1640 1566 229 1796 1654 229 1336 1542 440 1779 1754 545 1775 1768 543 1766 1725 348 1588 1698 229 1578 1660 229 1535 1567 615 1385 1572 618 1818 1768 351 1660 1668 350 1747 1687 353 1636 1771 229 1762 1647 440 1553 1742 229 1740 1669 229 1681 1647 229 1648 1774 229 1635 1779 229 1781 1594 229 1720 1530 229 1645 1767 229 1752 1784 229 1659 1785 229 1446 1737 229 1623 1681 436 1625 1521 229 1633 1655 229 1557 1528 229 1652 1655 229 1646 1761 229 1699 1747 229 1606 1472 229 1821 1236 229 1551 1528 229 1752 1632 229 1653 1662 229 1741 1470 618 1671 1273 622 1050 1513 534 1751 1312 229 1625 1545 229 1488 1636 229 1762 1756 439 1639 1265 441 1803 1564 439 1565 1550 229 1623 1776 229 1649 1643 229 1760 1339 229 1628 1538 438 1767 1740 229 1629 1625 229 1438 1784 229 1756 1626 229 1512 1510 615 1642 1574 628 1771 1626 229 1727 1508 229 1521 1640 229 1641 1530 229 1626 1555 623 1588 1659 615 1637 1621 229 1660 1791 229 1781 1560 229 1550 1418 229 1497 1674 615 1538 1662 445 1664 1600 439 1751 1751 442 1758 1252 351 1567 1643 229 1775 1634 229 1469 1663 229 1738 1762 229 1758 1420 229 1422 1554 229 1575 1734 229 1562 1749 229 1723 1633 229 1755 1624 229 1767 1758 229 1771 1648 229 1638 1754 229 1768 1304 616 1558 1616 621 1750 1646 621 1677 1400 622 1737 1615 623 1542 1622 615 1642 1531 623 1654 1676 625 1775 1594 612 1718 1636 622 1740 1776 621 1635 1663 625 1633 1756 621 1558 1739 625 1668 1646 536 1562 1603 229 1764 1687 229 1759 1641 229 1612 1572 229 1563 1232 229 1350 1643 229 1516 1749 229 1176 1745 229 1763 1718 229 1750 1724 229 1753 1658 229 1629 1242 229 1726 1513 229 1706 1726 229 1516 1614 229 1726 1773 229 1625 1515 229 1333 1613 229 1333 1751 229 1728 1690 229 1636 1731 229 1637 1607 621 1610 1673 622 1750 1662 613 1663 1441 617 1652 1362 443 1761 1623 229 1392 1742 229 1753 1716 229 1546 1624 229 1727 1597 229 1514 1746 229 1739 1704 229 1426 1746 621 1758 1723 618 1447 1638 229 1623 1642 229 1571 1645 229 1587 1731 229 1740 1634 609 1508 1714 621 1764 1633 618 1738 1541 435 1637 1610 229 1661 1750 229 1546 1613 229 1716 1591 229 1725 1543 229 1624 1458 229 1631 1718 229 1595 1636 229 1639 1739 619 1501

Tree=0
num_leaves=8
num_cat=0
split_feature=21 81 86 84 14 128 101
split_gain=41.9497 14.5617 15.8765 9.99892 9.76565 8.27807 5.77472
threshold=69.762613818222334 0.067942790473738843 0.018507847341326225 -0.070604317089306687 41.57326464341417 -1.0000000180025095e-35 0.013018109000781783
decision_type=2 2 2 2 2 2 2
left_child=1 2 3 -1 -4 -2 -7
right_child=5 -3 4 -5 -6 6 -8
leaf_value=-0.66238248687171319 -1.0516279443730945 -0.88813103807567595 -0.6642117853706021 -0.74960071544892648 -0.78350196765971603 -0.92987887981081474 -0.74120117490636894
leaf_weight=125.73614007234573 32.182462871074677 47.525263786315918 446.06390395760536 1184.3894440829754 66.984429836273193 39.292539358139038 23.949739515781403
leaf_count=336 86 127 1192 3165 179 105 64
internal_value=-0.738074 -0.728265 -0.723985 -0.741104 -0.680065 -0.92803 -0.861044
internal_weight=1966.12 1870.7 1823.17 1310.13 513.048 95.4247 63.2423
internal_count=5254 4999 4872 3501 1371 255 169
is_linear=0
shrinkage=1


Tree=1
num_leaves=11
num_cat=0
split_feature=31 41 33 15 109 120 129 11 120 91
split_gain=79.7052 37.403 32.173 29.717 26.8982 19.6344 19.3978 16.8251 9.14129 5.40191
threshold=0.025885989926258911 1.3966854451597561 13.638034412993049 9.2784029312022991 0.017789599299187182 -0.0013736049041088664 1.0000000180025095e-35 1095.1134134903953 4.9167801327711277e-05 318.04506962744551
decision_type=2 2 2 2 2 2 2 2 2 2
left_child=1 6 8 -2 -5 -6 7 -1 -3 -8
right_child=3 2 -4 4 5 -7 9 -9 -10 -11
leaf_value=-3.2264268965760921 -3.2479527680904283 -2.923478592564611 -2.2625598836465746 -2.9695602025271408 -1.7532382217378157 -2.756159216371981 -3.375722654892122 -2.838018329025819 -3.2881963182746432 -3.0860844898276905
leaf_weight=138.15388697385788 4.8206892237067249 13.580233417451387 4.8794777393341056 6.2316212281584731 5.173422560095787 3.9976446926593763 107.87761044502258 9.8765325099229795 9.2886441722512227 4.9970554113388053
leaf_count=2350 82 231 83 106 88 68 1835 168 158 85
internal_value=-3.19481 -3.23443 -2.91331 -2.63663 -2.44197 -2.12892 -3.26959 -3.19845 -3.07578 -3.36131
internal_weight=308.877 288.653 27.7484 20.2234 15.4027 9.17107 260.905 148.03 22.8689 112.875
internal_count=5254 4910 472 344 262 156 4438 2518 389 1920
is_linear=0
shrinkage=1


Tree=2
num_leaves=13
num_cat=0
split_feature=122 10 86 14 84 125 120 116 122 40 116 130
split_gain=26.8706 22.7554 16.6179 27.2308 15.0562 13.0867 10.3542 11.2978 10.0443 8.82644 8.81303 7.83828
threshold=1.0377212959256472 1.0000000180025095e-35 0.018507847341326225 47.650938505768458 -0.070604317089306687 1.0668163751152249 0.0028347225542957933 0.86827098287520477 0.0843608376049262 1.1472828150200114 0.041382801538665061 -0.5
decision_type=2 2 2 2 2 2 2 2 2 2 2 2
left_child=2 11 4 9 8 -6 10 -8 -1 -4 -3 -2
right_child=1 6 3 -5 5 -7 7 -9 -10 -11 -12 -13
leaf_value=-0.86765663698422524 -0.90094998181547337 -0.69705510224276701 -0.79285628318374246 -0.56006578946302044 -0.70334311979672193 -0.79367254913714314 -0.57052603429361304 -0.83341962647399215 -0.66417290963828901 -0.90157449486043206 -0.5158195845358734 -0.68684114931915763
leaf_weight=98.497446715831757 32.208289623260498 31.833772838115692 354.66570127010345 39.324076414108276 948.27197885513306 162.16497272253036 26.965084910392761 28.463140189647675 25.467019557952881 82.018787741661072 112.35450387001038 25.467019557952881
leaf_count=263 86 85 947 105 2532 433 72 76 68 219 300 68
internal_value=-0.732182 -0.643571 -0.745609 -0.792361 -0.727665 -0.716674 -0.596305 -0.707517 -0.824722 -0.813754 -0.554679 -0.804679
internal_weight=1967.7 257.292 1710.41 476.009 1234.4 1110.44 199.617 55.4282 123.964 436.684 144.188 57.6753
internal_count=5254 687 4567 1271 3296 2965 533 148 331 1166 385 154
is_linear=0
shrinkage=1


Tree=3
num_leaves=10
num_cat=0
split_feature=21 130 46 16 109 12 66 131 121
split_gain=23.5902 11.484 10.7779 18.3124 9.6732 7.77161 5.5775 3.35257 2.19416
threshold=69.762613818222334 -0.93301270189221919 0.106864236514217 21.286349859547808 0.022835265567115029 112.15951721771525 -0.00030412418251406448 -1.0000000180025095e-35 0.0069566441225728812
decision_type=2 2 2 2 2 2 2 2 2
left_child=1 2 3 -1 5 -3 -6 -2 -9
right_child=7 4 -4 -5 6 -7 -8 8 -10
leaf_value=-0.23575955052496256 -0.041185335904681208 0.0047938837930697961 0.057809914848034084 -0.0090286028295816952 -0.20034437960614512 0.047018554335640526 -0.0018776805232945041 -0.25922165561010391 -0.13120755633231426
leaf_weight=54.48470413684845 24.210581809282303 1038.7067914605141 45.541887581348419 73.61309802532196 26.751322060823441 602.45988890528679 24.826734393835068 22.714143723249435 45.008410453796387
leaf_count=146 67 2780 122 197 72 1615 67 64 124
internal_value=0.00162416 0.00888456 -0.0630227 -0.10704 0.0163539 0.0203826 -0.10827 -0.143588 -0.177711
internal_weight=1958.32 1866.38 173.64 128.098 1692.74 1641.17 51.5781 91.9331 67.7226
internal_count=5254 4999 465 343 4534 4395 139 255 188
is_linear=0
shrinkage=0.29469


Tree=4
num_leaves=13
num_cat=0
split_feature=38 71 101 128 11 10 59 19 126 40 64 59
split_gain=34.6674 14.1677 16.5254 13.0846 12.6816 20.7919 10.5108 8.21369 8.10973 7.69291 2.14702 0.889567
threshold=0.9791934591475695 0.021925958319376212 0.024063970262031439 -0.60785761079279388 768.15214961253525 0.038534452245781788 0.0093394063552967675 61.653823375945223 -1.0000000180025095e-35 0.81629959491698501 -0.010389933327003784 -0.0065737783695530988
decision_type=2 2 2 2 2 2 2 2 2 2 2 2
left_child=3 6 -3 10 8 -6 9 -8 -5 -2 -1 -12
right_child=1 2 -4 4 5 -7 7 -9 -10 -11 11 -13
leaf_value=0 0.23874211549047852 0.63645425885583673 0 0.049429158394659126 0.74526590620668065 0.025216105470876046 0.37934864607623026 0 -0.10526385088288605 -0.024377256253994176 -0.0082005730021746572 -0.20028362189048224
leaf_weight=5.9206808805465689 11.278052035719154 9.1775860786437971 5.523506522178649 42.355985105037689 4.0960047543048885 15.916105538606642 15.273851189762356 7.0613890551030627 88.192934639751911 49.697235163301229 3.6714749932289115 59.434007316827774
leaf_count=104 154 115 63 770 67 244 176 91 1617 690 64 1099
internal_value=-0.00411233 0.140735 0.404975 -0.0695307 -0.0196588 0.194351 0.0902986 0.261302 -0.0540997 0.0238538 -0.175485 -0.191285
internal_weight=317.599 98.0116 14.7011 219.587 150.561 20.0121 83.3105 22.3352 130.549 60.9753 69.0262 63.1055
internal_count=5254 1289 178 3965 2698 311 1111 267 2387 844 1267 1163
is_linear=0
shrinkage=0.29469


Tree=5
num_leaves=9
num_cat=0
split_feature=20 11 123 130 123 10 37 131
split_gain=14.0322 19.8742 14.4072 14.7169 10.9764 10.7782 10.6356 3.79336
threshold=71.364169774307967 1095.1134134903953 15.959425180619027 -0.93301270189221919 2.7166195438770369 0.14216545297581487 3.006464406197872 0.25000000000000017
decision_type=2 2 2 2 2 2 2 2
left_child=2 7 3 4 -1 -5 -3 -2
right_child=1 6 -4 5 -6 -7 -8 -9
leaf_value=0 0.10067277671959503 0.082872558918255027 -0.22660242338148767 -0.018676376809797585 0.15517782138753566 0.083429494691245137 -0.18275627417008686 0.24529045722800319
leaf_weight=77.236466884613037 31.955908447504044 25.399932324886322 25.197285175323486 1551.5390701293945 82.491081118583679 94.414289951324463 25.259712755680084 44.772824615240097
leaf_count=207 86 69 68 4160 221 254 68 121
internal_value=-0.000890878 0.0933964 -0.00754645 -0.00435268 0.0807899 -0.0127165 -0.0475947 0.18783
internal_weight=1958.27 127.388 1830.88 1805.68 159.728 1645.95 50.6596 76.7287
internal_count=5254 344 4910 4842 428 4414 137 207
is_linear=0
shrinkage=0.29469


Tree=6
num_leaves=14
num_cat=0
split_feature=122 121 117 110 120 11 28 109 90 86 117 10 61
split_gain=16.6963 15.8914 11.0842 12.5538 9.08913 13.8586 9.24695 10.7015 9.1004 8.86454 7.9229 4.6262 2.49699
threshold=1.0377212959256472 0.011024731090587015 4.5452109640409928 0.27273764191050071 0.00085973331088636852 691.63274296190878 -63.364585098634187 0.011343983316564841 105.62449597383137 -0.051562514635445332 2.0426060428741972 0.18174270110421012 -0.0002315660283205393
decision_type=2 2 2 2 2 2 2 2 2 2 2 2 2
left_child=4 2 3 -2 6 8 7 -1 -6 -8 -7 12 -3
right_child=1 11 -4 -5 5 10 9 -9 -10 -11 -12 -13 -14
leaf_value=0.05946643630454837 0.02924187530643672 -0.13926930919153596 0.12273470658644925 -0.15304735202683162 0.13370407074284971 -0.065533954187064175 0.047268247020422725 -0.026435507059207417 -0.057368240039445385 -0.033373291175185969 0.075757356053095123 -0.054785423467065643 -0.28029893213392559
leaf_weight=368.50090432167053 66.412219703197479 27.098147213459015 37.280135303735733 62.296690136194229 162.17556405067444 91.409522891044617 142.13199818134308 188.39627838134766 23.652555227279663 670.52493357658386 54.203493237495422 23.197012901306152 32.186263263225555
leaf_count=986 180 74 103 177 435 251 382 505 64 1798 146 65 88
internal_value=0.00105954 -0.0701397 -0.0165803 -0.0582641 0.0115539 0.055307 0.000854432 0.0301787 0.108602 -0.0190899 -0.0119777 -0.175582 -0.219795
internal_weight=1949.47 248.47 165.989 128.709 1701 331.441 1369.55 556.897 185.828 812.657 145.613 82.4814 59.2844
internal_count=5254 687 460 357 4567 896 3671 1491 499 2180 397 227 162
is_linear=0
shrinkage=0.29469


Tree=7
num_leaves=15
num_cat=0
split_feature=39 113 48 122 129 45 121 22 41 130 18 121 58 41
split_gain=23.7737 14.5707 23.7353 15.6107 13.0473 11.3903 19.5927 12.1279 9.31661 11.2145 5.5014 4.69623 1.57089 0.676965
threshold=0.92869949943070085 1.0370722841318352 7.0129369744164416 -0.088902535676494601 -1.0000000180025095e-35 75.597799729845903 0.0077155569244969574 -9.679692573224683 0.79773311719921036 -0.6830127018922193 -0.013279600094244224 0.015644963254107021 0.0084360906571004455 0.46365295944649659
decision_type=2 2 2 2 2 2 2 2 2 2 2 2 2 2
left_child=4 8 10 -4 5 7 -7 -1 13 -10 -3 12 -6 -2
right_child=1 2 3 -5 11 6 -8 -9 9 -11 -12 -13 -14 -15
leaf_value=0.25953723451287414 -0.0047251536108585141 0.20662790656225932 0.16863669816583043 0.64631451070563573 -0.18811654529013508 -0.077577700578046346 0.66775025196307225 -0.069858847349577008 0.31747914801873461 0 -0.11398658415588779 0.1332904353085981 -0.04139428000106516 -0.18996982300720996
leaf_weight=10.20530468598008 3.5941408611834076 6.1963306702673462 13.712782897055151 12.369630031287668 71.0701476149261 5.8771774321794492 5.1355982273817062 92.71495121344924 12.261465847492216 42.232000079005957 14.221086647361515 3.762860879302024 9.883660499006508 15.08548843860626
leaf_count=174 66 53 129 123 1471 95 68 1660 166 527 192 72 187 271
internal_value=-0.00629501 0.0967674 0.224919 0.408403 -0.0691194 -0.00271599 0.27368 -0.0347884 0.0125529 0.075748 -0.00778513 -0.156344 -0.172164 -0.162118
internal_weight=318.323 119.673 46.4998 26.0824 198.65 113.933 11.0128 102.92 73.1731 54.4935 20.4174 84.7167 80.9538 18.6796
internal_count=5254 1527 497 252 3727 1997 163 1834 1030 693 245 1730 1658 337
is_linear=0
shrinkage=0.29469


Tree=8
num_leaves=15
num_cat=0
split_feature=10 12 33 81 33 10 121 111 10 14 41 111 116 84
split_gain=12.2682 17.9142 12.9931 12.9634 12.1792 11.4431 12.0179 10.5635 10.4906 10.2256 9.46387 7.70589 6.52508 5.08822
threshold=0.0038708076786428962 -1.0000000180025095e-35 14.582535997050917 -0.018254986634497403 13.638034412993049 -0.029479952085639246 0.0090226573988481367 0.43607188290958282 -0.069010769459343521 19.74500056491603 0.91641453352316893 1.4564356477065761 -0.73717506927605558 -0.01781379913526113
decision_type=2 2 2 2 2 2 2 2 2 2 2 2 2 2
left_child=4 9 3 -3 5 7 -7 -1 12 13 -11 -4 -6 -2
right_child=1 2 11 -5 8 6 -8 -9 -10 10 -12 -13 -14 -15
leaf_value=-0.02992820245901132 0.2670976681817081 0.14776874095260492 0.25174047344376244 -0.01987029180436295 -0.16572578381359149 -0.011980905307666696 -0.12386434509115543 0.052825601724880156 -0.26010505863482214 0.12686682987553771 -0.032158610016960541 0.02954909370119798 0.03191425490404956 0.11297546916367088
leaf_weight=245.36179104447365 34.442026138305664 42.092728763818741 26.516242682933807 642.31448864936829 23.555460870265961 234.35898134112358 131.60490560531616 291.14002326130867 32.312845945358276 61.393620640039444 66.083974272012711 30.493263870477676 34.190092384815216 53.15685909986496
leaf_count=660 92 113 72 1740 65 628 354 782 88 164 177 83 94 142
internal_value=0 0.0237795 0.0018595 -0.00926593 -0.0229761 -0.0124706 -0.0526869 0.0147485 -0.126142 0.0985568 0.0436368 0.136497 -0.0472862 0.176277
internal_weight=1949.02 956.493 741.417 684.407 992.524 902.466 365.964 536.502 90.0584 215.076 127.478 57.0095 57.7456 87.5989
internal_count=5254 2583 2008 1853 2671 2424 982 1442 247 575 341 155 159 234
is_linear=0
shrinkage=0.29469


Tree=9
num_leaves=10
num_cat=0
split_feature=84 96 18 32 106 11 49 117 122
split_gain=11.4282 9.32226 6.62112 6.08322 8.48738 10.7739 8.41083 6.82105 3.17602
threshold=0.074949149372520021 57.866527984452446 0.084939260895191007 -0.10135027276751628 0.99000030620549928 -1162.972453840295 1.7058716140212216 2.9713386790749552 0.27871349693657876
decision_type=2 2 2 2 2 2 2 2 2
left_child=3 -2 8 7 5 -5 -6 -1 -3
right_child=1 2 -4 4 6 -7 -8 -9 -10
leaf_value=0.18148434230352123 0.080949546918856308 -0.075986864075103244 0 0.10395025913968794 0.021527955733033032 -0.04053286378977445 -0.1234829930201545 -0.0051286956976201517 -0.21855001573342914
leaf_weight=35.399503231048584 22.318532466888428 24.686397314071655 27.614538848400116 48.404997825622559 1176.7708041667938 490.5498850941658 35.042937636375427 29.794290065765381 47.090112745761871
leaf_count=95 62 67 80 130 3183 1321 98 80 138
internal_value=0.000876157 -0.0862645 -0.125327 0.00681067 0.00342937 -0.0272289 0.0171764 0.0949004 -0.172212
internal_weight=1937.67 121.71 99.391 1815.96 1750.77 538.955 1211.81 65.1938 71.7765
internal_count=5254 347 285 4907 4732 1451 3281 175 205
is_linear=0
shrinkage=0.29469


Tree=10
num_leaves=13
num_cat=0
split_feature=129 49 121 81 54 105 87 98 45 0 123 41
split_gain=16.2369 16.4723 14.6032 8.38567 11.1979 7.63945 6.41368 7.02698 5.96123 3.43524 3.62717 1.69503
threshold=1.0000000180025095e-35 -0.52161718559468484 0.016941601826004918 0.042153211854979923 0.32278170249902632 4.2917373754520769 286.1692127276703 0.017680212702251067 45.42757504577208 0.0069374612890446231 9.0952278302110923 1.7133601228816835
decision_type=2 2 2 2 2 2 2 2 2 2 2 2
left_child=1 9 6 5 -5 -3 11 -8 -4 10 -1 -2
right_child=2 3 8 4 -6 -7 7 -9 -10 -11 -12 -13
leaf_value=-0.13644687463554209 -0.17969029521457469 0.042486780447128843 -0.065540624674779752 0.024562028038336497 0.43609719323235807 0.39218693839175583 -0.15494954178136863 0.34823498688860166 0.25103484940454751 0.13378961516388743 0.13726836186566299 0
leaf_weight=49.181403655558825 82.148083508014679 116.76053839549422 7.4559211246669319 11.424220830202104 12.814526945352553 5.3097745776176444 4.1590820252895337 4.1160248816013336 12.308146763592957 4.4521735981106749 3.7060889936983576 3.5781545042991629
leaf_count=874 1868 1716 69 132 123 72 75 55 108 59 65 38
internal_value=-0.00837494 0.0409823 -0.0976285 0.0938024 0.252011 0.0603831 -0.146601 0.0867131 0.126709 -0.0912022 -0.113688 -0.171005
internal_weight=317.414 203.649 113.765 146.309 24.2387 122.07 94.0013 8.27511 19.7641 57.3397 52.8875 85.7262
internal_count=5254 3041 2213 2043 255 1788 2036 130 177 998 939 1906
is_linear=0
shrinkage=0.29469


Tree=11
num_leaves=13
num_cat=0
split_feature=9 124 128 48 47 16 131 28 110 125 104 10
split_gain=9.23263 16.2962 13.8629 11.5816 13.3267 11.076 12.909 8.90412 12.5383 9.34765 8.66179 7.04899
threshold=-0.0099430164200989251 0.98080568371504173 -1.0000000180025095e-35 5.4685455520930875 -0.0078369317623180317 19.408535753239843 -0.68301270189221952 -35.747640270829812 0.1533420623111055 1.0533768939682673 0.18100902335510499 0.076531488058072542
decision_type=2 2 2 2 2 2 2 2 2 2 2 2
left_child=1 5 3 11 -5 10 -7 8 -4 -9 -1 -2
right_child=2 -3 7 4 -6 6 -8 9 -10 -11 -12 -13
leaf_value=-0.20597286525903688 0.2268908660414283 -0.26224450054844262 -0.01693823312276143 -0.10109699402719252 0.055061872022588977 0.07166528558500633 -0.025744408216893309 0.034516604563942142 0.10621066552133289 -0.072138021448447082 -0.010714622955726404 0.048439728929980136
leaf_weight=44.35181513428688 49.06026029586792 23.734177500009537 204.12263488769531 53.940789699554443 348.96394085884094 151.53724014759064 527.01430079340935 96.736096948385239 109.08683037757874 255.47697269916534 37.912038415670395 35.434704542160034
leaf_count=120 133 64 552 146 950 408 1428 260 296 699 102 96
internal_value=0.000431625 -0.0241511 0.0172759 0.0550477 0.0337317 -0.0163768 -0.00376249 -0.0102202 0.0256521 -0.0424738 -0.118183 0.154334
internal_weight=1937.37 784.55 1152.82 487.4 402.905 760.815 678.552 665.423 313.209 352.213 82.2639 84.495
internal_count=5254 2122 3132 1325 1096 2058 1836 1807 848 959 222 229
is_linear=0
shrinkage=0.29469


Tree=12
num_leaves=11
num_cat=0
split_feature=21 9 9 131 123 13 117 115 128 41
split_gain=7.56866 5.94272 15.4787 15.0811 13.7008 14.5887 11.5963 10.8859 4.51241 4.72818
threshold=69.762613818222334 0.026660019063571964 0.0021918570537140529 0.93301270189221952 5.4362350563440121 -273.64766899515956 -0.22153258587699867 0.013583899062291032 -1.0000000180025095e-35 1.2641088097971858
decision_type=2 2 2 2 2 2 2 2 2 2
left_child=1 2 6 -4 5 -3 -1 -6 -2 -10
right_child=8 4 3 -5 7 -7 -8 -9 9 -11
leaf_value=0.097961767296573868 -0.19135189406500222 -0.14231803669787652 -0.076129297178985714 0.12113624381179081 -0.006258896270184269 0.07006866782749413 0.0016316184770324841 -0.24173268440551987 0.051193133305090982 -0.11569294054924201
leaf_weight=124.38275271654129 24.823741674423218 29.438762992620468 336.91255068778992 36.446450233459473 61.442243218421936 385.18854129314423 850.25401669740677 23.738402724266052 26.096466064453125 30.91255784034729
leaf_count=335 86 80 910 98 168 1048 2292 68 74 95
internal_value=0.000796957 0.00475744 -0.00533934 -0.0563846 0.0322216 0.0545169 0.0141035 -0.0744725 -0.0865274 -0.0373053
internal_weight=1929.64 1847.8 1348 373.359 499.808 414.627 974.637 85.1806 81.8328 57.009
internal_count=5254 4999 3635 1008 1364 1128 2627 236 255 169
is_linear=0
shrinkage=0.29469


Tree=13
num_leaves=13
num_cat=0
split_feature=129 31 49 57 117 111 12 51 16 12 9 13
split_gain=11.6217 11.3741 11.0705 7.39185 10.5067 9.69835 6.17658 5.47526 6.32155 2.86537 7.44563 2.24772
threshold=1.0000000180025095e-35 0.025885989926258911 -0.13262291113122751 -0.01293297391369133 -0.82200384030871609 0.24766048924267284 -549.93239501628557 0.78930684699680043 31.546263884521398 893.2588691917905 0.05925477858066331 254.86203654668626
decision_type=2 2 2 2 2 2 2 2 2 2 2 2
left_child=2 9 7 5 -5 -4 -3 8 -1 11 -11 -2
right_child=1 6 3 4 -6 -7 -8 -9 -10 10 -12 -13
leaf_value=-0.090038725127222913 -0.1765316610548526 -0.043084730952096841 -0.0078320377415056677 0.45295886117638628 0.033078753513961189 0.42782997057864619 0.27464516517428839 0.26612611259990737 0.27581323502238775 0.30217732517587365 -0.17565845039768588 -0.004125864653688539
leaf_weight=76.004985116422176 64.609464913606644 9.8922838866710681 6.3200644589960602 5.0081257820129386 104.70368987880647 10.84216323122382 9.4397588074207288 3.7950163483619681 3.6721588745713225 3.9964838922023755 7.0172330141067505 9.0404419898986799
leaf_count=1336 1736 82 72 54 1349 116 49 67 47 60 142 144
internal_value=-0.00865728 -0.0893062 0.0307329 0.0858066 0.0555064 0.264751 0.108818 -0.0514642 -0.0698578 -0.136448 0 -0.157279
internal_weight=314.342 103.996 210.346 126.874 109.712 17.1622 19.332 83.4722 79.6771 84.6636 11.0137 73.6499
internal_count=5254 2213 3041 1591 1403 188 131 1450 1383 2082 202 1880
is_linear=0
shrinkage=0.29469


Tree=14
num_leaves=13
num_cat=0
split_feature=117 121 14 123 123 48 33 13 130 14 33 66
split_gain=7.81352 9.91469 13.1555 20.455 10.5372 9.53346 11.9417 7.64536 7.52449 9.59498 6.96033 4.84363
threshold=-0.22153258587699867 0.0063123514890193891 22.428808831608809 1.6895861984955662 3.0386377578327934 5.9853366560449368 2.5518886788267818 -9.7321601434605522 -0.24999999999999994 13.560708524114506 3.0920064743011477 -0.0020372157456386795
decision_type=2 2 2 2 2 2 2 2 2 2 2 2
left_child=5 2 3 -2 -4 11 -7 -8 9 -3 -10 -1
right_child=1 8 4 -5 -6 6 7 -9 10 -11 -12 -13
leaf_value=0.15661406818598517 0.16387831336335104 0.17020281791240094 0.050538109405281945 -0.10762690202286992 0.23577999840761882 0.082037251844142733 -0.043011325505315542 -0.17198620675388751 -0.090202754975781466 0.014535888759387973 -0.0085440797757109048 -0.014000631547938265
leaf_weight=24.250004142522812 37.261287003755569 36.339689970016479 60.745110750198364 65.741864532232285 50.925742983818054 32.663579016923904 81.820867210626602 85.100935399532318 103.64955711364746 575.02581787109375 743.90518724918365 31.597254306077957
leaf_count=66 100 98 165 177 141 88 223 234 279 1570 2027 86
internal_value=0.000549105 0.00794612 0.0669996 -0.00783404 0.136876 -0.047331 -0.0776873 -0.10987 -0.000676831 0.0241385 -0.0187319 0.058591
internal_weight=1929.03 1673.59 214.674 103.003 111.671 255.433 199.585 166.922 1458.92 611.366 847.555 55.8473
internal_count=5254 4557 583 277 306 697 545 457 3974 1668 2306 152
is_linear=0
shrinkage=0.29469


Tree=15
num_leaves=9
num_cat=0
split_feature=14 124 18 10 5 10 39 1
split_gain=6.67781 9.42731 7.58709 7.91786 6.70704 7.92353 10.3559 4.20419
threshold=45.782632412443888 0.86458487329159028 0.084939260895191007 0.18174270110421012 0.061832553086992217 0.092054585967122252 1.0788628460822134 0.0026944925888547325
decision_type=2 2 2 2 2 2 2 2
left_child=1 -1 3 -3 5 6 -2 -6
right_child=4 2 -4 -5 7 -7 -8 -9
leaf_value=-0.12880185261708102 -0.13330817842890547 0.010209804264293854 0.16831620924648885 -0.14965254505292308 -0.23009197480931645 0.1163953909469212 0.046596425201616179 -0.05324463598165808
leaf_weight=42.927450224757195 62.154528647661209 1632.3514379858971 25.448193550109863 26.746366500854492 24.748961567878723 29.481064081192017 48.160129278898239 26.894267916679382
leaf_count=117 176 4437 71 74 81 83 131 84
internal_value=0.000643918 0.00650233 0.010066 0.00750817 -0.0514238 -0.0166608 -0.0537645 -0.141937
internal_weight=1918.91 1727.47 1684.55 1659.1 191.439 139.796 110.315 51.6432
internal_count=5254 4699 4582 4511 555 390 307 165
is_linear=0
shrinkage=0.29469


Tree=16
num_leaves=10
num_cat=0
split_feature=41 122 122 98 90 107 121 98 33
split_gain=9.30189 11.1835 10.7094 8.67873 8.41659 7.48468 5.1916 7.48455 1.75206
threshold=0.76714134149718749 -2.1181837159693533 -0.12545922310969937 0.012139323793684884 437.79769280989336 1.0165902011647023 0.01368523133901357 0.017954557295269308 1.6674442036284136
decision_type=2 2 2 2 2 2 2 2 2
left_child=4 -2 5 -4 6 -3 8 -8 -1
right_child=1 2 3 -5 -6 -7 7 -9 -10
leaf_value=0 0.3475079153623245 -0.1240013661114568 -0.079021278003122586 0.10678147583729264 0.28325430571907662 0.043280084070960692 0.33433152507578551 -0.088531177423397112 -0.177167192429972
leaf_weight=3.7621493339538565 8.2459433078765851 64.05434250831604 26.869379132986069 97.367077022790909 4.1146717071533194 34.504074573516846 4.2798861805349615 14.007316291332243 53.248247055336833
leaf_count=125 80 1099 556 1231 43 398 67 273 1382
internal_value=-0.00855226 0.0209301 0.00746815 0.0654035 -0.0954984 -0.064227 -0.119732 0.0102935 -0.163377
internal_weight=310.453 231.041 222.795 124.236 79.4123 98.5584 75.2976 18.2872 57.0104
internal_count=5254 3364 3284 1787 1890 1497 1847 340 1507
is_linear=0
shrinkage=0.29469


Tree=17
num_leaves=13
num_cat=0
split_feature=122 26 113 14 123 86 88 104 10 72 115 34
split_gain=6.52752 7.31368 12.3199 9.62184 6.74725 6.71244 11.2046 7.33405 8.93969 8.80147 4.83863 4.05971
threshold=0.87512348044833888 7.0304075756998587 1.0169478854958363 22.074932926747902 2.1202608489131447 0.022468969945431117 64.389984553383229 0.53655826542817187 0.073245601877785962 -0.00057538547506787044 0.008836702184559753 -0.021340012317169362
decision_type=2 2 2 2 2 2 2 2 2 2 2 2
left_child=5 2 3 -2 -4 7 10 8 -1 -9 -7 -8
right_child=1 -3 4 -5 -6 6 11 9 -10 -11 -12 -13
leaf_value=-0.00078764245707100742 -0.046145631459870329 0.18728551195489043 0.092209033160299256 0.12057804651490478 -0.08435747404254304 -0.11750575601200938 0.10389919096136602 0.10863871070550894 -0.10339346789444387 0.007705840866303177 -0.036819452932639163 -0.0095295008007452928
leaf_weight=804.97088487446308 38.524480193853378 26.665181159973145 22.579216122627258 119.18504995107651 90.641119569540024 119.13759744167328 46.876584708690643 110.43995761871338 80.949186682701111 241.70298171043396 155.93012011051178 60.476017773151398
leaf_count=2186 106 77 64 331 257 326 131 299 220 657 431 169
internal_value=0.000675228 0.0408109 0.0255829 0.0790234 -0.0477514 -0.00662745 -0.0407533 0.00382308 -0.0103642 0.0398405 -0.0723912 0.039081
internal_weight=1918.08 297.595 270.93 157.71 113.22 1620.48 382.42 1238.06 885.92 352.143 275.068 107.353
internal_count=5254 835 758 437 321 4419 1057 3362 2406 956 757 300
is_linear=0
shrinkage=0.29469


Tree=18
num_leaves=10
num_cat=0
split_feature=109 114 124 64 66 81 121 120 23
split_gain=15.8193 10.965 6.9141 9.01699 8.03096 7.1038 5.75644 3.65978 3.12099
threshold=0.0033254042707681103 -0.00028163703771894938 0.86458487329159028 -0.01155476709972722 -0.039487273099938679 -0.066756840405859122 0.0063123514890193891 -9.281179813068874e-05 31.912508173269071
decision_type=2 2 2 2 2 2 2 2 2
left_child=1 7 3 -2 -4 -6 -3 -1 -5
right_child=2 6 4 8 5 -7 -8 -9 -10
leaf_value=0.11513365224133369 -0.20435175248455226 -0.035819638900545667 0.16426019591679591 0.063757983347488958 0.12519396928054993 -0.0096835027783468784 0.12783846430273785 0.29316716145906319 -0.081848933112928193
leaf_weight=24.340929359197617 34.883820772171021 45.962550833821297 23.589116126298904 24.758782058954239 33.988765001296997 1651.9702416360378 29.943887293338776 24.244960278272629 24.926984518766403
leaf_count=66 95 126 64 67 92 4538 82 66 69
internal_value=-0.00139821 0.0998746 -0.00852446 -0.090583 -0.00436317 -0.00684966 0.0275056 0.208802 -0.00683316
internal_weight=1918.61 124.492 1794.12 84.5696 1709.55 1685.96 75.9064 48.5859 49.6858
internal_count=5265 340 4925 231 4694 4630 208 132 136
is_linear=0
shrinkage=0.29469


Tree=19
num_leaves=13
num_cat=0
split_feature=38 48 122 35 107 13 22 0 65 75 46 111
split_gain=17.7677 15.6456 16.7165 19.728 11.2123 6.46017 5.88753 6.14787 3.37871 2.87898 6.0619 2.08367
threshold=0.71191677270850562 5.5866081886654984 0.11486209125372568 0.10332825737848052 1.0293898886399802 -314.27814500358863 -10.759858471845588 -0.0059447924336872631 0.021816605929250714 -0.018679102828067787 -0.022493839254461339 -1.1534137954988257
decision_type=2 2 2 2 2 2 2 2 2 2 2 2
left_child=6 5 4 -4 -3 -2 7 -1 -7 10 -8 -11
right_child=1 2 3 -5 -6 8 9 -9 -10 11 -12 -13
leaf_value=0.34673872386925159 0.20537912922305482 -0.044657123269477864 0.3120451362535806 -0.010283723515176042 0.20551378440235277 -0.19441049444269681 -0.16066436241826529 -0.10020253288446572 0.043190174395818119 0 0.29028963268240282 -0.14113150949041028
leaf_weight=4.7734994888305664 4.1994471549987784 67.875797890126705 47.912498511373997 23.805607318878174 19.52844625711441 28.675016850233078 5.0158263817429543 4.3816909790039045 5.0964362919330588 9.9652669802308065 4.1568029876798374 82.822074606083333
leaf_count=106 42 931 602 165 167 453 120 79 66 250 90 2194
internal_value=0.00457188 0.0580476 0.0990057 0.203993 0.0106876 -0.109258 -0.0889581 0.125861 -0.154704 -0.110052 0.0352125 -0.125905
internal_weight=308.208 197.093 159.122 71.7181 87.4042 37.9709 111.115 9.15519 33.7715 101.96 9.17263 92.7873
internal_count=5265 2426 1865 767 1098 561 2839 185 519 2654 210 2444
is_linear=0
shrinkage=0.29469


Tree=20
num_leaves=12
num_cat=0
split_feature=109 5 121 115 33 84 116 131 88 120 101
split_gain=12.4547 11.3124 6.32519 6.28998 15.3143 11.2209 11.6182 9.37072 7.91678 3.17182 1.85625
threshold=0.0033254042707681103 -0.0056327407543790209 0.0063123514890193891 0.0076841444198179829 3.3178196355068512 -0.0056327407543790209 0.73884477787104041 -0.68301270189221952 -238.70202105289445 -9.281179813068874e-05 0.015372226855143391
decision_type=2 2 2 2 2 2 2 2 2 2 2
left_child=1 9 -3 5 10 7 -7 -2 -6 -1 -5
right_child=3 2 -4 4 8 6 -8 -9 -10 -11 -12
leaf_value=-0.11151598912050151 0.18338914094701339 0.050237861778605578 -0.12185544810094437 -0.097009250631506602 -0.062153839064581322 -0.029480388091056256 0.092780735395207453 0.044804357749396347 0.010872149865084302 -0.27877924224275713 -0.2317761591730679
leaf_weight=24.280888259410858 61.845217704772949 46.140719354152679 29.858377635478973 23.618680596351624 146.65041407942772 269.66868525743484 89.415278792381287 145.81264132261276 1033.1933075785637 24.243506640195847 23.46811506152153
leaf_count=66 167 126 82 64 407 735 252 395 2841 66 64
internal_value=0.000596052 -0.089249 -0.0160771 0.00692954 -0.00484193 0.0326199 0.000699814 0.0870577 0.00166271 -0.199818 -0.168712
internal_weight=1918.2 124.523 75.9991 1793.67 1226.93 566.742 359.084 207.658 1179.84 48.5244 47.0868
internal_count=5265 340 208 4925 3376 1549 987 562 3248 132 128
is_linear=0
shrinkage=0.29469


Tree=21
num_leaves=12
num_cat=0
split_feature=109 122 85 90 35 15 110 120 29 5 126
split_gain=6.59495 6.91439 6.19423 12.2559 8.44739 18.4577 11.6288 8.05928 6.32019 6.14649 4.029
threshold=0.0033254042707681103 -0.93745956050113688 0.02464569084692322 254.86203654668626 0.020218414041112579 24.382828697743722 0.70344980685956304 -0.00071512472603091337 103.22529033950225 -0.0056327407543790209 1.0000000180025095e-35
decision_type=2 2 2 2 2 2 2 2 2 2 2
left_child=1 -1 4 7 6 -6 -2 -4 -5 -3 -11
right_child=2 9 3 8 5 -7 -8 -9 -10 10 -12
leaf_value=-0.061189979404448036 -0.027205245333062504 0.19767450903656714 -0.11735476639658561 -0.09892952153405539 0.041946719439451857 -0.061518663612189793 -0.16396066882965143 0.058731781840556031 0.069536418058326818 0.11189137511728163 -0.040722077439781026
leaf_weight=27.362704038619995 562.2798410654068 36.873654961585999 23.128692150115967 88.659467339515686 442.84279125928879 225.17772397398949 59.934175491333008 363.05159768462181 23.36043393611908 31.336519181728363 26.442232638597488
leaf_count=75 1523 104 64 254 1205 620 164 1025 70 87 74
internal_value=-0.000560686 0.0654985 -0.00515737 0.0226306 -0.0159914 0.00685743 -0.040713 0.0477071 -0.0624962 0.103606 0.0401167
internal_weight=1910.45 122.015 1788.43 498.2 1290.23 668.021 622.214 386.18 112.02 94.6524 57.7788
internal_count=5265 340 4925 1413 3512 1825 1687 1089 324 265 161
is_linear=0
shrinkage=0.29469


Tree=22
num_leaves=10
num_cat=0
split_feature=38 48 120 92 41 89 45 41 94
split_gain=11.4972 10.741 10.7987 9.38018 6.56664 4.18001 2.976 1.18442 0.677272
threshold=0.54218223021962497 5.3392939225842779 0.0032070024107120464 60.709491904720409 1.6265949445374031 -273.64766899515956 82.497490065874459 1.1030754403899308 69.554829119527113
decision_type=2 2 2 2 2 2 2 2 2
left_child=5 4 3 -3 8 -1 7 -7 -2
right_child=1 2 -4 -5 -6 6 -8 -9 -10
leaf_value=0.23409151676600876 -0.18834071875253169 0.068994771415472944 0.29608872290368693 -0.082089256481537684 0.19772088569632418 -0.15854043421053282 0.11893487317146659 0.017303611160278429 -0.00341072296488594
leaf_weight=2.1170377582311621 26.83226262032986 157.15078542381525 14.432349950075148 44.987327672541142 4.0588073730468741 52.085678691975772 2.9184677600860587 2.0599919799715272 3.3853698074817649
leaf_count=65 529 2137 103 576 19 1677 53 61 45
internal_value=0.000566979 0.0285868 0.0533099 0.03461 -0.122364 -0.115247 -0.13248 -0.149403 -0.172209
internal_weight=310.028 250.847 216.57 202.138 34.2764 59.1812 57.0641 54.1457 30.2176
internal_count=5265 3409 2816 2713 593 1856 1791 1738 574
is_linear=0
shrinkage=0.29469


Tree=23
num_leaves=12
num_cat=0
split_feature=66 30 130 39 22 98 12 63 110 43 131
split_gain=6.22672 7.71097 8.73062 8.40446 8.48054 7.93639 7.60375 7.05437 6.88942 5.7963 4.49374
threshold=0.021830740454602659 41.166124614308394 -1.0000000180025095e-35 0.87784988208433312 -10.759858471845588 0.019045395605240972 -353.21668337503849 -0.021272564436593557 -0.044094940715327734 0.83185664276111171 1.0000000180025095e-35
decision_type=2 2 2 2 2 2 2 2 2 2 2
left_child=1 2 6 5 -5 -3 -1 -4 9 -2 -10
right_child=8 3 7 4 -6 -7 -8 -9 10 -11 -12
leaf_value=0.23895884733744463 0.089877108863177929 -0.0012389546605952606 0.11365351574399392 0.10361711330181828 -0.053156365934390659 0.13354445364785603 0.056727590697304493 -0.053207488311817742 0.2189927651934809 -0.11144260556279506 0.049079608870227227
leaf_weight=29.156495481729507 23.525257110595703 1065.4235458672047 29.547225952148438 31.057873725891113 458.44225752353668 38.752880930900574 70.555515855550766 80.474145382642746 29.209139198064804 24.820332378149033 29.925547420978546
leaf_count=79 65 2926 80 86 1276 106 193 220 81 69 84
internal_value=0.000401382 -0.00364641 0.0492901 -0.0107076 -0.0428459 0.00343765 0.11228 -0.00690406 0.0691885 -0.0109452 0.136362
internal_weight=1910.89 1803.41 209.733 1593.68 489.5 1104.18 99.712 110.021 107.48 48.3456 59.1347
internal_count=5265 4966 572 4394 1362 3032 272 300 299 134 165
is_linear=0
shrinkage=0.29469


Tree=24
num_leaves=13
num_cat=0
split_feature=122 47 39 123 16 41 71 10 130 11 113 111
split_gain=6.4036 10.9033 9.65327 11.3109 6.41833 6.09798 7.46513 9.09694 7.3805 10.0686 6.77742 5.19776
threshold=1.1075890563864215 -0.0022296170877627581 1.1921706564249295 3.1302783516952526 22.200526845201413 1.0195971577240908 0.0034654610008155772 0.030057677471207026 -0.24999999999999994 1095.1134134903953 1.0614298614541977 -1.3543523140158609
decision_type=2 2 2 2 2 2 2 2 2 2 2 2
left_child=5 4 3 -3 -2 6 11 -8 10 -10 -7 -1
right_child=1 2 -4 -5 -6 8 7 -9 9 -11 -12 -13
leaf_value=-0.062476289258851236 -0.27603342543499371 -0.14020804593615593 -0.18341138470166285 0.073390433023030596 -0.05494632787664188 -0.068406716003984513 -0.045988633724433521 0.045974155785161619 -0.0028542257935976691 0.18913050001464518 0.083464244010894209 0.044833697270185331
leaf_weight=40.384263277053833 24.728679746389389 27.211675152182579 22.730672597885132 93.063171043992043 24.57384780049324 253.76057529449463 257.1914439201355 145.06811738014221 334.16437828540802 24.916408538818359 27.181753158569336 627.76129120588303
leaf_count=111 69 85 76 273 67 700 703 399 917 70 77 1718
internal_value=-0.000350547 -0.0513214 -0.00897219 0.0235981 -0.170176 0.00531954 0.0189794 -0.0124886 -0.0173225 0.0103718 -0.0531272 0.0381113
internal_weight=1902.74 192.308 143.006 120.275 49.3025 1710.43 1070.41 402.26 640.023 359.081 280.942 668.146
internal_count=5265 570 434 358 136 4695 2931 1102 1764 987 777 1829
is_linear=0
shrinkage=0.29469


Tree=25
num_leaves=12
num_cat=0
split_feature=50 82 77 129 100 118 34 79 20 107 16
split_gain=9.80459 8.73764 8.79372 7.73039 8.03585 16.6 6.8839 4.62602 8.44019 3.3664 1.68122
threshold=0.012276490842713794 0.085192338337605714 -0.049643350525205888 -1.0000000180025095e-35 0.014896083281879571 0.99529849145674032 -0.027353193721454613 0.0035837984731418248 54.284854721707461 1.0191258188450039 37.203922212157416
decision_type=2 2 2 2 2 2 2 2 2 2 2
left_child=1 2 -1 4 5 -2 -6 10 -9 -4 -5
right_child=3 -3 9 7 6 -7 -8 8 -10 -11 -12
leaf_value=0.29531401932160001 0.32009666690044558 0.24579138252420554 -0.1399483564195875 -0.15412184718042374 -0.018128098412823555 -0.11149875128349619 0.13939645439759088 0.21418454334167425 -0.089725535017548042 0.01812449462811096 0.019763451709469849
leaf_weight=4.0311031937599173 25.787601590156555 6.1879957914352408 80.213009165599942 27.435628294944767 71.986694484949112 10.111394122242926 34.8363146930933 12.578990217298271 19.069924239069223 11.912965923547743 4.1778063774108878
leaf_count=51 327 56 2223 579 698 140 378 213 339 191 70
internal_value=-1.33542e-05 -0.074751 -0.0979463 0.0365972 0.0748729 0.195162 0.032486 -0.0476491 0.0286298 -0.118138 -0.127209
internal_weight=308.329 102.345 96.1571 205.984 142.722 35.899 106.823 63.2623 31.6489 92.126 31.6134
internal_count=5265 2521 2465 2744 1543 467 1076 1201 552 2414 649
is_linear=0
shrinkage=0.29469


Tree=26
num_leaves=8
num_cat=0
split_feature=117 123 20 93 73 128 89
split_gain=5.52519 6.76051 7.11441 5.99373 5.40631 7.50229 7.06973
threshold=7.7868601149124332 7.4339994893864629 56.014498889649843 79.67793369687449 0.0087917000312359942 -0.60785761079279388 -418.40123060524979
decision_type=2 2 2 2 2 2 2
left_child=3 2 -2 4 6 -6 -1
right_child=1 -3 -4 -5 5 -7 -8
leaf_value=-0.092958972785905994 0.11285409740742938 -0.15684874200138457 -0.10597542724562733 0.14124978801311561 0.040996144146277565 -0.042459189318732389 0.017132089216771861
leaf_weight=52.059848934412003 25.148371398448944 41.623597621917725 25.35657674074173 26.73935866355896 119.72231674194336 404.59311689436436 1207.3395182043314
leaf_count=150 69 118 70 79 333 1118 3328
internal_value=0.00042009 -0.0696906 0.000517672 0.00407806 0.0019083 -0.0231365 0.0124421
internal_weight=1902.58 92.1285 50.5049 1810.45 1783.71 524.315 1259.4
internal_count=5265 257 139 5008 4929 1451 3478
is_linear=0
shrinkage=0.29469


Tree=27
num_leaves=13
num_cat=0
split_feature=115 118 10 117 121 45 117 98 10 53 86 104
split_gain=4.68377 12.7743 10.385 7.48076 5.98178 11.2505 8.66651 6.58804 6.35837 5.77208 5.16021 3.93847
threshold=0.0053011085248259758 0.98666637488359099 0.026815267719180528 3.2967585498697582 0.0066987937815037252 49.557941909938933 0.59016266916321503 0.0094078307307079775 1.0000000180025095e-35 0.17562825274452523 0.0097684538122496858 -0.33668753401211254
decision_type=2 2 2 2 2 2 2 2 2 2 2 2
left_child=1 10 3 -3 5 9 -7 -6 -9 -2 11 -1
right_child=4 2 -4 -5 7 6 -8 8 -10 -11 -12 -13
leaf_value=0.16545445029246114 -0.03412162576392884 -0.09612757509418024 0.13041580657081506 0.075216738401989211 0.13135927565872854 0.11797438789979704 -0.052892741037001229 0.016287477284582155 -0.022734256362763865 -0.20444946118239757 0.25945136726046097 -0.00016416018641554739
leaf_weight=23.411943644285202 30.511874735355377 84.970109015703201 35.052337855100632 28.586199760437012 32.332013100385666 38.333424836397171 75.693299025297165 767.23647859692574 685.4290010035038 47.514985591173172 23.128449380397797 22.844642698764801
leaf_count=65 84 234 97 80 89 109 222 2099 1926 131 65 64
internal_value=-7.20495e-05 0.0404399 -0.00758803 -0.0517207 -0.00542563 -0.0543001 0.00371223 0.000826204 -0.00203801 -0.140159 0.144412 0.0818518
internal_weight=1895.04 217.994 148.609 113.556 1677.05 192.054 114.027 1485 1452.67 78.0269 69.385 46.2566
internal_count=5265 605 411 314 4660 546 331 4114 4025 215 194 129
is_linear=0
shrinkage=0.29469


Tree=28
num_leaves=11
num_cat=0
split_feature=48 16 101 117 109 34 120 124 111 41
split_gain=6.96086 8.24693 8.72129 7.89801 5.66534 8.40826 3.78595 10.9259 2.89868 1.58358
threshold=6.4630376791067325 30.105439484988107 0.014467082515825897 -0.97838930461801443 0.0091542619102602998 -0.026259558916176037 -0.0010344483355613683 0.91405719789174456 -1.1534137954988257 1.2386367078738985
decision_type=2 2 2 2 2 2 2 2 2 2
left_child=1 6 -3 -2 8 -6 7 -1 -5 -8
right_child=3 2 -4 4 5 -7 9 -9 -10 -11
leaf_value=-0.15038419036207981 0.38230892011771589 0.39351063384625623 -0.052295812016429619 0.11389050489062855 -0.0066213018952026798 0.13256366335027148 -0.19111306071304665 0.35729573531074554 -0.077579276980267828 -0.032288252153212099
leaf_weight=12.095233090221884 4.6909269094467154 5.4869475830346337 9.0414825212210399 6.7551137953996649 97.725748062133789 59.189737506210804 39.307457477785647 4.6620120927691451 61.062557198107243 8.9583051726222021
leaf_count=168 55 61 109 167 929 608 1203 118 1709 138
internal_value=-0.00251959 -0.0777088 0.115534 0.0231142 0.0141603 0.0453375 -0.12343 0 -0.0558926 -0.164936
internal_weight=308.976 79.5514 14.5284 229.424 224.733 156.915 65.023 16.7572 67.8177 48.2658
internal_count=5265 1797 170 3468 3413 1537 1627 286 1876 1341
is_linear=0
shrinkage=0.29469


Tree=29
num_leaves=6
num_cat=0
split_feature=80 123 12 121 117
split_gain=5.73273 6.10263 5.11186 9.54671 6.2954
threshold=0.089110158983827334 15.959425180619027 536.67931543985299 0.014774405818898457 -0.69750338232230347
decision_type=2 2 2 2 2
left_child=1 2 4 -4 -1
right_child=-2 -3 3 -5 -6
leaf_value=-0.072216170556406889 0.13598164781992875 -0.14377081882387047 -0.061342193681607898 0.072618696374147987 0.011886387498902761
leaf_weight=80.748650282621384 26.245111465454102 25.231626033782959 235.87194204330444 56.16763973236084 1470.8609071522951
leaf_count=227 79 77 665 159 4058
internal_value=0.000551039 -0.00132053 0.000600512 -0.0350542 0.00740365
internal_weight=1895.13 1868.88 1843.65 292.04 1551.61
internal_count=5265 5186 5109 824 4285
is_linear=0
shrinkage=0.29469


Tree=30
num_leaves=12
num_cat=0
split_feature=122 120 14 13 122 14 106 89 116 117 60
split_gain=4.99066 6.4183 12.624 7.68043 6.10847 14.032 6.25781 6.01943 5.80031 7.77244 3.79942
threshold=1.2162480011563346 0.00073387695869483701 47.650938505768458 64.389984553383229 0.66165578728304031 19.327199000659181 0.9988480208214584 -142.03645250712717 -1.0000000180025095e-35 5.5604167313843096 0.0009331766074359341
decision_type=2 2 2 2 2 2 2 2 2 2 2
left_child=1 4 3 -3 6 -6 -1 -2 -9 -10 -4
right_child=7 2 10 -5 5 -7 -8 8 9 -11 -12
leaf_value=-0.013193961921288874 -0.16863468976667878 0.087245608823317417 -0.19091804614586336 0.00038221006705395583 0.069919569611230373 -0.15919741421145409 0.033685524124694201 0.10398927713861236 -0.10642318515058247 0.064546908075113874 -0.013360766519588852
leaf_weight=860.09183209389448 29.776285588741302 232.2654787749052 23.410942733287811 147.32807894051075 35.228757828474045 63.136419326066971 346.39011400938034 24.856810033321381 72.166795819997787 32.431181937456131 21.720960915088654
leaf_count=2358 83 645 69 412 97 177 953 71 235 98 67
internal_value=0 0.00466211 0.0361434 0.0539171 -0.00549738 -0.0759103 0.000168243 -0.0497733 -0.0208679 -0.0521353 -0.109424
internal_weight=1888.8 1729.57 424.725 379.594 1304.85 98.3652 1206.48 159.231 129.455 104.598 45.1319
internal_count=5265 4778 1193 1057 3585 274 3311 487 404 333 136
is_linear=0
shrinkage=0.29469


Tree=31
num_leaves=13
num_cat=0
split_feature=112 34 16 122 129 90 18 69 30 39 123 91
split_gain=7.29564 20.9051 6.87173 6.84888 6.83698 6.70394 5.57307 5.46473 5.55175 4.3082 3.15805 1.18654
threshold=0.98413262579987826 -0.026259558916176037 37.203922212157416 0.11486209125372568 -1.0000000180025095e-35 -527.03356000532949 -0.041251687805551433 -0.01511092615493192 51.862864607285132 0.92869949943070085 2.1202608489131447 11.983299478293199
decision_type=2 2 2 2 2 2 2 2 2 2 2 2
left_child=1 2 3 -1 10 -2 -4 8 -7 -9 -3 -6
right_child=5 4 6 -5 11 7 -8 9 -10 -11 -12 -13
leaf_value=-0.086944479076595485 0.26908003522982965 0.22131124816065081 0 0.059096012701550953 0.17286187344917642 0.37326690258227202 0.34037188735461033 -0.11563558780639145 -0.052508751339681331 -0.01054111491843813 0.59196196942917967 -0.066538895501714046
leaf_weight=65.403772516176105 4.983139991760253 6.083018736913802 7.963757902383807 46.933848457410932 2.5429137139581135 4.454998064786194 8.195959657430647 85.158410500735044 4.5193478874862194 60.967804450541735 7.0079006385058165 3.0169482650235295
leaf_count=972 34 82 92 562 71 67 59 2476 65 646 74 65
internal_value=-0.00269261 0.0441452 0.000303774 -0.0248033 0.331111 -0.0465473 0.177736 -0.0583987 0.154453 -0.072859 0.444542 0.0274668
internal_weight=307.232 147.148 128.497 112.338 18.6508 160.084 16.1597 155.101 8.97435 146.126 13.0909 5.55986
internal_count=5265 1977 1685 1534 292 3288 151 3254 132 3122 156 136
is_linear=0
shrinkage=0.29469


Tree=32
num_leaves=15
num_cat=0
split_feature=15 29 125 10 104 9 40 34 101 128 19 7 12 65
split_gain=5.24968 10.8668 9.00653 11.6307 8.88473 13.2725 8.86097 8.50603 8.36274 7.90426 7.43815 8.06502 7.30813 5.56698
threshold=25.70644611583656 6.5687319686312851 1.1025675306204399 0.010847452211762755 0.94483981041553355 -0.013297616854056725 0.71821638753205963 -0.024161825704348768 0.015626801415720117 -0.60785761079279388 28.981996439283893 -0.01642742422618226 -433.14386655488903 0.0044079425336689916
decision_type=2 2 2 2 2 2 2 2 2 2 2 2 2 2
left_child=1 10 8 -4 5 -3 -6 -5 9 -2 12 -12 -1 -10
right_child=2 4 3 7 6 -7 -8 -9 13 -11 11 -13 -14 -15
leaf_value=0.034676707201835022 0.1410417679934301 -0.15358355486669956 -0.22259117817764559 0.106564098561091 -0.075087237763695899 -0.029991950456881515 0.10748709573292937 -0.035985246295039977 0.26001857555208602 0.00577234383655082 0.08249842625326953 0.0071658648206144654 -0.08029296929231855 0.060390319770424965
leaf_weight=72.261992454528809 48.033715754747391 106.68066132068634 21.427960991859436 50.376289173960686 37.11287334561348 269.01462185382843 57.507988184690475 125.89663369953632 27.294971942901611 175.1060388982296 158.02461564540863 579.64749449491501 134.57540291547775 25.893022656440735
leaf_count=200 135 299 61 150 102 741 158 362 75 491 442 1604 374 71
internal_value=0.000378291 -0.00854635 0.0272653 -0.020243 -0.0451669 -0.0655951 0.03451 0.00422695 0.0616919 0.0357307 0.00956832 0.0235252 -0.0395225 0.166785
internal_weight=1888.85 1414.83 474.029 197.701 470.316 375.695 94.6209 176.273 276.328 223.14 944.51 737.672 206.837 53.188
internal_count=5265 3920 1345 573 1300 1040 260 512 772 626 2620 2046 574 146
is_linear=0
shrinkage=0.29469


Tree=33
num_leaves=10
num_cat=0
split_feature=117 10 10 111 106 131 115 122 12
split_gain=3.86484 4.08557 8.63807 3.7396 5.23398 4.90488 9.72764 4.63374 3.25712
threshold=7.7868601149124332 -0.026809148387607836 0.017141597647522436 -1.3543523140158609 0.99277184500085758 0.93301270189221952 0.0095485566425392507 1.0377212959256472 80.385734690586972
decision_type=2 2 2 2 2 2 2 2 2
left_child=3 -2 -3 4 -1 7 -7 -5 -6
right_child=1 2 -4 5 8 6 -8 -9 -10
leaf_value=-0.13835875398556671 -0.024655550514617749 0.22238079959310664 0 0.00054726682215355425 0.077598959112200064 -0.012547554681184131 0.13845005729852899 -0.052724643745001257 -0.074774442716575379
leaf_weight=40.980728000402451 30.535622417926788 27.898238658905029 31.711822211742401 1392.093511171639 24.900185823440552 85.051038801670074 63.210171163082123 156.80424121022224 22.707843393087387
leaf_count=114 85 79 93 3856 69 235 174 495 65
internal_value=0 0.0594016 0.104428 -0.0029615 -0.0618036 5.29041e-05 0.0512334 -0.00477934 0.00223506
internal_weight=1875.89 90.1457 59.6101 1785.75 88.5888 1697.16 148.261 1548.9 47.608
internal_count=5265 257 172 5008 248 4760 409 4351 134
is_linear=0
shrinkage=0.29469


Tree=34
num_leaves=14
num_cat=0
split_feature=37 122 48 109 16 107 122 59 103 96 16 101 101
split_gain=5.66676 6.86039 11.8342 10.7882 7.19235 6.3633 4.68357 5.09936 6.6431 2.34717 2.82273 0.888902 0.591599
threshold=2.3601322930404587 0.11486209125372568 5.9853366560449368 0.015628246702766045 37.203922212157416 1.0293898886399802 -0.86112165960735498 -0.0014056970249726186 0.0065151049090777192 39.852702489273355 25.950609148383183 0.015875135418407654 0.0069697540767572801
decision_type=2 2 2 2 2 2 2 2 2 2 2 2 2
left_child=6 4 11 -4 5 -2 7 -1 -9 10 -8 -3 -11
right_child=1 2 3 -5 -6 -7 9 8 -10 12 -12 -13 -14
leaf_value=-0.14899836910016548 -0.095689562660358732 0 0.17102445437891919 -0.022698578867912902 0.14882159251236055 0.06179756615430991 -0.12992318546550263 0 0.64302312579178278 -0.024235927014848373 0.29171291387080023 -0.17453711607805075 -0.19427738802818054
leaf_weight=3.6699035838246346 91.269392412155867 2.6464261263608959 68.93545001745224 37.107449471950531 15.94221395254135 27.975837428122759 2.6196631714701644 3.1043825605884177 1.8545605903491376 3.9754210426472154 1.7637354619801042 15.762330666184424 27.070449021179229
leaf_count=121 1712 59 923 199 124 227 101 140 38 120 60 396 1045
internal_value=-0.00271848 0.013489 0.0636249 0.102258 -0.0317896 -0.0575612 -0.100124 0.0815243 0.273363 -0.148482 0.0269002 -0.148768 -0.177339
internal_weight=303.697 259.639 124.452 106.043 135.187 119.245 44.0581 8.62885 4.95894 35.4293 4.3834 18.4088 31.0459
internal_count=5265 3640 1577 1122 2063 1939 1625 299 178 1326 161 455 1165
is_linear=0
shrinkage=0.29469


Tree=35
num_leaves=9
num_cat=0
split_feature=15 9 124 104 54 10 104 65
split_gain=5.04428 4.23538 11.6229 10.3011 7.51454 6.92927 5.41819 3.93249
threshold=6.9772471878114262 -0.047682905943724145 0.93321240093816715 -0.94955268935598414 0.34373433179280777 0.0144046086492311 -0.33668753401211254 0.0016021572664613058
decision_type=2 2 2 2 2 2 2 2
left_child=-1 3 5 7 -5 -3 -4 -2
right_child=1 2 6 4 -6 -7 -8 -9
leaf_value=-0.13119303660914436 0.07770878112872108 -0.085752489082320082 -0.017094422121466051 0.046430543928950865 -0.074707043270232532 0.06329782137057044 0.021143484714236122 0.23833283002527506
leaf_weight=24.399571627378464 40.325861394405365 195.77111575007439 510.91966283321381 124.34355401992798 68.407517224550247 30.01412832736969 858.82229375839233 23.181600868701935
leaf_count=69 113 547 1434 351 192 83 2412 64
internal_value=0.000389319 0.00222955 -0.00334891 0.0373963 0.00268809 -0.0652701 0.00678594 0.139838
internal_weight=1876.19 1851.79 1595.53 256.259 192.751 225.785 1369.74 63.5075
internal_count=5265 5196 4476 720 543 630 3846 177
is_linear=0
shrinkage=0.29469


Tree=36
num_leaves=14
num_cat=0
split_feature=10 9 15 101 41 119 18 13 12 116 101 38 48
split_gain=7.86172 15.803 10.5626 14.2226 13.412 10.3976 10.2648 9.53318 8.24599 8.11763 7.7413 7.27927 6.04834
threshold=1.0000000180025095e-35 -0.035485728316927583 19.720921006877678 0.010489176026850238 1.7133601228816835 1.0292113777715439 -0.02083739518395927 116.66675212697244 536.67931543985299 0.73884477787104041 0.014239976328750726 0.92815959346762267 6.7212121625042185
decision_type=2 2 2 2 2 2 2 2 2 2 2 2 2
left_child=1 9 3 12 7 -5 11 -4 -8 10 -1 -3 -2
right_child=2 6 4 5 -6 -7 8 -9 -10 -11 -12 -13 -14
leaf_value=-0.085019408386460979 -0.048209231610281796 0.16270135667626623 0.03717672086024406 -0.11993676800860477 -0.21828223185313897 0.079422901491000467 0.021202127314672106 -0.040168937703448038 0.20160263865374903 -0.15762413319212393 0.015235545227466792 0 0.14153590160435947
leaf_weight=86.338366091251373 22.930781602859497 105.57636505365372 446.55590279400349 196.86147621273994 21.944965779781342 24.503085821866989 389.05333764106035 198.73748849332333 23.086853832006454 34.010992735624313 286.49350616335869 32.20136684179306 35.337295770645142
leaf_count=237 64 292 1282 544 78 67 1079 572 65 97 792 88 97
internal_value=0.00414097 0.0230271 -0.0148093 -0.0628644 0.00517223 -0.097154 0.0556446 0.0131438 0.0318657 -0.0207616 -0.00772594 0.125452 0.064924
internal_weight=1903.63 956.761 946.871 279.633 667.238 221.365 549.918 645.293 412.14 406.843 372.832 137.778 58.2681
internal_count=5354 2650 2704 772 1932 611 1524 1854 1144 1126 1029 380 161
is_linear=0
shrinkage=0.29469


Tree=37
num_leaves=10
num_cat=0
split_feature=116 15 7 48 115 122 24 31 130
split_gain=6.68025 10.7188 7.31231 7.08894 6.32538 6.20616 5.44534 5.11761 1.77502
threshold=-1.6070158336323634 23.555949487095095 -0.04610142557546431 8.6764208023854863 0.013032745325975084 -0.12545922310969937 60.251415352579095 0.01171878747530459 0.93301270189221952
decision_type=2 2 2 2 2 2 2 2 2
left_child=1 2 -1 5 -5 7 -7 -2 -4
right_child=3 -3 8 4 -6 6 -8 -9 -10
leaf_value=0.26645593445369287 0.059504618388085205 0.51458584074755354 -0.12909483238113464 -0.0010068319752939568 0.35095639597648343 0.049315764739177169 -0.057388942917802929 -0.12766040038578136 0.099859928758719893
leaf_weight=7.3072810173034712 13.631682102568446 4.4835623372346154 12.737336678430436 8.6489690653979761 7.2547728456556788 79.981749311555177 84.757033737841994 82.792085766792297 2.7152162492275247
leaf_count=36 514 54 335 108 45 1419 1333 1481 29
internal_value=-0.0141975 0.122771 0.0300686 -0.028337 0.157927 -0.0404682 -0.00481564 -0.0996967 -0.0788575
internal_weight=304.31 27.2434 22.7598 277.066 15.9037 261.163 164.739 96.4238 15.4526
internal_count=5354 454 400 4900 153 4747 2752 1995 364
is_linear=0
shrinkage=0.29469


Tree=38
num_leaves=13
num_cat=0
split_feature=10 10 14 15 100 119 11 123 15 40 48 40
split_gain=7.74868 15.4944 15.953 12.1151 12.4349 11.5373 10.6213 10.22 9.52909 8.20464 8.09896 7.82559
threshold=-1.0000000180025095e-35 -0.029479952085639246 12.112122464693245 19.720921006877678 0.010882695909704032 1.0292113777715439 205.64659448229943 10.405938619901745 23.179878392896068 0.51089987524589198 6.5230857399515196 0.44876258642235867
decision_type=2 2 2 2 2 2 2 2 2 2 2 2
left_child=1 6 -3 4 10 -6 8 11 -1 -4 -2 -5
right_child=3 2 9 7 5 -7 -8 -9 -10 -11 -12 -13
leaf_value=0.0072752146815125238 0.092182321895211375 0.16835074369898931 -0.012217958734453334 0.13012531152272516 0.1318900858501417 -0.079795405208268 -0.14323118069186019 0.15669505137659168 0.15969775863135052 -0.11756952338391877 -0.10743623162256548 -0.020029637673231314
leaf_weight=525.99586966633797 26.888810589909554 21.841967761516571 93.281447112560272 31.001386016607285 180.55031263828278 24.361456602811813 37.299848079681396 31.96674370765686 37.904395550489426 228.77952778339386 47.428340703248978 616.73127427697182
leaf_count=1467 75 60 260 94 498 67 106 91 107 650 132 1747
internal_value=-0.00180037 -0.0207915 -0.0706648 0.0167845 0.0684277 0.105958 0.00756172 -0.0042797 0.0178891 -0.0875235 -0.0333574 -0.0125442
internal_weight=1904.03 945.103 343.903 958.928 279.229 204.912 601.2 679.699 563.9 322.061 74.3172 647.733
internal_count=5354 2650 970 2704 772 565 1680 1932 1574 910 207 1841
is_linear=0
shrinkage=0.29469


Tree=39
num_leaves=14
num_cat=0
split_feature=91 51 38 118 128 84 10 33 66 84 63 10 48
split_gain=5.6447 9.08343 6.55874 5.97343 5.71292 11.5594 9.73852 5.52943 6.22465 5.00888 5.43758 4.17576 3.13018
threshold=229.85039471213767 0.067602205096064474 0.59988523165865726 0.98441220223188119 0.6078576107927941 0.016600166417716607 -0.14336057713368103 8.4989849510378175 0.012533312305502127 0.024655231426176104 0.0023002929407350595 -0.037739132291193349 7.3460423149157874
decision_type=2 2 2 2 2 2 2 2 2 2 2 2 2
left_child=1 9 3 -2 6 -6 -3 11 -9 10 -1 -4 -5
right_child=2 4 7 12 5 -7 -8 8 -10 -11 -12 -13 -14
leaf_value=0.10146580914102592 0.0045405739554740514 -0.12797578988639841 -0.024355376781114962 -0.24445383395602477 -0.055399660825162886 0.051037188220225849 0.018785389969901242 -0.12590915302445704 0.052865477690960283 0.19071979394567115 -0.039375852659937031 0.13219157378123872 -0.079208846601683008
leaf_weight=63.673246920108795 22.27559232711792 40.049425065517426 24.295278519392014 26.345892578363419 322.72119128704071 120.47491788864136 1076.9363342523575 44.655396163463593 25.437906205654144 29.430987626314163 35.857025325298309 32.7114477455616 21.6320421397686
leaf_count=179 63 116 67 80 900 354 3038 132 84 86 100 91 64
internal_value=0.00277352 0.00835158 -0.044215 -0.116163 0.00204178 -0.0261513 0.01335 -0.00312265 -0.0593051 0.0833753 0.0495055 0.0636391 -0.174281
internal_weight=1886.5 1689.14 197.354 70.2535 1560.18 443.196 1116.99 127.1 70.0933 128.961 99.5303 57.0067 47.9779
internal_count=5354 4773 581 207 4408 1254 3154 374 216 365 279 158 144
is_linear=0
shrinkage=0.29469


Tree=40
num_leaves=14
num_cat=0
split_feature=129 123 124 116 51 32 24 125 96 86 14 121 41
split_gain=6.64032 6.94012 7.28992 12.8163 5.38735 4.61892 9.88215 3.81617 5.47057 6.69366 2.36005 1.83189 1.07713
threshold=-1.0000000180025095e-35 1.7771025529932267 0.92780179672907948 -0.21545974657251835 0.1585628070151251 0.47665163996489618 64.868360644521047 1.0416822534998531 47.042644537201447 -0.063364664905612711 61.830886077659365 0.0065818409040326329 1.551387673225632
decision_type=2 2 2 2 2 2 2 2 2 2 2 2 2
left_child=1 5 3 -3 -4 11 -7 12 9 -9 -10 -1 -2
right_child=7 2 4 -5 -6 6 -8 8 10 -11 -12 -13 -14
leaf_value=0.0066287894407758554 -0.1947340886015117 0.022406075526282026 0.13538257868130568 0.35328673622318901 -0.02585294095792974 0.20188442493786354 -0.11239283666708197 -0.10268828455203646 -0.12938319370742665 0.24764444787051756 0.12932201650783165 -0.1880784350016555 -0.00079392159408866808
leaf_weight=3.5305349901318577 24.607380449771885 28.653514444828033 21.922285377979279 16.130610346794128 88.625162363052368 13.080903980880974 23.477807190269232 7.4392360448837307 30.774170339107513 10.204517245292662 2.4774259924888602 23.519401900470257 4.2580826282501212
leaf_count=89 1129 273 304 137 1234 185 425 63 832 159 26 439 59
internal_value=-0.0125757 0.0134746 0.0475049 0.147168 0.00546373 -0.067333 0 -0.0852934 -0.0329129 0.0942014 -0.104577 -0.158382 -0.171018
internal_weight=298.701 218.94 155.332 44.7841 110.547 63.6086 36.5587 79.7608 50.8953 17.6438 33.2516 27.0499 28.8655
internal_count=5354 3086 1948 410 1538 1138 610 2268 1080 222 858 528 1188
is_linear=0
shrinkage=0.29469


Tree=41
num_leaves=11
num_cat=0
split_feature=103 70 48 31 51 1 105 9 34 34
split_gain=7.12885 5.92347 6.06419 5.18694 6.88398 5.79731 5.55084 9.52723 6.14014 4.48526
threshold=0.0028745302376508206 0.006409935004496786 6.6712875508573664 0.010232028010995041 0.094905124462593568 0.0044118940707878014 -1.1084943826040623 -0.01755287728029797 -0.038112459184841845 -0.01212302138524146
decision_type=2 2 2 2 2 2 2 2 2 2
left_child=1 2 9 4 -2 -6 7 -5 -8 -1
right_child=3 -3 -4 6 5 -7 8 -9 -10 -11
leaf_value=-0.094159682826694652 -0.10435061173631247 0.056597844712210015 -0.18146914793076904 -0.028792312833438288 0.098541472670220995 -0.010730697594794697 0.018080062712446488 0.063014782704114591 -0.028461797952306897 0.025940440364685742
leaf_weight=63.324797093868256 22.11685699224472 31.228483438491821 39.206508696079254 156.32034349441528 137.53218649327755 57.669591441750526 373.82901728153229 256.14818942546844 706.34720140695572 44.155856028199196
leaf_count=182 63 90 113 443 390 163 1063 725 1996 126
internal_value=-0.000710907 -0.0568192 -0.0819529 0.00506793 0.0475585 0.0656625 -0.00104735 0.0279185 -0.0122349 -0.0437483
internal_weight=1887.88 177.916 146.687 1709.96 217.319 195.202 1492.64 412.469 1080.18 107.481
internal_count=5354 511 421 4843 616 553 4227 1168 3059 308
is_linear=0
shrinkage=0.29469


Tree=42
num_leaves=11
num_cat=0
split_feature=103 122 40 131 113 35 33 83 31 29
split_gain=4.59935 6.72071 5.00904 5.44319 4.96535 5.11003 4.90884 4.30449 6.28286 3.70222
threshold=0.0028745302376508206 -1.359194330859524 0.44876258642235867 -1.0000000180025095e-35 1.0038227280216236 0.01415941431692558 2.1149364797952197 -0.12101178987965941 0.029238390195055929 1.0000000180025095e-35
decision_type=2 2 2 2 2 2 2 2 2 2
left_child=1 -1 3 9 6 -6 -3 -4 -9 -2
right_child=2 4 7 -5 5 -7 -8 8 -10 -11
leaf_value=-0.075010486689984501 -0.099125313760666509 0.011555297569989435 0.10793161242759901 -0.18676421388213182 -0.083470467065148587 0.07425958883909782 0.19003267255136594 0.0013296981904967183 -0.12250065116873218 0.063459765499396414
leaf_weight=30.743322610855103 23.417768388986588 21.459719561040401 31.343109130859375 25.502847671508789 25.307998105883598 54.739579573273659 44.213282287120819 1562.5051929950714 35.852758407592773 23.554333537817001
leaf_count=88 67 65 88 79 72 158 128 4430 112 67
internal_value=0.00197548 0.0472263 -0.0026537 -0.0781854 0.074071 0.0225784 0.134211 0.000651149 -0.00140771 -0.0151013
internal_weight=1878.64 176.464 1702.18 72.4749 145.721 80.0476 65.673 1629.7 1598.36 46.9721
internal_count=5354 511 4843 213 423 230 193 4630 4542 134
is_linear=0
shrinkage=0.29469


Tree=43
num_leaves=13
num_cat=0
split_feature=129 116 123 33 64 54 40 87 57 12 79 112
split_gain=4.96013 5.63952 4.65638 4.48603 4.25086 3.4857 4.37259 3.35603 3.05121 2.62683 1.85927 0.420961
threshold=1.0000000180025095e-35 -1.6070158336323634 0.46093408246301709 3.4171756426848456 -0.016245482140880365 0.098662815732907791 1.4934285867950605 141.98330913628948 0.00068897943328451183 814.61331589239364 0.019303651505663249 0.99655109471572667
decision_type=2 2 2 2 2 2 2 2 2 2 2 2
left_child=1 4 11 -4 -1 7 9 10 -6 -7 -2 -3
right_child=5 2 3 -5 8 6 -8 -9 -10 -11 -12 -13
leaf_value=0.3279117898917972 -0.1403817104768709 -0.18913915802349932 0.14488742615172523 -0.007170723356407528 -0.083664041289594052 -0.17250111484692185 0.091120125467582844 0.21008968604944919 0.18542106282985302 0 0.1175663389686977 -0.0079658990490416078
leaf_weight=7.4252813756465939 7.1758272610604745 11.626565030775962 18.104257429018617 166.24904775246978 6.7613173723220807 42.275080412626266 6.9999670982360831 5.8629592582583419 6.2782019674777985 8.9769612252712232 2.5837760679423809 2.9701957590878001
leaf_count=37 284 252 413 2164 88 1604 58 95 69 183 44 63
internal_value=-0.0118344 0.00992347 -0.00477026 0.00744362 0.155367 -0.0777881 -0.111324 0.0388731 0.0386455 -0.142103 -0.0570867 -0.162325
internal_weight=293.289 219.415 198.95 184.353 20.4648 73.8746 58.252 15.6226 13.0395 51.252 9.7596 14.5968
internal_count=5354 3086 2892 2577 194 2268 1845 423 157 1787 328 315
is_linear=0
shrinkage=0.29469


Tree=44
num_leaves=13
num_cat=0
split_feature=103 121 116 96 76 110 84 100 34 90 131 24
split_gain=4.19972 5.18718 8.57741 14.7388 5.40877 6.54456 6.477 5.09145 6.9479 4.09609 3.50326 2.45048
threshold=0.0028745302376508206 0.0064537540392528387 0.6149254574826436 57.866527984452446 0.020133237165792219 0.27273764191050071 0.022524847264849178 0.014687514156994133 -0.012816381655542717 8.2567130603765921 -0.68301270189221952 69.317218491729875
decision_type=2 2 2 2 2 2 2 2 2 2 2 2
left_child=7 2 3 -2 6 -6 -3 8 10 -10 -1 -4
right_child=1 4 11 -5 5 -7 -8 -9 9 -11 -12 -13
leaf_value=-0.015990665671053426 0.066189552125293635 0.0023284758995559887 0.2324760877471396 -0.15954829499135181 0.0002465181430058618 0.097375970721603186 -0.047211372399400084 0.066627720805023452 0.076689234929628772 -0.067745420829939076 -0.16221373321466967 0.083790869447871369
leaf_weight=21.621984213590622 106.84535667300224 959.25064554810524 22.367042481899261 32.14536190032959 163.00685155391693 97.583726406097412 298.8953605890274 28.875927835702896 33.254042826592922 33.740554749965668 58.208370953798294 24.821174561977386
leaf_count=61 299 2695 66 92 468 287 859 82 98 96 174 77
internal_value=-5.6816e-05 0.00435031 0.0507195 0.0126527 -0.00126544 0.0372341 -0.0093538 -0.0434325 -0.0661105 0.0020889 -0.124573 0.158763
internal_weight=1880.62 1704.92 186.179 138.991 1518.74 260.591 1258.15 175.701 146.825 66.9946 79.8304 47.1882
internal_count=5354 4843 534 391 4309 755 3554 511 429 194 235 143
is_linear=0
shrinkage=0.29469


Tree=45
num_leaves=10
num_cat=0
split_feature=121 33 121 24 104 31 20 10 46
split_gain=4.05494 8.02009 4.95505 6.87309 6.00702 5.21097 10.7326 5.49076 5.05527
threshold=0.0048107073261860903 1.8969717383998119 0.0063123514890193891 49.600967835842248 -0.28963622701137393 0.0094078307307079775 55.467205061335939 -0.0034372247362110526 0.044990413712785858
decision_type=2 2 2 2 2 2 2 2 2
left_child=1 -1 3 4 -2 6 -4 -7 -5
right_child=2 -3 5 8 -6 7 -8 -9 -10
leaf_value=-0.028304435099638429 -0.016991051301853754 0.18108642409666087 0.17131708022071129 0.10328703613550806 -0.18718326814396355 0.017629125776799235 -0.06956509876570717 -0.017175115875418871 -0.043874397541226122
leaf_weight=30.259035479277372 34.101191908121109 30.715353965759277 43.345441535115242 30.093360900878906 42.762165874242783 786.85199712216854 24.050563842058182 786.48276379704475 58.864360570907593
leaf_count=87 101 93 126 88 128 2210 69 2275 177
internal_value=0.00130515 0.0757462 -0.00115806 -0.0496743 -0.113969 0.00368171 0.0835991 0.000149728 0.00479523
internal_weight=1867.53 60.9744 1806.55 165.821 76.8634 1640.73 67.396 1573.33 88.9577
internal_count=5354 180 5174 494 229 4680 195 4485 265
is_linear=0
shrinkage=0.29469


Tree=46
num_leaves=12
num_cat=0
split_feature=48 24 69 35 128 112 10 75 10 103 64
split_gain=3.81024 3.87787 6.86305 5.79569 4.53304 4.43484 7.78673 2.62867 1.71538 1.41443 1.69605
threshold=5.7036461340654485 31.544081343157888 -0.010013749803733081 0.038616021497303817 0.87837969732492682 0.95348272760408148 -0.091295605917958975 -0.046938587703989995 0.073245601877785962 0.029194329843538893 0.025793803201120999
decision_type=2 2 2 2 2 2 2 2 2 2 2
left_child=7 5 3 -3 -4 6 -2 -1 -7 10 -9
right_child=1 2 4 -5 -6 8 -8 9 -10 -11 -12
leaf_value=0.1062894271177032 -0.14400834456610948 0.26186244405940928 -0.030915048712040826 0.02004382806989756 0.09020948540321215 -0.14639067155691354 0.16139499305868837 -0.18289316783510756 0.061601137848002543 0.035677210575139069 0.016054582255530876
leaf_weight=3.4907517433166495 12.211185097694399 16.85911650955677 120.55969016253948 19.737685739994049 33.830280840396881 33.981576507911086 15.922288203611968 23.617740089306615 2.6165902912616721 2.4091336727142325 2.9397828206419936
leaf_count=31 125 250 2399 159 398 849 151 872 53 14 53
internal_value=-0.0100752 0.00158882 0.0232102 0.137056 -0.00332749 -0.0599083 0.0241523 -0.104396 -0.127397 -0.135593 -0.156257
internal_weight=288.176 255.718 190.987 36.5968 154.39 64.7316 28.1335 32.4574 36.5982 28.9667 26.5575
internal_count=5354 4384 3206 409 2797 1178 276 970 902 939 925
is_linear=0
shrinkage=0.29469


Tree=47
num_leaves=7
num_cat=0
split_feature=36 18 14 85 10 101
split_gain=4.40705 5.02923 6.56721 5.85693 4.65167 2.87987
threshold=2.1882551734274767 0.084939260895191007 47.650938505768458 0.10019723461650366 0.16109525647156467 0.010882695909704032
decision_type=2 2 2 2 2 2
left_child=1 3 -3 4 -1 -2
right_child=5 2 -4 -5 -6 -7
leaf_value=-0.0046037697366893169 0.15734297497651206 -0.21012341478306701 0.0083212305889101505 0.11906428272144824 0.097107723715334243 0.017212430911717126
leaf_weight=1695.2712254971266 24.272807538509369 22.44935417175293 22.592833995819092 34.760505437850952 39.377631187438965 31.366886675357819
leaf_count=4833 78 66 68 109 110 90
internal_value=0.000183108 -0.00226427 -0.0989256 0.000152997 -0.00219185 0.0815395
internal_weight=1870.09 1814.45 45.0422 1769.41 1734.65 55.6397
internal_count=5354 5186 134 5052 4943 168
is_linear=0
shrinkage=0.29469


Tree=48
num_leaves=14
num_cat=0
split_feature=43 44 112 84 119 117 12 81 37 128 33 13 73
split_gain=3.81659 5.2642 7.14868 6.29941 5.33942 3.99421 10.3683 6.88371 5.75168 14.3549 7.06624 3.78362 3.52765
threshold=0.54308833849242466 0.31595099167927015 0.99017173140260428 0.032573998353255758 1.0681730809190426 0.51887422470192934 1289.1588954115603 0.0044232183944917271 3.3096459547457973 1.0000000180025095e-35 10.829711222064951 16.31633074908942 1.0000000180025095e-35
decision_type=2 2 2 2 2 2 2 2 2 2 2 2 2
left_child=1 2 -1 11 -5 8 7 -7 9 -2 -10 -3 -4
right_child=5 3 12 4 -6 6 -8 -9 10 -11 -12 -13 -14
leaf_value=0.12211741346476877 -0.0023176016006061419 -0.10714144068476666 0.049321641262434768 0.09715830346144852 -0.083073146812952803 -0.018602381859658665 -0.18147139130533055 0.031380997514042101 -0.048385714470899413 0.12528015589632943 0.081895426877520452 -0.019157931383307712 -0.087851420179030623
leaf_weight=42.091280866414309 170.23271751403809 122.55014201998711 25.707180500030518 39.288193076848984 21.137974381446838 580.28951358795166 26.984685182571411 405.81454467773438 130.31810617446899 135.80403351783752 49.080857276916504 71.210478097200394 39.589750468730927
leaf_count=119 485 349 80 115 76 1648 88 1183 365 385 146 199 116
internal_value=0.000788201 -0.0262865 0.0275622 -0.0495496 0.0318329 0.00741351 -0.00300587 0.00184338 0.0294016 0.0540054 -0.0118933 -0.0756069 -0.0319378
internal_weight=1860.1 361.575 107.388 254.187 60.4262 1498.52 1013.09 986.104 485.436 306.037 179.399 193.761 65.2969
internal_count=5354 1054 315 739 191 4300 2919 2831 1381 870 511 548 196
is_linear=0
shrinkage=0.29469


Tree=49
num_leaves=6
num_cat=0
split_feature=66 59 85 120 45
split_gain=3.72016 3.76468 4.78471 14.0845 3.24568
threshold=0.040445348287018214 -0.02797356447223253 -0.0087773066199640874 -0.0018024196122970418 17.828695956578112
decision_type=2 2 2 2 2
left_child=1 -1 4 -4 -3
right_child=-2 2 3 -5 -6
leaf_value=0.17659114373692095 -0.20910917357964035 0.087089587626345985 0.34568971653204522 0 -0.076550410001586369
leaf_weight=9.3527384996414167 7.2109470367431632 10.704193549230693 10.392398104071615 152.35503743286245 93.125951860100031
leaf_count=85 85 139 95 3057 1893
internal_value=-0.00753669 -0.00141214 -0.00847723 0.0224784 -0.0580933
internal_weight=283.141 275.93 266.578 162.747 103.83
internal_count=5354 5269 5184 3152 2032
is_linear=0
shrinkage=0.29469


Tree=50
num_leaves=7
num_cat=0
split_feature=14 14 130 95 18 124
split_gain=3.7637 6.99773 8.94049 7.15928 6.47539 5.81298
threshold=61.830886077659365 45.782632412443888 -0.6830127018922193 33.048600263282395 0.084939260895191007 0.86458487329159028
decision_type=2 2 2 2 2 2
left_child=1 4 -3 -4 5 -1
right_child=-2 2 3 -5 -6 -7
leaf_value=0.09881831276251736 -0.10913997765957963 0.18434435883210198 -0.12786196190695992 0.058333325328013275 -0.15182618924171729 -0.0040916945742555146
leaf_weight=48.553974620997906 26.326225280761719 38.833951354026794 22.004678264260292 84.160294637084007 24.591784030199051 1617.5946469455957
leaf_count=137 79 119 63 255 75 4626
internal_value=0.000291659 0.00196205 0.0640122 0.0180935 -0.00330213 -0.000985188
internal_weight=1862.07 1835.74 144.999 106.165 1690.74 1666.15
internal_count=5354 5275 437 318 4838 4763
is_linear=0
shrinkage=0.29469


Tree=51
num_leaves=13
num_cat=0
split_feature=91 85 103 9 47 80 14 51 103 46 40 37
split_gain=3.0201 6.18743 10.7707 5.30793 8.57228 5.89158 5.29997 5.11357 5.83857 5.546 4.80218 3.79942
threshold=229.85039471213767 0.02464569084692322 0.017466904935534756 0.0044725920476764722 0.0022955305157456034 0.019316233164131776 42.793219955932287 0.46261575340264138 0.0086479985470521454 -1.0000000180025095e-35 1.040215139982128 3.6790298078435084
decision_type=2 2 2 2 2 2 2 2 2 2 2 2
left_child=1 3 6 5 -5 -1 -3 9 -9 -2 -11 -10
right_child=7 2 -4 4 -6 -7 -8 8 11 10 -12 -13
leaf_value=0.0024761732338445777 0.048872276533541564 0.075309175031700579 -0.12931859744281668 -0.077665756930104149 0.0027027717922973177 0.099800224723781583 -0.016830134538671809 -0.069184867185777404 0.16851891336703625 -0.16185507420231185 -1.5983603432892948e-05 0.0018113814797200149
leaf_weight=784.74853042885661 21.413791805505753 251.16934949159622 29.033880233764648 191.22423672676086 281.50383567810059 57.768149375915527 66.161072909832001 37.469031631946564 23.368902876973152 56.500996232032776 24.30176255106926 26.788347467780113
leaf_count=2219 62 723 100 552 801 163 215 114 67 177 77 84
internal_value=0.000502667 0.00459752 0.039646 -0.00454728 -0.0295873 0.00936025 0.0556996 -0.034577 0.0164279 -0.0794072 -0.115076 0.0829668
internal_weight=1851.45 1661.61 346.364 1315.24 472.728 842.517 317.33 189.843 87.6263 102.217 80.8028 50.1573
internal_count=5354 4773 1038 3735 1353 2382 938 581 265 316 254 151
is_linear=0
shrinkage=0.29469


Tree=52
num_leaves=13
num_cat=0
split_feature=44 128 4 85 122 48 100 126 44 90 107 105
split_gain=3.4804 5.60966 9.13387 8.25687 6.11638 3.41387 4.71372 3.42153 4.40482 3.55351 3.17092 2.32286
threshold=0.59603701662364117 -0.60785761079279388 -0.056580840191367249 -0.012152608000092874 0.47220462064134244 8.6764208023854863 0.018325798962807682 -1.0000000180025095e-35 0.80333069326456708 437.79769280989336 1.0191258188450039 0.3366143738633347
decision_type=2 2 2 2 2 2 2 2 2 2 2 2
left_child=1 2 -1 11 -5 7 -7 8 -2 -9 -4 -3
right_child=5 3 10 4 -6 6 -8 9 -10 -11 -12 -13
leaf_value=0.36816404498201688 -0.11697743207058621 0.048410371860706819 -0.17701465036032102 0.34143538184299077 0.03303562454067821 -0.016962712489846037 0.26238858995301301 -0.079788876587116753 0.052905212496264661 0.10920840705999886 0.12271437004010156 -0.19398167790631163
leaf_weight=3.1756539940834072 16.443943291902542 5.6846177699044329 17.997991800308231 14.839024729561062 10.53077994706109 12.143366411328318 7.7301868647336951 116.35090067982674 57.534523546695709 8.3202313184738141 2.756718009710311 5.9246750501915812
leaf_count=16 330 98 819 263 164 123 46 2349 923 74 36 113
internal_value=-0.00591424 0.0554615 -0.0512899 0.127708 0.221685 -0.0237001 0.0894328 -0.0358709 0.0128566 -0.0657406 -0.129106 -0.0678229
internal_weight=279.433 60.9095 23.9304 36.9791 25.3698 218.523 19.8736 198.65 73.9785 124.671 20.7547 11.6093
internal_count=5354 1509 871 638 427 3845 169 3676 1253 2423 855 211
is_linear=0
shrinkage=0.29469


Tree=53
num_leaves=14
num_cat=0
split_feature=120 125 89 119 25 122 122 33 119 131 48 121 10
split_gain=3.52542 9.98883 8.83903 8.61606 7.11952 5.8794 13.1173 7.88004 5.15327 7.37415 5.64326 3.24831 2.47294
threshold=0.0013708478701949911 1.0928671005401001 -129.40870786610404 1.0846350820307882 0.78505966929478033 0.66165578728304031 1.4947554989563023 4.3640563524695333 1.049784890466235 -0.5 6.2813019176755409 0.0088196226928372208 1.0000000180025095e-35
decision_type=2 2 2 2 2 2 2 2 2 2 2 2 2
left_child=5 11 4 -4 -3 8 7 -7 10 -10 -1 -2 -8
right_child=1 2 3 -5 -6 6 12 -9 9 -11 -12 -13 -14
leaf_value=-0.026094057818299984 -0.22218420245195394 0.19390389952666626 -0.077433287080746996 0.047102085360739121 -0.017598433556410845 0.011454140404403429 -0.17549621002874494 0.1425088216775087 0.037732812553183753 -0.082298809967857711 0.019969606664496955 -0.068906290382727955 -0.01982432144505368
leaf_weight=321.16325178742409 24.703862249851227 30.792768180370331 130.34511771798134 74.658807992935181 22.753922373056412 70.993958815932274 18.743568688631058 97.719662800431252 63.099949359893799 139.27346748113632 808.26488482952118 30.732238709926605 20.61391469836235
leaf_count=918 73 90 386 241 68 209 66 282 182 404 2283 89 63
internal_value=0.000321768 -0.0280366 -0.00308798 -0.0314516 0.102372 0.00619507 0.0522078 0.0883287 -0.00091545 -0.0442405 0.00675142 -0.140967 -0.0985294
internal_weight=1853.86 313.987 258.551 205.004 53.5467 1539.87 208.071 168.714 1331.8 202.373 1129.43 55.4361 39.3575
internal_count=5354 947 785 627 158 4407 620 491 3787 586 3201 162 129
is_linear=0
shrinkage=0.29469


Tree=54
num_leaves=10
num_cat=0
split_feature=18 124 130 49 9 53 67 107 60
split_gain=6.38093 6.8793 6.46152 8.31039 5.09289 4.93249 3.93634 4.13521 2.94562
threshold=0.075488758327976871 0.99999773731946207 -0.93301270189221919 -1.0000000180025095e-35 0.083637953036028181 0.1908859118769311 0.019747402839495751 1.0173465086553679 0.0030947169093300413
decision_type=2 2 2 2 2 2 2 2 2
left_child=1 2 3 -1 -4 -2 7 -3 -7
right_child=5 6 4 -5 -6 8 -8 -9 -10
leaf_value=0.017605821304208583 0 -0.031543969760371895 0.01450943352494459 -0.12498826174579218 -0.075313704009735805 0.23686615169292422 0.0070850438242437488 -0.19560201661633922 0.063279500941072431
leaf_weight=67.103107333183289 31.487535201013088 26.990324079990387 1458.1128723211586 71.462902903556824 56.052525043487549 20.817478157579899 27.9448401927948 31.433144748210907 19.177172005176544
leaf_count=201 108 83 4163 214 177 70 86 97 65
internal_value=0.00473761 0.00110315 0.00542344 -0.0552103 0.0110743 0.090718 -0.0796203 -0.122956 0.158723
internal_weight=1810.58 1739.1 1652.73 138.566 1514.17 71.4822 86.3683 58.4235 39.9947
internal_count=5264 5021 4755 415 4340 243 266 180 135
is_linear=0
shrinkage=0.29469


Tree=55
num_leaves=11
num_cat=0
split_feature=58 121 12 124 116 43 80 116 74 60
split_gain=8.83665 6.28059 3.97691 5.50821 8.31206 5.09144 8.04387 4.26322 3.16154 3.05235
threshold=-0.017418029650874686 0.011647516893914169 814.61331589239364 0.93559051681600969 1.4697309754164134 0.83185664276111171 0.016220087074881668 -1.0000000180025095e-35 -0.0022072504616201202 0.0053089983619931174
decision_type=2 2 2 2 2 2 2 2 2 2
left_child=1 -1 3 4 -2 6 -4 -5 -3 -7
right_child=2 8 5 7 -6 9 -8 -9 -10 -11
leaf_value=0.32925565622124947 -0.017656465207870477 -0.13907748965362213 0.42018157053511002 -0.022525392507022349 0.36344139298478734 -0.13889115921878656 0.01358585098146417 -0.13837228635527343 0.14623979799304407 0.074455541391835023
leaf_weight=9.6132055222988146 75.407209359109402 5.6765120197087526 6.1183638870716122 49.789632676169276 4.772024269681423 13.132213227450849 13.637342549860476 71.751238430850208 6.7044278513640148 8.8770610764622671
leaf_count=113 1162 78 74 1603 40 208 174 1644 71 97
internal_value=-0.0186698 0.156946 -0.0353669 -0.052788 0.00568882 0.04535 0.153561 -0.0922709 0.00515933 -0.04743
internal_weight=265.479 21.9941 243.485 201.72 80.1792 41.765 19.7557 121.541 12.3809 22.0093
internal_count=5264 262 5002 4449 1202 553 248 3247 149 305
is_linear=0
shrinkage=0.29469


Tree=56
num_leaves=13
num_cat=0
split_feature=117 130 46 125 95 14 94 115 40 37 76 84
split_gain=6.06687 8.84762 8.25053 8.27342 7.02425 6.4591 7.81294 6.41356 11.3693 8.61358 6.06221 4.87726
threshold=5.1158125099967453 -0.93301270189221919 0.094164478037343832 1.0266843107386692 68.108461691782551 28.798783030394105 59.944143486731541 0.011488496202193032 0.87946187718928448 3.5510242137057317 0.0039239417295885556 0.024655231426176104
decision_type=2 2 2 2 2 2 2 2 2 2 2 2
left_child=1 2 3 -1 5 6 -2 9 -9 -3 -4 -7
right_child=4 7 10 -5 -6 11 -8 8 -10 -11 -12 -13
leaf_value=0.042451938836518315 0.0043051211683805407 0.0024470893749286393 -0.13172964528775655 0.23109356413172566 0.090553383515901559 -0.18605509846254306 -0.18688890155908586 -0.11923376692448773 -0.0053329685804579226 0.10185588968603083 0.080445911625911651 -0.010656186316425613
leaf_weight=45.67261615395546 113.14634777605534 941.74966865777969 22.181725680828094 39.295014828443527 27.49808669090271 50.686000213027 21.401758372783661 99.747065782546997 327.16489553451538 82.103347092866898 23.05950516462326 21.106580674648285
leaf_count=134 326 2707 64 114 88 160 64 288 950 236 67 66
internal_value=-0.00192017 0.00456396 0.0780121 0.132089 -0.0462166 -0.0652493 -0.0257759 -0.00196607 -0.0323611 0.0105927 -0.0211062 -0.13672
internal_weight=1814.81 1580.97 130.209 84.9676 233.839 206.341 134.548 1450.76 426.912 1023.85 45.2412 71.7926
internal_count=5264 4560 379 248 704 616 390 4181 1238 2943 131 226
is_linear=0
shrinkage=0.29469


Tree=57
num_leaves=8
num_cat=0
split_feature=121 131 31 9 56 41 73
split_gain=4.77687 19.0765 5.43663 7.86127 5.18052 5.71894 5.71139
threshold=0.0048107073261860903 -1.0000000180025095e-35 0.0081728047140327848 0.0099511609880291747 0.66030300412433374 0.61399350323344504 0.024064425956213775
decision_type=2 2 2 2 2 2 2
left_child=1 -1 3 -2 5 -4 -6
right_child=2 -3 4 -5 6 -7 -8
leaf_value=0.2169326532876798 -0.17363441748878056 -0.11165327665135868 0.035015171163984164 0.031462392399353431 0.015022180242060616 -0.019008983913721564 0.10558621332489156
leaf_weight=37.179252982139587 36.111154735088348 24.87114717438817 209.80088545382023 27.258591383695602 527.38970123231411 870.87474104762077 68.842496871948242
leaf_count=106 107 76 620 82 1531 2532 210
internal_value=0.00335046 0.0833512 0.00039971 -0.0838797 0.00368666 -0.00839017 0.0257787
internal_weight=1802.33 62.0504 1740.28 63.3697 1676.91 1080.68 596.232
