tree
version=v4
num_class=3
num_tree_per_iteration=3
label_index=0
max_feature_idx=131
objective=multiclass num_class:3
feature_names=ret_1 ret_2 ret_3 ret_5 ret_10 ret_20 ema_ratio_9 ema_ratio_21 ema_ratio_50 ema_ratio_100 ema_ratio_200 macd macd_signal macd_diff adx adx_pos adx_neg ichimoku_a ichimoku_b rsi_7 rsi_14 rsi_21 rsi_slope stoch_k stoch_d roc_5 roc_10 roc_20 williams_r cci ult_osc atr_pct bb_pband bb_wband bb_hband_ratio bb_lband_ratio kc_pband kc_wband realized_vol_10 realized_vol_20 realized_vol_60 vol_ratio obv_slope vol_ratio_10 vol_ratio_20 mfi cmf vwap_dev log_volume log_volume_zscore bar_range_pct body_ratio candle_dir upper_wick_pct lower_wick_pct open_gap close_position ret_1_lag1 ret_1_lag2 ret_1_lag3 ret_1_lag5 ret_1_lag10 ret_2_lag1 ret_2_lag2 ret_2_lag3 ret_2_lag5 ret_2_lag10 ret_3_lag1 ret_3_lag2 ret_3_lag3 ret_3_lag5 ret_3_lag10 ret_5_lag1 ret_5_lag2 ret_5_lag3 ret_5_lag5 ret_5_lag10 ret_10_lag1 ret_10_lag2 ret_10_lag3 ret_10_lag5 ret_10_lag10 ret_20_lag1 ret_20_lag2 ret_20_lag3 ret_20_lag5 ret_20_lag10 macd_diff_lag1 macd_diff_lag2 macd_diff_lag3 macd_diff_lag5 macd_diff_lag10 rsi_14_lag1 rsi_14_lag2 rsi_14_lag3 rsi_14_lag5 rsi_14_lag10 atr_pct_lag1 atr_pct_lag2 atr_pct_lag3 atr_pct_lag5 atr_pct_lag10 roll_mean_5 roll_std_5 roll_skew_5 roll_kurt_5 roll_max_ratio_5 roll_min_ratio_5 roll_mean_10 roll_std_10 roll_skew_10 roll_kurt_10 roll_max_ratio_10 roll_min_ratio_10 roll_mean_20 roll_std_20 roll_skew_20 roll_kurt_20 roll_max_ratio_20 roll_min_ratio_20 roll_mean_50 roll_std_50 roll_skew_50 roll_kurt_50 roll_max_ratio_50 roll_min_ratio_50 hour_sin hour_cos dow_sin dow_cos month_sin month_cos
feature_infos=[-0.15067206679800346:0.10911904198704081] [-0.17588955066277992:0.16090297825049751] [-0.20078742925087878:0.17004824415537484] [-0.23218035471356213:0.19210625045630156] [-0.30339345089314779:0.2695370987495857] [-0.39328144796406322:0.35109059161014139] [-0.15623014273317204:0.12241309419747837] [-0.20300010406109692:0.19461453536641837] [-0.27057095735173853:0.25367606858442748] [-0.37067183649504931:0.33528313057386905] [-0.46847430887289687:0.38332417271779318] [-208.28811184646611:197.86807736896981] [-179.37883075138453:170.49608241067531] [-88.149694825483024:70.931265225045038] [8.5338451943773581:72.894349009961857] [0.96983590635221839:61.324961097038077] [1.9825739248032028:73.740871003402518] [-0.17918231122236128:0.13538013416146666] [-0.32578114632024413:0.2154588493042684] [1.7912524676849273:96.954383155945436] [6.2598519622476658:90.090553189004055] [11.056667797540143:85.654676766734184] [-35.391942253332125:33.34188740315129] [0:100] [3.3332595469092401:97.542201562093467] [-20.719687536862526:21.179926434982828] [-26.169144894225809:30.935820687734939] [-32.516121114755563:42.061601597526689] [-100.00000000000001:0] [-529.9188060641269:548.97457171428437] [28.518855561030076:79.092656664732175] [0.0035896694849333294:0.077958398382217783] [-0.5400896402654759:1.5556764986506531] [0.47256602176466667:49.055071379559188] [-0.37177380848157493:0.068494552458722824] [-0.093235581139894275:0.50326649310222926] [-2.5021669309873582:4.6078674349332029] [0.66226275450487349:16.614419672063065] [0.069687534885629468:4.5824710633089216] [0.12071166661673412:3.7274555186056482] [0.2281253588810008:2.988757374151529] [0.11297671418095126:2.3123374666620302] [-4.6388048674693261:4.8145039055331944] [0.092662208523915199:5.8657546160956331] [0.075583396593480914:9.9752522338205392] [3.5736561597164069:97.548200368667281] [-0.3977046252050066:0.47442208972408073] [-0.18349338748645661:0.18897826879374824] [1.417187224562261:14.007789967332284] [-3.2774664299340071:4.3634362019811084] [0.0011306958804979802:0.30651993191085064] [0:0.99999999998850042] [-1:1] [0:0.95683111949919752] [0:0.98188405761527575] none [0:0.99999999999342593] [-0.15067206679800346:0.10911904198704081] [-0.15067206679800346:0.10911904198704081] [-0.15067206679800346:0.10911904198704081] [-0.15067206679800346:0.10911904198704081] [-0.15067206679800346:0.10911904198704081] [-0.17588955066277992:0.16090297825049751] [-0.17588955066277992:0.16090297825049751] [-0.17588955066277992:0.16090297825049751] [-0.17588955066277992:0.16090297825049751] [-0.17588955066277992:0.16090297825049751] [-0.20078742925087878:0.17004824415537484] [-0.20078742925087878:0.17004824415537484] [-0.20078742925087878:0.17004824415537484] [-0.20078742925087878:0.17004824415537484] [-0.20078742925087878:0.17004824415537484] [-0.23218035471356213:0.19210625045630156] [-0.23218035471356213:0.19210625045630156] [-0.23218035471356213:0.19210625045630156] [-0.23218035471356213:0.19210625045630156] [-0.23218035471356213:0.19210625045630156] [-0.30339345089314779:0.2695370987495857] [-0.30339345089314779:0.2695370987495857] [-0.30339345089314779:0.2695370987495857] [-0.30339345089314779:0.2695370987495857] [-0.30339345089314779:0.2695370987495857] [-0.39328144796406322:0.35109059161014139] [-0.39328144796406322:0.35109059161014139] [-0.39328144796406322:0.35109059161014139] [-0.39328144796406322:0.35109059161014139] [-0.39328144796406322:0.35109059161014139] [-88.149694825483024:70.931265225045038] [-88.149694825483024:70.931265225045038] [-88.149694825483024:70.931265225045038] [-88.149694825483024:70.931265225045038] [-88.149694825483024:70.931265225045038] [6.2598519622476658:90.090553189004055] [6.2598519622476658:90.090553189004055] [6.2598519622476658:90.090553189004055] [6.2598519622476658:90.090553189004055] [6.2598519622476658:90.090553189004055] [0.0035896694849333294:0.077958398382217783] [0.0035896694849333294:0.077958398382217783] [0.0035896694849333294:0.077958398382217783] [0.0035896694849333294:0.077958398382217783] [0.0035896694849333294:0.077958398382217783] [-0.046436070942712446:0.038421250091260281] [0.00036980006396170766:0.081113454430908449] [-2.226071133010378:2.23496660468366] [-3.3274426548594374:4.9960365911106264] [0.79364077153514356:1] [1:1.1984661463060446] [-0.030339345089314795:0.026953709874958532] [0.00089608500695439769:0.058924219681076327] [-3.11634428481673:3.0216666605077935] [-2.1921153592255842:9.7864223092417948] [0.74597661460131748:1] [1:1.3164861478490881] [-0.019664072398203163:0.017554529580507065] [0.0015521845448724409:0.047929906112961509] [-4.2595896415903818:3.9562166756559627] [-1.7706662265559792:18.691063723723406] [0.67639708143468169:1] [1:1.4380676597521926] [-0.013228357667770323:0.0080125967948353489] [0.002639765746144775:0.040484967895452029] [-4.5613634275965325:4.1988373502707868] [-0.80488826600811958:26.976629077802254] [0.5295504030390068:1] [1:1.5439050929715259] [-0.8660254037844386:0.86602540378443871] [-1:1] [-0.97492791218182362:0.97492791218182362] [-0.90096886790241903:1] [-1:1] [-1:1]
tree_sizes=2888 2414 2561 2826 2441 2967 2244 2800 2646 2609 3116 2983 1589 2763 3401 3331 2847 2658 3055 2799 2443 3088 2492 3178 2621 2901 2162 2714 2760 2245 1971 2593 2573 3307 2709 2837 3291 2578 2786 2769 3049 2479 2914 2462 3057 3000 2815 2627 2760 3139 2687 3186 2972 2580 2732 2828 3078 1952 2907 2379 3396 2375 3212 2908 2908 2237 2946 2831 2890 2503 2405 2635 2594 2103 2723 3058 2117 2570 2718 2978 3144 3458 2531 2775 1668 2850 2370 3520 3076 3173 2910 2951 2657 2680 2816 2645 2272 3065 3364 1861 2871 2921 2698 3121 2809 2559 3185 2918 3490 2969 3318 2542 2476 2827 1645 2752 3417 2716 2933 2845 2683 2321 2770 2237 1530 2340 3350 2855 2794 2932 3273 3459 3231 3180 2677 3189 2464 1333 3378 2445 2686 2832 2876 3153 2245 2494 1945 3125 2897 2808 3207 2762 3485 3464 2709 3271 2883 2484 3177 2670 2673 3240 3213 2780 3034 3254 2854 3154 2904 2665 2647 3209 2887 3276 2930 2342 2344 3076 3024 2845 2624 2674 2008 2642 2762 3034 3072 2947 2147 2204 2150 3436 3163 2734 3277 3416 2269 3147 3105 2737 2626 3397 2486 3407 3181 2340 3219 3094 2669 3341 2125 2709 3082 3414 2645 2577 2047 2721 2352 2320 2456 2532 3211 2646 2452 3189 2854 2638 3074 2429 3209 3248 2725 3200 3115 2535 3303 2609 2455 2306 3190 2748 2887 3277 2543 3102 3328 2291 2523 3323 2407 2884 3056 2912 3191 2849 1976 2794 3278 2227 3031 3174 2142 2640 3037 2719 2815 3315 2616 2942 3111 2450 3038 2314 2447 2886 2938 2351 2705 3430 2234 2645 3338 2717 3163 1682 2530 3354 3436 2434 3319 2493 2112 3136 3493 1785 2825 3349 2432 2995 3316 2121 3276 3184 2384 2980 2902 2456 2910 2873 2396 3354 2915 2524 3007 2506 2142 2631 2870 2122 3446 3359 2120 2369 2974 2026 3400 3410 1832 2912 2949 2114 2195 3336 1949 2779 2736 2217 2804 3015 1828 2983 3389 1921 3214 2842 1760 3075 2309 1742 3211 3238 1670 3308 2605 1956 2966 2723 1826 3186 3295 1938 3225 2569 1748 3194 2180 1910 3326 3296 1562 3192 3222 1755 3402 3262 1474 2293 3259 1654 3017 3101 1557 2651 2269 1544 2866 2570 990 3250 2787 1175 3413 2149 228 2999 2711 643 3404 3359 1202 3308 3246 641 3418 3065 536 3071 2945 636 3182 2623 228 2981 2699 1264 3136 2496 993 3181 3277 536 3249 3133 909 3217 3238 1364 3234 3257 1821 2767 3267 1176 2477 2875 1455 2889 2485 1347 3391 3420 1101 3232 3342 1460 3043 2860 1381 2516 3339 228 3041 3339 228 2807 3094 644 3147 3392 544 3023 3066 228 3251 2775 228 3395 2053 733 2971 3240 547 3179 2831 228 3435 3184 1542 3157 2888 1463 2553 3347 621 2428 2781 228 2944 3195 228 3217 2833 228 2773

Tree=0
num_leaves=26
num_cat=0
split_feature=38 110 10 9 47 121 91 121 14 120 102 45 86 7 101 86 38 91 10 6 37 101 32 67 81
split_gain=22.3856 30.0652 26.2766 25.4373 16.8512 20.3628 16.4624 16.0907 19.5121 12.4438 11.5538 10.8336 14.1776 10.819 10.0479 9.42597 9.24702 8.09765 7.59717 6.57243 4.19722 4.87048 2.42566 2.34625 1.77276
threshold=1.280765136329858 -1.2847468095525365 0.22551956860208403 0.029520590954942864 0.04655845399066539 0.023870345557450903 -17.7632313810219 0.023870345557450903 32.019811450914652 -0.0025651226224427007 -0.0054547922290749326 63.209056090486143 -0.019413869931201307 -0.019185096197804005 0.028934226634085635 0.093162618584032283 0.38683360076846135 17.668423358730699 -0.15831769893469941 -0.012787379369031513 3.9683831825686688 0.030914107856827636 0.938066495804601 -0.0029503089275457182 -0.043732656628540804
decision_type=2 2 2 2 2 2 2 2 2 2 2 2 2 2 2 2 2 2 2 2 2 2 2 2 2
left_child=1 9 7 4 5 6 -2 8 -3 -1 -9 12 23 -7 24 16 -11 22 -16 -14 -13 -22 -4 -5 -6
right_child=3 2 17 11 14 13 -8 10 -10 15 -12 20 19 -15 18 -17 -18 -19 -20 -21 21 -23 -24 -25 -26
leaf_value=-0.7974750436094753 -0.62261987253131224 -0.70007490660938998 -0.46404150725328941 -0.72102631373827764 -0.79435705142588287 -0.8764995011247243 -0.72504623799282297 -0.73877661425180585 -0.74425502086356743 -0.70825335714040771 -0.53447736545527014 -0.70825335714040771 -0.81915347903374158 -0.72296726920091259 -0.70825335714040771 -0.76101495650564122 -0.5811554474606978 -0.70825335714040771 -0.45834052565819461 -0.68302416711712188 -0.87360408772586706 -0.7128143274144082 -0.67563891406238441 -0.93624497750499658 -0.66224133120019335
leaf_weight=15.746460199356077 92.604181289672852 1873.4538506269455 29.993252158164978 8.9979772567749041 8.9979772567749041 58.861766695976257 417.2812077999115 13.871881604194639 648.97911047935486 24.369527220726013 43.115313053131104 12.747130632400511 21.370195984840393 48.364113330841064 9.3728929758071882 14.246797323226927 188.58260715007782 9.7478086948394758 24.369521737098694 86.605530977249146 101.97707605361938 17.246123075485229 9.3728929758071882 19.120701670646667 8.9979757070541364
leaf_count=42 247 4997 80 24 24 157 1113 37 1731 65 115 34 57 129 25 38 503 26 65 231 272 46 25 51 24
internal_value=-0.708253 -0.698555 -0.705596 -0.737708 -0.713952 -0.724778 -0.707435 -0.708435 -0.711241 -0.624455 -0.593076 -0.795098 -0.746203 -0.811962 -0.594591 -0.610239 -0.597779 -0.546208 -0.523279 -0.708253 -0.841692 -0.854584 -0.501584 -0.885347 -0.708253
internal_weight=3808.39 2871.48 2628.53 936.914 668.85 617.111 509.885 2579.42 2522.43 242.945 56.9872 268.065 136.094 107.226 51.7384 227.199 212.952 49.114 33.7424 107.976 131.97 119.223 39.3661 28.1187 17.996
internal_count=10158 7659 7011 2499 1784 1646 1360 6880 6728 648 152 715 363 286 138 606 568 131 90 288 352 318 105 75 48
is_linear=0
shrinkage=1


Tree=1
num_leaves=22
num_cat=0
split_feature=38 129 100 131 33 41 35 97 116 116 14 103 90 37 131 117 35 90 15 19 93
split_gain=204.633 51.0801 48.9526 93.1438 61.0684 30.032 44.0312 21.7978 29.6636 15.0273 18.3644 13.9676 7.87743 7.52203 6.13053 3.46765 3.37494 11.4038 2.34228 1.76098 0.0578256
threshold=2.0477568666677706 1.0000000180025095e-35 0.046880611964285022 -0.9330127018922193 9.6304274367791898 1.5209433846176605 0.015280206674503584 0.032628758203419324 -1.2067012150293122 0.40289308183980371 16.721975534420228 0.015780531961521346 -13.804913154452121 6.0586123719448013 0.6830127018922193 -1.1946963223372695 0.038404037544642618 1.3096684053611938 6.752126251517617 69.446707713567676 37.89274113488581
decision_type=2 2 2 2 2 2 2 2 2 2 2 2 2 2 2 2 2 2 2 2 2
left_child=1 5 4 -4 -2 9 -7 20 -9 10 -1 -8 -11 15 -5 -3 17 -15 -17 -18 -6
right_child=2 13 3 14 7 6 11 8 -10 12 -12 -13 -14 16 -16 18 19 -19 -20 -21 -22
leaf_value=-3.063746030077906 -1.6310498299766512 -3.2340109342728467 -3.2593712354534827 -0.83151183419209085 -3.2593712354534827 -2.08568179311193 -3.2854873262479947 -2.2063921647805689 -3.0911742086064669 -3.0865798483854987 -3.2473547315369693 -2.8967042739838194 -3.3403552691925062 -3.2593712354534827 -2.4687703249700972 -3.2593712354534827 -3.3395357352859478 -2.6517249583765308 -3.385335400663291 -3.1302836898493389 -3.3006301720589661
leaf_weight=33.298739671707153 1.9391970336437285 2.1054098904132834 2.3270321488380432 2.1054086089134207 1.3297320902347589 2.6040619313716915 7.4797461926937086 3.0473040044307771 10.083804577589026 5.208119571208953 164.05576753616333 6.7040688097476959 87.042082190513611 2.2716265618801108 1.3297326564788821 2.271604895591735 10.028400450944899 1.9391934573650358 209.7653286755085 1.3297326564788807 4.5432532429695129
leaf_count=601 35 38 42 38 24 47 135 55 182 94 2961 121 1571 41 24 41 181 35 3786 24 82
internal_value=-3.25937 -3.28866 -2.66483 -2.04911 -2.85838 -3.23117 -2.94411 -3.01023 -2.84735 -3.24956 -3.21381 -3.13735 -3.32055 -3.36753 -1.31809 -3.37869 -3.24654 -3.06178 -3.38251 -3.27055 -3.28836
internal_weight=562.809 536.104 26.7055 5.76217 20.9433 306.393 16.7879 19.0041 13.1311 289.605 197.355 14.1838 92.2502 229.711 3.43514 214.142 15.569 4.21082 212.037 11.3581 5.87299
internal_count=10158 9676 482 104 378 5530 303 343 237 5227 3562 256 1665 4146 62 3865 281 76 3827 205 106
is_linear=0
shrinkage=1


Tree=2
num_leaves=23
num_cat=0
split_feature=122 125 123 14 40 89 40 116 14 90 99 120 10 131 94 116 122 17 38 37 104 49
split_gain=51.2243 36.7356 33.2268 25.0476 24.0305 23.5929 19.5562 19.1396 18.648 27.2892 24.8089 17.1736 16.1406 14.8152 14.1484 12.0372 11.2982 7.12461 6.88523 6.78792 6.08364 0.359308
threshold=-0.35351062220738166 1.1078958140208233 5.872237951101809 17.096923128205702 0.48139718900691653 1.465087186876681 2.1528681960852674 -0.26686279941274221 31.713633677952387 -15.3207606508397 0.010824668939461879 -0.0054132656435943076 -0.19784784724306845 -0.24999999999999994 55.804331811317674 -0.78445691979755561 -1.3327048631689806 0.037570936094272429 1.5785804210745831 11.398697681927956 1.6818623449229284 0.79784221277663636
decision_type=2 2 2 2 2 2 2 2 2 2 2 2 2 2 2 2 2 2 2 2 2 2
left_child=1 2 5 15 7 16 8 -2 10 -10 -6 -5 19 17 -7 -4 -1 -3 21 -8 -9 -15
right_child=4 13 3 11 6 14 12 20 9 -11 -12 -13 -14 18 -16 -17 -18 -19 -20 -21 -22 -23
leaf_value=-0.70979664939868814 -0.79911981006709598 -0.66753726740764863 -0.8240911732402918 -0.61625028331454512 -0.87410964324798546 -0.69924569429021122 -0.6154526131092195 -0.51017533468181053 -0.83701924898291047 -0.69127937123020244 -0.74495557579918614 -0.89712759179224155 -0.97023786871908901 -0.98790190465744632 -0.79021477461946199 -0.5561018066203951 -0.80085128406406136 -0.90073416161829456 -0.77039924634290857 -0.84369112772223809 -0.7569738858514361 -0.8431091269951998
leaf_weight=69.856854557991028 15.316217064857481 16.063349604606632 10.833421826362612 9.339156508445738 75.086757779121399 323.881960272789 11.954120635986328 44.454501152038574 66.494796633720398 589.11401212215424 1539.8401381969452 196.12229180335999 32.500261306762695 69.483328342437744 103.47785675525665 18.304740071296692 542.79180347919464 10.459855556488035 15.316217064857481 11.954118728637695 8.9655904769897443 13.074819445610045
leaf_count=187 41 43 29 25 201 867 32 119 178 1577 4122 525 87 186 277 49 1453 28 41 32 24 35
internal_value=-0.756974 -0.790528 -0.778927 -0.85381 -0.737559 -0.761549 -0.741588 -0.608528 -0.738219 -0.706832 -0.751274 -0.881901 -0.868234 -0.905331 -0.722455 -0.673081 -0.789644 -0.756974 -0.944849 -0.750708 -0.544423 -0.971092
internal_weight=3794.69 1399.01 1274.61 234.6 2395.68 1040.01 2326.94 68.7363 2270.54 655.609 1614.93 205.461 56.4085 124.398 427.36 29.1382 612.649 26.5232 97.8744 23.9082 53.4201 82.5581
internal_count=10158 3745 3412 628 6413 2784 6229 184 6078 1755 4323 550 151 333 1144 78 1640 71 262 64 143 221
is_linear=0
shrinkage=1


Tree=3
num_leaves=26
num_cat=0
split_feature=103 110 84 48 77 34 114 40 14 36 85 49 87 102 15 9 14 14 101 16 120 71 16 101 68
split_gain=16.2733 20.1644 17.0862 15.5475 16.848 20.2845 15.0455 28.0252 18.4201 13.6903 13.3991 11.1853 9.56581 8.37465 8.07741 8.34271 16.9184 8.45122 5.65374 5.60659 5.97848 5.58692 3.59671 2.98342 2.39686
threshold=0.02278145911415104 -1.2847468095525365 -0.0045271218531095685 8.5025096070580695 -0.012290127843266361 -0.1316038575485515 0.00062502015894018361 1.5468094889254445 19.487670414503324 -0.87817115509190102 -0.070672284366444307 0.52904158655967104 -0.80192518260607304 0.0046277943319992078 29.250852186755093 -0.10301784463634993 51.323328176775199 19.303778049257065 0.030914107856827636 16.060589737794565 -0.0016070006149475873 -0.012186513429731273 11.036815246168867 0.018799504373239958 -0.051857362445279692
decision_type=2 2 2 2 2 2 2 2 2 2 2 2 2 2 2 2 2 2 2 2 2 2 2 2 2
left_child=1 2 10 4 5 -3 8 -8 -5 21 13 -6 -12 -1 15 16 -11 -17 22 -4 -21 24 -16 -23 -2
right_child=9 3 19 6 11 -7 7 -9 -10 14 12 -13 -14 -15 18 17 -18 -19 -20 20 -22 23 -24 -25 -26
leaf_value=0.16560808712521674 -0.090293760968646553 0.18523261179392009 0 -0.062455502035478908 0.058662547798452175 -0.049186734355876935 0 0.14150280020693987 -0.0059724127571597323 -0.17027452135167773 0.0086307931669012943 -0.025015017057736899 -0.12735054160584652 -0.013639264576994188 -0.049223348611515262 -0.11346166418182063 0.032040183483717913 0.015962518467519653 0 0 0.16356664080582284 0 -0.20748559341148037 0.1761658131152761 0.036057063699850726
leaf_weight=38.498113065958023 12.992770314216616 19.099632918834686 16.809300124645233 434.12390324473381 498.05395025014877 191.33183354139328 970.74508371949196 72.775056064128876 849.67610052227974 53.92222598195076 117.31692141294479 82.24433571100235 30.278843104839325 11.50226905941963 20.394744902849197 29.809486955404282 25.886971831321716 121.3801104426384 13.078381001949309 16.442190676927567 90.013889044523239 14.223412513732908 37.906402438879013 17.934000492095947 10.470831274986265
leaf_count=103 35 51 45 1159 1332 511 2595 196 2272 146 314 220 81 31 55 80 71 325 35 44 241 38 102 48 28
internal_value=0.000266261 0.00504432 0.0575551 -0.000197218 0.0262812 -0.0255082 -0.00941067 0.00985743 -0.0254661 -0.0442198 0.014524 0.0459323 -0.0158417 0.114267 -0.0634349 -0.0402234 -0.0983198 -0.00621328 -0.131472 0.122435 0.141085 0.0511563 -0.160791 0.113224 -0.0123718
internal_weight=3796.91 3438.91 320.862 3118.05 790.73 210.431 2327.32 1043.52 1283.8 357.999 197.596 580.298 147.596 50.0004 302.378 230.999 79.8092 151.19 71.3795 123.265 106.456 55.621 58.3011 32.1574 23.4636
internal_count=10158 9195 859 8336 2114 562 6222 2791 3431 963 529 1552 395 134 814 622 217 405 192 330 285 149 157 86 63
is_linear=0
shrinkage=0.219949


Tree=4
num_leaves=23
num_cat=0
split_feature=39 129 21 41 88 131 117 17 19 30 14 40 124 14 86 21 131 94 30 41 57 117
split_gain=62.9015 42.6002 27.5525 23.8741 21.6923 20.3566 20.2464 16.6239 35.1674 12.0973 15.6002 7.86804 7.05745 6.65193 4.59318 12.2476 4.54397 2.54867 2.18105 0.628178 1.00334 0.087028
threshold=2.006091767820513 -1.0000000180025095e-35 36.630389165028426 1.1674471839914868 18.706315318265094 -1.0000000180025095e-35 2.6589035001188588 -0.029449512549364561 32.392825225175187 52.944611136387458 17.312313612972886 1.0937889737350981 0.78569830442572075 44.381219710529443 -0.074844372982427035 49.767276321125316 -0.68301270189221952 27.838913601494706 46.18628590593314 1.5438489421477917 -0.016573729660844718 0.69416801498515346
decision_type=2 2 2 2 2 2 2 2 2 2 2 2 2 2 2 2 2 2 2 2 2 2
left_child=1 3 19 9 5 16 -7 18 -9 10 -1 -11 13 -3 15 -14 -4 -16 -5 -2 -21 -6
right_child=2 12 4 7 21 6 -8 8 -10 11 -12 -13 14 -15 17 -17 -18 -19 -20 20 -22 -23
leaf_value=0.15522037555497301 -0.062844668549668511 0.4237635451431751 0.25201985043525332 -0.092499220273784516 0.034205424644602918 0.97432926871620884 0.32573981412616348 0.64800940965624898 0.11026876455337009 -0.12714390247379406 -0.011095292015324779 0 -0.083625699637978529 0 0 0.38925719290166516 0 -0.12521074106937768 0.035361513399275998 0 0.11419634664370558 -0.014589167069071051
leaf_weight=35.437483105808496 6.4618700817227346 2.157850954681634 4.9804431982338428 14.877532895654442 2.9368554130196562 6.2644534930586842 9.4685558043420297 7.2628222182393065 60.421993739902973 54.62132503464818 100.03596932440996 41.93120526522398 16.917619459331039 2.3816577903926373 4.1729826778173438 3.1293303556740275 3.5475388430058974 181.89718160405755 4.2586411647498599 2.8363089859485626 4.095119196921587 3.6350858435034752
leaf_count=578 74 28 61 221 37 53 96 80 999 992 1821 752 325 38 80 61 51 3636 64 24 25 62
internal_value=-0.00377347 -0.0256872 0.247164 0.0237415 0.361741 0.457775 0.616121 0.122654 0.175438 -0.0110924 0.02868 -0.0721311 -0.102901 0.120334 -0.110269 0 0.106383 -0.121093 -0.0376372 0 0.0265001 0
internal_weight=573.73 529.504 44.2262 318.847 30.8329 24.261 15.733 86.821 67.6848 232.026 135.473 96.5525 210.657 4.53951 206.117 20.0469 8.52798 186.07 19.1362 13.3933 6.93143 6.57194
internal_count=10158 9675 483 5507 360 261 149 1364 1079 4143 2399 1744 4168 66 4102 386 112 3716 285 123 49 99
is_linear=0
shrinkage=0.219949


Tree=5
num_leaves=27
num_cat=0
split_feature=123 116 90 40 112 99 113 124 40 116 114 124 124 10 88 71 66 111 40 125 131 109 111 131 12 10
split_gain=25.2475 27.6091 19.3406 15.0247 24.195 20.925 18.8229 14.2325 13.5937 12.8889 12.8204 13.2209 16.8812 13.3678 10.931 8.70254 8.42023 8.33539 8.04472 8.53743 7.45513 6.24411 5.90677 3.67026 2.90863 2.30516
threshold=5.430599827373948 -0.84191436603551606 -22.837597613501483 1.6722821359927911 0.96314571645257085 0.024285510272373658 1.007428341566184 0.7675729880772274 1.1840250449518106 -1.0072692715442986 -0.00061062769922573122 0.95501736822636807 0.98218576791045364 -0.035457203502833982 10.74679992667906 -0.0074364698465146086 0.0077066756172662247 1.440455783362252 0.92818568826249082 1.0277423309328915 -0.68301270189221952 0.015252625692268925 1.6251207016270086 -0.24999999999999994 -15.055791251976524 -0.043310754300387937
decision_type=2 2 2 2 2 2 2 2 2 2 2 2 2 2 2 2 2 2 2 2 2 2 2 2 2 2
left_child=2 7 8 5 15 6 -4 -2 18 -7 16 13 -13 -12 20 -5 17 -3 23 -20 -9 -6 25 -1 -18 -10
right_child=1 10 3 4 21 9 -8 14 22 -11 11 12 -14 -15 -16 -17 24 -19 19 -21 -22 -23 -24 -25 -26 -27
leaf_value=0 0.12645693421466939 0.14561792335647419 -0.02091308614998922 -0.037815368740764237 -0.19045977576822706 0.14912928800373643 0.021459252159069728 -0.039030109793093147 -0.18650572801120988 0.040890376260951482 -0.0072403545149425054 0.081143795219880854 -0.046081267127913932 -0.19899199551249203 0.057588269780373083 0.10033101982271475 -0.13094533755819604 -0.0097015313462670057 0.16433175935668007 -0.012616361903407739 -0.15199272937235339 -0.065666291060640078 0 -0.18235637950096081 0.00028580087141689248 -0.03919938331179864
leaf_weight=8.9211011528968829 10.63154351711273 56.04060310125351 768.22002559900284 30.689987421035767 35.86124187707901 65.190665721893311 1460.2300134301186 50.519722431898117 49.897211045026779 512.95799905061722 44.013570815324783 81.216983824968338 132.75645384192467 37.690741449594498 12.86983612179756 53.923288226127625 10.316822379827501 15.556486308574675 20.090563178062439 25.660451799631119 156.99106234312057 94.670599043369293 9.6287298798561078 13.024537831544874 9.3169750273227674 16.343493431806564
leaf_count=24 29 151 2059 83 98 175 3910 137 135 1375 119 218 357 102 35 145 28 42 54 69 427 256 26 35 25 44
internal_value=0.000171452 -0.0403578 0.00824308 0.0121334 -0.0432385 0.0165581 0.00662534 -0.100611 -0.0701189 0.0539693 -0.00307624 -0.0265544 0 -0.101882 -0.113858 0.0442518 0.0674767 0.104812 0 0.0540416 -0.126927 -0.103823 -0.134058 -0.107913 -0.042934 -0.15779
internal_weight=3783.23 617.921 3165.31 3021.74 215.145 2806.6 2228.45 231.012 143.566 578.149 386.909 295.678 213.973 81.7043 220.381 84.6133 91.2309 71.5971 67.6967 45.751 207.511 130.532 75.8694 21.9456 19.6338 66.2407
internal_count=10158 1670 8488 8101 582 7519 5969 628 387 1550 1042 796 575 221 599 228 246 193 182 123 564 354 205 59 53 179
is_linear=0
shrinkage=0.219949


Tree=6
num_leaves=20
num_cat=0
split_feature=86 86 93 12 121 36 125 12 128 113 42 101 90 21 120 96 121 98 107
split_gain=14.6632 14.4458 21.3946 14.4208 17.5742 11.3266 18.1192 16.1513 14.9366 14.2594 11.2149 9.98822 12.2245 8.99259 7.79096 6.24622 6.08797 2.67763 1.4692
threshold=0.15371664813499614 -0.003553373444164004 69.856449690490692 54.66566916541079 0.011391717435960168 1.1119745753291672 1.018161600883188 -62.014069312990195 0.6078576107927941 1.0752669042111169 0.53881914920241458 0.019772658840079612 8.5252712838241713 62.256982385490041 -6.1718757161590486e-05 56.960805743240478 0.01114844269374232 0.022731651000572329 1.0370183081996056
decision_type=2 2 2 2 2 2 2 2 2 2 2 2 2 2 2 2 2 2 2
left_child=1 5 3 13 -5 6 8 -8 -1 16 17 15 -13 -3 -11 -4 -7 -2 -12
right_child=10 2 11 4 -6 9 7 -9 -10 14 18 12 -14 -15 -16 -17 -18 -19 -20
leaf_value=0.031921927602964008 -0.013308390241777449 0.021786222439791968 0 -0.059375349546204013 0.11622055244800235 0.0021421087799051866 0.016926903075139325 -0.055684294313555989 -0.054181533977970354 0.051381825429105674 -0.03608989743134413 0.1338658595193965 -0.056584469130359673 -0.03140356700674414 -0.084353477140603941 -0.10602266506589884 0.088445950023110884 -0.22401571847388824 0.072704615198719263
leaf_weight=402.85830327868462 9.3388554155826551 1470.5265448391438 32.442035019397736 29.862240552902222 145.90608105063438 74.834517151117325 175.72927311062813 697.83905965089798 125.99127572774887 24.43637552857399 12.307064563035967 27.183923780918121 37.501121997833252 164.50488725304604 67.696773141622543 116.19505697488785 129.45166739821434 27.110034078359604 10.413357466459273
leaf_count=1082 25 3942 87 80 394 200 480 1873 338 66 33 73 101 441 183 312 347 73 28
internal_value=0.00046691 0.00232639 0.0149922 0.0229457 0.0835125 -0.0124671 -0.0209247 -0.0404992 0.0104534 0.0258426 -0.107992 -0.0501528 0.0156403 0.0161256 -0.0428676 -0.082185 0.0593047 -0.183893 0
internal_weight=3782.13 3722.96 2024.12 1810.8 175.768 1698.84 1402.42 873.568 528.85 296.419 59.1693 213.322 64.685 1635.03 92.1331 148.637 204.286 36.4489 22.7204
internal_count=10158 9999 5430 4857 474 4569 3773 2353 1420 796 159 573 174 4383 249 399 547 98 61
is_linear=0
shrinkage=0.219949


Tree=7
num_leaves=27
num_cat=0
split_feature=103 48 40 41 129 16 12 122 21 48 41 122 130 122 39 14 129 4 78 14 99 67 22 33 36 105
split_gain=39.6453 32.8409 22.0541 25.023 15.4483 14.1228 17.643 12.82 12.3572 12.2575 12.143 9.47462 8.10369 8.06379 6.1599 5.32599 5.41336 5.94127 3.0498 2.94106 3.4492 2.28677 1.64379 0.828542 0.698879 0.489865
threshold=0.014270328196284406 9.0509571299143712 1.6722821359927911 1.6915975418344213 1.0000000180025095e-35 33.653554958104692 -7.0275135993373405 -2.1539832410021225 47.475456132535804 8.5897092712680614 0.63028056157955403 0.26096411806400255 0.68301270189221941 1.5127588773122886 2.006091767820513 21.700005293408314 -0.22252093395631442 0.017796322042464448 0.066730610526487558 34.499159133889819 0.021945030879686338 -0.017146963988773318 18.151531639112971 12.17951659321916 1.4143254457315051 -2.8413228829923316
decision_type=2 2 2 2 2 2 2 2 2 2 2 2 2 2 2 2 2 2 2 2 2 2 2 2 2 2
left_child=4 15 3 8 5 9 12 -4 -3 21 -9 -11 -7 -5 18 16 17 -2 22 25 -21 -1 -6 -18 -20 -17
right_child=1 2 7 13 14 6 -8 10 -10 11 -12 -13 -14 -15 -16 19 23 -19 24 20 -22 -23 -24 -25 -26 -27
leaf_value=0 0.28337471037394041 -0.050854037508014829 0 0.39520165395178636 -0.12568669658222179 -0.031360449805321336 0.78190953524195195 0 0.11024756955317722 0.042214971784933664 0.37884250643519657 -0.070766853446870392 0.34992721525111742 0 0.16052713350443756 0 -0.089102990328140258 0 0.17076531895606803 0.15927434347551955 -0.069450402639804065 -0.13329022894156364 0 0 0 -0.13722119177759179
leaf_weight=4.8972693495452395 6.8106655478477496 45.142717342823744 4.1365755796432486 13.758591946214439 130.9741388708353 7.4873334541916829 2.2794519551098338 2.4820882156491306 43.141238510608673 104.2287415638566 28.879416849464178 54.43761196359992 3.2640606500208378 2.9452735669910899 2.4758942760527125 1.5017201229929948 7.8209210596978647 2.4666919410228729 1.1591921783983701 4.0154319144785431 13.474339611828325 48.47774513438344 1.3400115370750416 1.2329041287302969 1.7056430056691168 30.370430000126362
leaf_count=87 97 759 29 114 2954 111 37 47 773 1801 230 992 44 40 26 23 147 40 24 73 221 869 30 20 38 532
internal_value=-0.00480391 0.070713 0.132378 0.0750639 -0.0495383 -0.0114933 0.206427 0.28765 0.0221467 -0.0272689 0.336796 0.000266516 0.0374002 0.324487 -0.108072 -0.0497969 0.0327228 0.167244 -0.116731 -0.0906791 0 -0.11859 -0.122622 -0.0493071 0 -0.131145
internal_weight=570.906 208.179 140.486 104.988 362.727 225.072 13.0308 35.4981 88.284 212.041 31.3615 158.666 10.7514 16.7039 137.655 67.6931 18.3312 9.27736 135.179 49.3619 17.4898 53.375 132.314 9.05383 2.86484 31.8722
internal_count=10158 3145 1992 1686 7013 3941 192 306 1532 3749 277 2793 155 154 3072 1153 304 137 3046 849 294 956 2984 167 62 555
is_linear=0
shrinkage=0.219949


Tree=8
num_leaves=24
num_cat=0
split_feature=110 10 89 46 20 18 124 116 115 83 19 125 116 109 124 115 89 99 23 46 91 29 14
split_gain=16.5948 17.267 16.8922 14.3218 25.5138 22.4546 17.3844 22.0206 14.2311 10.3758 10.169 10.5235 9.81777 9.05051 8.31686 8.16515 6.13585 4.04862 3.31086 2.66671 2.30508 1.86597 0.391725
threshold=-0.76707683631263002 -0.1838251029862624 -24.943322940104014 0.05106259517065443 67.884385673609657 0.092546239544206613 0.98218576791045364 -0.84191436603551606 0.0078243475330901802 -1.0000000180025095e-35 34.197687510160719 1.0564342966366846 0.44036864558058092 0.0073854450469942158 0.85282387840599572 0.014806158779635427 17.668423358730699 0.040017455473219728 8.8420390825143276 0.0045535468140965518 -13.07870467433259 -184.57672840996693 28.457442089801656
decision_type=2 2 2 2 2 2 2 2 2 2 2 2 2 2 2 2 2 2 2 2 2 2 2
left_child=1 17 18 6 5 -5 7 -4 -6 10 14 -12 16 -14 -3 -8 -11 21 -2 22 -21 -1 -20
right_child=2 9 3 4 8 -7 15 -9 -10 12 11 -13 13 -15 -16 -17 -18 -19 19 20 -22 -23 -24
leaf_value=0 0 0.03451950510521809 -0.024023168965183604 -0.013006330784877935 0.1778007554686597 -0.15769350273395072 -0.047032811019972275 0.051313863009965335 0.030259687143427316 -0.099627356941036721 0.039797578288957088 -0.054245464767024479 0.10200628893277883 -0.062230306908446074 -0.069020804773175681 0.067508492432110587 0.048828021052721667 0 -0.047784126693354183 0.028899919882979602 -0.097630217453035531 0.19304856678503365 -0.14696187870716557
leaf_weight=8.8681358397006971 9.589290499687193 39.558011054992676 221.12292882800102 1009.7199320793152 38.493451714515686 55.819777011871338 192.46689838171005 998.35917985439301 283.22040784358978 211.36523678898811 203.95682099461555 77.333610981702805 27.548563867807388 39.039793401956558 191.82700374722481 32.558772534132004 9.6734974980354291 10.841714918613432 21.089646875858307 12.736853063106539 10.716610848903654 20.869296163320545 41.883606135845184
leaf_count=24 26 108 597 2714 103 153 516 2683 758 574 551 210 74 106 525 88 26 30 57 35 29 56 115
internal_value=0.000125065 -0.0269718 0.00808011 0.0113135 -0.00433626 -0.0210603 0.0266928 0.037239 0.049484 -0.0345519 -0.0145262 0.0121463 -0.0684894 0 -0.0491354 -0.0282142 -0.0908441 0.110069 -0.0820181 -0.0965743 -0.0073697 0.152048 -0.121772
internal_weight=3768.66 840.882 2927.78 2831.76 1387.25 1065.54 1444.51 1219.48 321.714 800.303 512.675 281.29 287.627 66.5884 231.385 225.026 221.039 40.5791 96.016 86.4267 23.4535 29.7374 62.9733
internal_count=10158 2284 7874 7612 3728 2867 3884 3280 861 2174 1394 761 780 180 633 604 600 110 262 236 64 80 172
is_linear=0
shrinkage=0.219949


Tree=9
num_leaves=24
num_cat=0
split_feature=117 122 96 101 37 113 39 117 48 10 46 91 44 130 113 130 38 11 90 10 45 129 96
split_gain=19.7807 18.389 22.9828 21.4873 15.2729 14.4441 13.8614 13.6678 12.1274 12.6877 10.5312 11.9206 8.49943 7.17174 6.49225 6.48172 6.42774 6.26472 4.06222 3.54155 3.20118 3.09812 2.49965
threshold=6.297523307271053 -0.35351062220738166 56.383499655815818 0.0086656527191240531 1.8992060599225413 1.0495156081464068 1.2775334850306082 -0.47218023786285379 8.0359804250406945 0.076291191195413291 -0.047533611267717803 -0.30584225358122547 1.0274742451292989 0.25000000000000011 1.0007567197400651 -0.24999999999999994 1.3575465225692069 -30.860877529656019 5.3802278024986281 0.012018378714221624 60.811579524534125 -0.56174490092936669 45.829268049772672
decision_type=2 2 2 2 2 2 2 2 2 2 2 2 2 2 2 2 2 2 2 2 2 2 2
left_child=1 2 8 20 13 10 21 -6 12 -10 11 17 -1 -5 22 -8 -13 -2 -16 -7 -3 -4 -12
right_child=5 3 6 4 7 19 15 -9 9 -11 14 16 -14 -15 18 -17 -18 -19 -20 -21 -22 -23 -24
leaf_value=0.084278594310859906 0 -0.21964587334972285 0.04511822852249698 0.16286824576623363 0.030495016260409642 0 -0.17310300957957123 -0.021689470193857866 0.0012696725152236963 -0.11034625473579222 -0.0654948576613337 -0.21109482526309617 -0.027849885275125427 -0.015018125293819956 0.17178702353206535 0.02426322207752505 0 0.15377311871235397 0.05326199603249878 -0.14683790344262537 -0.0019394921713647953 0.14561418811146534 0.060103160260817051
leaf_weight=137.93500411510468 14.863432437181471 28.82756707072258 36.412441074848175 34.828069001436234 270.20483827590942 8.8463891744613665 10.410509139299391 1939.6512199044228 840.34043258428574 51.885329723358154 8.8425030708312971 14.044496208429338 34.923270523548126 8.9274648427963239 79.560080349445343 25.183576107025146 9.9512316882610303 23.888199299573898 34.248046606779099 16.442553162574768 9.1933264732360822 104.29855081439018 24.08242854475975
leaf_count=372 40 78 98 94 728 25 28 5222 2265 140 24 38 94 24 216 69 27 65 93 45 25 283 65
internal_value=0.00043404 -0.00353891 0.0178336 -0.015337 -0.0123297 0.062375 0.0915713 -0.0150801 0.00515322 -0.00465474 0.0825924 0 0.0587014 0.115025 0.114938 -0.0192657 -0.114554 0.0821936 0.14056 -0.0851125 -0.180297 0.1232 0.0110235
internal_weight=3767.79 3533.02 1241.39 2291.63 2253.61 234.769 176.305 2209.86 1065.08 892.226 209.48 62.7474 172.858 43.7555 146.733 35.5941 23.9957 38.7516 113.808 25.2889 38.0209 140.711 32.9249
internal_count=10158 9520 3349 6171 6068 638 478 5950 2871 2405 568 170 466 118 398 97 65 105 309 70 103 381 89
is_linear=0
shrinkage=0.219949


Tree=10
num_leaves=30
num_cat=0
split_feature=109 77 40 15 37 30 16 14 14 110 15 40 46 41 123 104 129 99 77 49 13 16 46 19 29 109 80 95 24
split_gain=28.9851 16.4513 17.5897 22.2194 14.29 14.0921 17.5456 13.9493 13.8013 15.5949 17.2316 13.1274 16.8765 9.6466 8.20274 7.03012 5.94842 5.6684 10.2478 10.0537 3.06396 2.40646 1.74349 1.73412 1.67959 1.61143 0.266589 0.21627 0.050463
threshold=0.010461500022428972 -0.015648988719005216 0.56034779777478416 13.3486929000673 6.0586123719448013 45.35326836997794 19.262379337864818 42.755055260873313 16.721975534420228 0.26988853460162288 21.23532494941826 1.4809898179492114 0.02630029683226413 1.6536972763392177 8.1718732253258271 -0.046830224613317623 1.0000000180025095e-35 0.0082457940590977656 0.0056433963465694131 0.16975190228758172 -18.93529372814281 32.267408986692509 -0.14282840566418509 17.666792425256322 173.29946811516626 0.026331312036226146 0.0056478641579484666 43.817835665892055 52.70829105605808
decision_type=2 2 2 2 2 2 2 2 2 2 2 2 2 2 2 2 2 2 2 2 2 2 2 2 2 2 2 2 2
left_child=1 2 3 -1 8 20 25 -8 9 10 -2 14 -13 16 -4 -15 -10 18 26 -20 23 22 -19 -6 -11 -7 -3 -23 -22
right_child=4 17 11 -5 5 6 7 -9 13 24 -12 12 -14 15 -16 -17 -18 21 19 -21 28 27 -24 -25 -26 -27 -28 -29 -30
leaf_value=0 0.35189415825296727 -0.074749867229358141 -0.088975145301727537 1.0697689342978403 0 -0.080306047215264159 0.29794264464767334 0.055948508691345766 -0.0052971718956153361 -0.090447061542275276 -0.002889335461843388 0.94714318196802028 0 0.20010868115238872 0.26615283019261843 0 -0.092618351015184577 0 0 0.89688250884218512 -0.12019180310093526 0 -0.12634397360303981 0.14364417290121567 0.042631393249872765 0.029601764636763412 0 0.082937020863943653 0
leaf_weight=2.8922806307673445 17.637391492724422 6.5705493148416263 32.351478524506092 1.745154310017824 2.5981341935694244 13.028505414724352 35.191399648785591 26.025887973606586 137.87690483778715 11.196497313678263 6.277803346514701 1.5391207449138158 1.2772855870425699 15.710406377911569 2.9826149679720393 9.7279246114194375 60.707715194672346 5.9977228567004195 1.3184849508106711 1.1943191066384313 12.329878237098454 2.4974801652133456 141.6059054248035 4.3789060972630978 1.9148621410131443 4.3138290494680396 1.0179974175989626 1.5208054110407827 1.4751201607286919
leaf_count=47 265 148 662 31 31 238 368 232 2374 202 108 26 22 138 51 127 1388 129 31 23 184 49 3094 43 35 51 24 20 17
internal_value=-0.00522323 -0.0721204 0.0409014 0.446004 0.0313367 0.102505 0.146741 0.203317 0.00231802 0.12834 0.237633 0 0.447673 -0.0162553 -0.0446949 0.106588 -0.0345362 -0.105148 0.0159911 0.434541 -0.0403999 -0.116551 -0.12142 0.0304414 -0.0324696 -0.0238282 -0.0560226 0 -0.112808
internal_weight=564.902 204.511 42.7879 4.63743 360.391 99.3417 78.5596 61.2173 261.05 37.0266 23.9152 38.1505 2.81641 224.023 35.3341 25.4383 198.585 161.723 10.1014 2.5128 20.782 151.622 147.604 6.97704 13.1114 17.3423 7.58855 4.01829 13.805
internal_count=10158 4357 839 78 5801 1164 889 600 4637 610 373 761 48 4027 713 265 3762 3518 226 54 275 3292 3223 74 237 289 172 69 201
is_linear=0
shrinkage=0.219949


Tree=11
num_leaves=27
num_cat=0
split_feature=122 96 40 46 21 18 27 18 101 40 130 21 122 101 128 130 86 18 9 90 79 103 4 116 23 0
split_gain=26.6274 21.3036 20.1597 19.0826 22.894 18.9682 14.7388 18.8662 14.0259 13.5772 13.0143 12.9321 12.4651 11.9602 11.5905 10.5477 9.42566 9.04474 9.9115 5.58121 4.88312 3.05286 3.00168 2.1399 2.66623 1.44975
threshold=-0.45392017346887314 52.940704719881296 0.48139718900691653 0.05106259517065443 59.302660547648507 -0.0030280329176994854 -6.4002664762985377 -0.050705228551035868 0.016910485257220782 1.7153192496203944 -0.6830127018922193 42.424600195660453 -0.96413881993955519 0.026827825265231153 -1.0000000180025095e-35 0.93301270189221952 0.0085533881510164635 -0.067319469305999455 0.016500651031376549 11.254068480611091 -0.030122877868367561 0.0046961485503774084 -0.020723965601666536 2.1930735911037975 46.336756982995233 0.01273697724822412
decision_type=2 2 2 2 2 2 2 2 2 2 2 2 2 2 2 2 2 2 2 2 2 2 2 2 2 2
left_child=1 6 11 8 5 -5 7 12 10 -10 -4 -2 -1 16 -6 22 21 20 -19 -18 -8 -3 -15 24 -13 -9
right_child=2 13 3 4 14 -7 17 25 9 -11 -12 23 -14 15 -16 -17 19 18 -20 -21 -22 -23 -24 -25 -26 -27
leaf_value=0.013031484306968528 -0.050712555385514675 -0.11828844024112045 -0.065316972867220491 0.023087964364388265 0.056858447872673995 -0.060616291346630109 0 -0.18040073334075424 0.054514599754824471 -0.022255304022336914 0.021647882951043848 0.029936114633665859 -0.10889295556394618 0.21109724301115307 -0.0048445154452445936 -0.1274525837024989 -0.14142326867052046 -0.0092391361194256207 0.086210268734953147 -0.010662072929415206 0.17495253979382236 0.016712489543230343 0 0.0052622423011533968 0.21509729450429924 -0.026463746696404271
leaf_weight=139.93962466716766 12.614297747611998 9.8352937996387464 124.48041462898254 169.04891794919968 254.58701479434967 485.66093906760216 15.276133358478544 52.529280692338943 767.57724651694298 120.20673382282257 242.83176815509796 11.507266998291014 54.485484957695007 11.875295966863634 318.02580344676971 9.947573125362398 152.13384261727333 584.09420198202133 57.806717902421951 27.182895720005035 22.692013174295425 36.260795474052429 8.7107383608818036 9.6946911811828596 43.369394421577454 11.775731980800627
leaf_count=384 34 27 335 457 684 1310 41 148 2063 332 653 31 149 32 855 31 421 1581 156 74 61 99 24 26 117 33
internal_value=0.000215736 -0.026762 0.0130034 0.00934108 -0.0098555 -0.0382316 -0.0108021 -0.0556673 0.0285155 0.0435507 -0.00644835 0.124243 -0.0185374 -0.083315 0.0217065 0.0340061 -0.101449 0.00552849 0 -0.124419 0.109871 -0.00112974 0.136574 0.166248 0.185479 -0.16007
internal_weight=3754.15 1194.55 2559.6 2482.42 1227.32 654.71 938.599 258.73 1255.1 887.784 367.312 77.1857 194.425 255.946 572.613 30.5336 225.413 679.869 641.901 179.317 37.9681 46.0961 20.586 64.5714 54.8767 64.305
internal_count=10158 3261 6897 6689 3306 1767 2553 714 3383 2395 988 208 533 708 1539 87 621 1839 1737 495 102 126 56 174 148 181
is_linear=0
shrinkage=0.219949


Tree=12
num_leaves=14
num_cat=0
split_feature=86 18 123 123 130 121 119 121 130 48 3 47 105
split_gain=10.576 15.7228 10.491 17.5044 12.7374 11.6237 34.7438 17.6956 8.79919 7.93854 7.26016 6.97421 3.32787
threshold=0.15371664813499614 0.12487623224918588 6.6337020745567594 10.494563534555043 0.68301270189221941 0.0076153205547170753 1.0284882383540161 0.010147098352688325 -0.6830127018922193 9.0186467910395081 0.039159582698559965 0.07562756135032124 0.76704008506030652
decision_type=2 2 2 2 2 2 2 2 2 2 2 2 2
left_child=1 2 5 8 -5 6 -1 -7 -4 12 -11 -3 -2
right_child=9 11 3 4 -6 7 -8 -9 -10 10 -12 -13 -14
leaf_value=-0.0012184408917218057 -0.058815438305300213 0.21117538892976537 0.18329061148209322 -0.065674851051127484 0.085468973199102002 0.035793177972004354 -0.18102312746605648 -0.0074369098634158538 0.050842314296631039 -0.20302784964725218 0 0 0.11702720981407042
leaf_weight=229.48044289648533 10.303121507167818 24.971441507339478 32.397598445415497 105.53570857644081 34.11592373251915 565.6052431166172 69.528624594211578 2398.5982293486595 219.65262472629547 29.867596805095673 8.8244477212429029 10.516138553619383 9.1526229679584485
leaf_count=622 28 68 89 290 100 1518 191 6489 603 82 24 29 25
internal_value=0.000534798 0.00213523 0.000581702 0.0347101 -0.0251328 -0.00336007 -0.0447186 0.000641426 0.0698718 -0.0923473 -0.150804 0.147895 0
internal_weight=3748.55 3690.4 3654.91 391.702 139.652 3263.21 299.009 2964.2 252.05 58.1478 38.692 35.4876 19.4557
internal_count=10158 9999 9902 1082 390 8820 813 8007 692 159 106 97 53
is_linear=0
shrinkage=0.219949


Tree=13
num_leaves=26
num_cat=0
split_feature=48 38 110 30 128 40 39 111 130 120 41 75 123 101 101 79 43 101 18 78 101 48 44 121 76
split_gain=23.598 27.6532 16.4712 15.8485 11.2219 10.6674 15.7949 10.1825 6.64821 11.805 9.3531 6.5378 4.79201 4.68703 4.19237 4.05258 3.90113 3.84422 3.69691 7.69682 4.21245 2.27028 1.53868 1.22578 0.358157
threshold=8.8785325587795274 0.8135792275410022 0.3359309128657641 43.399561805174066 0.87837969732492682 1.1365085408525621 0.98517659923967649 0.29200509152566417 0.93301270189221952 -0.00089910086662477336 0.95895610212920512 -0.011962583976910031 1.2819610951605096 0.0091362443631164622 0.023238090644375764 -0.027389115970276899 0.24368526781156671 0.01259398974356985 0.10214873357325351 -0.0032659592551401401 0.0097375533023309636 9.0509571299143712 0.21100878562843287 0.0080971213784774582 0.032709684738247771
decision_type=2 2 2 2 2 2 2 2 2 2 2 2 2 2 2 2 2 2 2 2 2 2 2 2 2
left_child=8 4 3 17 11 13 -7 -5 16 10 -10 15 23 -6 -14 -2 22 -3 20 -20 -18 -13 -1 -4 -11
right_child=1 2 12 7 5 6 -8 -9 9 24 -12 21 14 -15 -16 -17 18 -19 19 -21 -22 -23 -24 -25 -26
leaf_value=0 0.14175015200434307 0.20742898241071694 0 0.20140965031822958 0.29062889641319289 0.72305100518862164 0 0.069839338566580797 0 -0.090113385338792151 0.56644476047964099 0 -0.022114194793844279 -0.048137833827606294 0.09131449844231164 -0.051758227669686914 0 -0.048759764514141123 0.57426964380138412 -0.023339002666694492 -0.12063569776466011 -0.12851767533978992 0.19598436938404909 -0.10701022312223536 0
leaf_weight=1.4615396391600364 7.921519227325919 2.6699308939278117 1.2151166498661066 67.255002859979868 2.2625505737960401 2.665460128337144 1.728613346815109 78.323770191520452 2.7136229481548062 8.0800148788839561 3.119740467518568 7.2116712331771842 33.86502505466342 15.371095240116118 24.23412062972784 13.766798660159109 13.518277620896695 34.019768949598074 1.1195046342909334 5.6565072461962691 125.28511972539127 79.32137193530798 2.2977812737226486 25.033537533134222 1.0215066112577904
leaf_count=32 141 27 14 985 20 31 31 974 47 173 23 163 587 295 271 309 282 550 20 128 2630 1911 32 459 23
internal_value=-0.00603322 0.022002 0.0635073 0.10104 -0.0590782 0.0717684 0.378494 0.134094 -0.0768392 0.0415559 0.306661 -0.0903807 -0.0116058 0 0.0165011 0 -0.0920634 -0.0163422 -0.0994783 0.000836984 -0.108016 -0.117775 0.0606498 -0.0930695 -0.0728381
internal_weight=561.139 396.865 266.616 182.268 130.249 22.0277 4.39407 145.579 164.274 14.9349 5.83336 108.221 84.3478 17.6336 58.0991 21.6883 149.339 36.6897 145.579 6.77601 138.803 86.533 3.75932 26.2487 9.10152
internal_count=10158 6768 3867 2536 2901 377 62 1959 3390 266 70 2524 1331 315 858 450 3124 577 3060 148 2912 2074 64 473 196
is_linear=0
shrinkage=0.219949


Tree=14
num_leaves=31
num_cat=0
split_feature=122 124 123 39 123 125 119 119 104 69 76 70 117 41 88 129 84 75 101 45 95 111 101 97 45 59 45 110 120 42
split_gain=15.0945 20.06 13.5001 16.5442 15.1337 15.0606 12.5924 12.1854 11.9538 9.59332 11.4652 8.6935 7.28059 8.87912 7.55619 6.87176 6.67186 7.02074 6.64726 11.5509 6.60323 6.4249 5.94417 6.38176 5.06846 4.70902 4.65076 3.92697 2.93088 4.96496
threshold=-0.33643886132163964 0.98060192823851333 6.6337020745567594 0.45193661960480913 10.494563534555043 1.0141880946081887 1.0038100846446953 1.1080864757629028 -0.63595508773475484 0.015538263800815086 0.017469649480041788 -0.010629556140932106 -0.47218023786285379 0.74573456409912275 -16.919229410384567 -0.56174490092936669 0.022386396008326589 0.0075456191681410644 0.01216413889765997 62.653921713582868 48.236280678654339 -0.62041651150807919 0.015830809088320567 0.02093017336518339 23.299037631637152 0.0061659977689516735 25.540285255770439 -0.76707683631263002 0.00010220816247481493 1.3095869201732058
decision_type=2 2 2 2 2 2 2 2 2 2 2 2 2 2 2 2 2 2 2 2 2 2 2 2 2 2 2 2 2 2
left_child=1 2 3 6 24 -6 -1 -5 11 12 25 22 13 -10 -14 28 26 -18 19 -17 -20 -12 27 -24 -4 -11 -13 -2 -3 -30
right_child=8 15 4 7 5 -7 -8 -9 9 10 21 16 14 -15 -16 18 17 -19 20 -21 -22 -23 23 -25 -26 -27 -28 -29 29 -31
leaf_value=-0.037176274916753682 -0.13883045652363227 -0.09969549075631455 0 -0.0017280172731905605 -0.09710557293764735 0.1091491008119591 0.16004855218966349 -0.17915536108786029 -0.081805717829540311 -0.063344702448562204 -0.032676319616280786 -0.11621361569073491 -0.026029198786378788 0.023030494200293919 0.04041077990590615 -0.11816762516997108 -0.12357536064443625 -0.027280344512113856 0 0.16464928495576656 -0.18868289962911841 0.072608218979869021 0.12843229421698604 0.0091737148995315095 -0.12475987270482776 -0.004973961951551204 0.0020192167789702771 0 0.094448923861939926 -0.083819690804155245
leaf_weight=16.955168962478638 13.703976839780806 13.548576861619948 10.966226905584334 959.65804448723793 29.1239914894104 39.203454256057739 52.907936125993729 19.281386911869049 59.342100322246552 131.46003839373589 30.781244903802872 16.980628341436386 80.065133988857269 104.51843693852425 1101.171630948782 23.086969122290611 67.352092832326889 122.5826064646244 10.969053640961645 9.2729669213294965 64.192592412233353 104.45509433746338 37.987476885318756 76.095279574394226 109.05025270581245 179.57064640522003 201.24057304859161 18.615644097328186 19.98434013128281 10.147570788860319
leaf_count=46 37 37 31 2615 85 108 142 56 160 355 83 47 218 282 2968 64 183 331 30 25 186 282 102 206 316 485 544 50 56 28
internal_value=0.000234428 -0.017804 -0.00811274 0.00115255 -0.06239 0.0138389 0.104951 -0.00573892 0.0111252 0.0199902 -0.00705259 -0.0165996 0.029338 -0.011852 0.0354796 -0.0937563 -0.0336626 -0.0640879 -0.124226 -0.0215077 -0.161727 0.0449076 0.0275185 0.0533144 -0.109999 -0.0312697 -0.00486533 -0.0479007 -0.00718441 0.0176421
internal_weight=3734.27 1388.35 1237.15 1048.8 188.344 68.3274 69.8631 978.939 2345.92 1791.36 446.267 554.558 1345.1 163.861 1181.24 151.202 408.156 189.935 107.522 32.3599 75.1616 135.236 146.402 114.083 120.016 311.031 218.221 32.3196 43.6805 30.1319
internal_count=10158 3825 3399 2859 540 193 188 2671 6333 4833 1205 1500 3628 442 3186 426 1105 514 305 89 216 365 395 308 347 840 591 87 121 84
is_linear=0
shrinkage=0.219949


Tree=15
num_leaves=31
num_cat=0
split_feature=124 41 10 14 10 18 116 112 91 13 125 40 101 44 23 12 10 91 12 48 91 100 10 30 101 44 116 121 49 101
split_gain=9.85576 25.2146 23.7803 26.8082 18.954 17.2287 19.2488 16.9296 14.3305 14.0595 19.6712 13.8461 12.5309 12.2496 12.0837 11.0816 9.76533 9.98365 9.96953 8.3822 6.46703 5.67886 6.41902 5.53501 5.56423 5.13329 4.925 3.79597 2.20232 0.735694
threshold=0.97462068790370993 1.144686138056431 0.063516646954402636 18.234567279927202 0.16153544409676227 -0.056654045748678376 0.28819584097881373 0.99233005944688557 17.668423358730699 -10.298591663216436 1.0174101628078771 0.79667104513035814 0.016211757423270197 1.0399356585466728 51.277692950799299 30.886336629548286 0.17656067308210091 2.8236932334530036 43.628656182099661 9.6978289342339554 16.037628071924743 0.025618936014102901 0.089978256790469016 52.155040493243078 0.019505499250005269 0.58436518683248362 -0.30230767667235509 0.015792561835230673 0.60123303249822746 0.014948545272208834
decision_type=2 2 2 2 2 2 2 2 2 2 2 2 2 2 2 2 2 2 2 2 2 2 2 2 2 2 2 2 2 2
left_child=2 4 3 9 7 12 -7 15 11 27 -11 -6 -5 23 -9 -2 17 26 -19 -10 29 22 -15 24 -4 -25 -3 -1 -23 -18
right_child=1 16 13 5 8 6 -8 14 19 10 -12 -13 -14 21 -16 -17 20 18 -20 -21 -22 28 -24 25 -26 -27 -28 -29 -30 -31
leaf_value=0.14464232313939812 0.094521295412215281 0.14744270947982313 -0.023589555266358659 -0.15432569409343955 -0.093813145795448138 0.043547291826227671 -0.016472462581952729 0.10979074293520429 0.10924156022620678 -0.17334992981745725 -0.036169282517306854 0.15478668044615926 -0.011459361407125857 -0.047518881752162019 -0.015810939657487089 0.004604133249063158 -0.018652502624970424 -0.12264360950805375 0.021459649104078209 -0.12888908502648333 0 0 0.061365715615486878 -0.10362480376920449 -0.13842359664790149 0 0 0 -0.16926865359566734 -0.18244129321821934
leaf_weight=19.705149501562119 183.70444670319557 12.89116659760475 38.45998677611351 33.703272640705109 9.2567683458328229 933.94152668118477 342.98580184578896 39.9071104824543 10.291155546903612 64.791972160339355 317.03892695903778 124.94496032595634 369.99767664074898 37.794920593500137 459.43077683448792 123.12037438154221 8.9657182991504651 65.14166048169136 27.804607808589935 18.047492206096649 10.412546455860136 8.7229006290435809 69.181597828865051 35.269560784101486 117.5073230266571 62.191942095756531 123.5488418340683 13.459039419889448 12.073728829622267 36.199379235506058
leaf_count=53 497 35 104 91 25 2541 929 109 28 175 860 347 1017 102 1249 333 25 179 76 50 29 24 187 96 319 169 338 37 34 100
internal_value=0.000667328 0.016681 -0.0072341 0.00172405 0.0338836 0.0143182 0.0270301 0.0192934 0.103138 -0.0480613 -0.0607707 0.133873 -0.0246385 -0.0578064 -0.00476078 0.060087 -0.040024 -0.0173866 -0.0740987 -0.0245799 -0.124362 0 0.0181728 -0.0858176 -0.113347 -0.0365775 0.0175433 0.0830283 -0.107291 -0.161117
internal_weight=3730.49 1253.67 2476.83 2095.62 968.703 1680.63 1276.93 806.163 162.54 414.995 381.831 134.202 403.701 381.202 499.338 306.825 284.964 229.386 92.9463 28.3386 55.5776 127.773 106.977 253.429 155.967 97.4615 136.44 33.1642 20.7966 45.1651
internal_count=10158 3420 6738 5703 2638 4578 3470 2188 450 1125 1035 372 1108 1035 1358 830 782 628 255 78 154 347 289 688 423 265 373 90 58 125
is_linear=0
shrinkage=0.219949


Tree=16
num_leaves=27
num_cat=0
split_feature=129 115 103 35 78 17 123 101 24 13 107 13 65 7 86 14 69 86 13 49 17 101 41 69 121 123
split_gain=19.0527 16.7855 12.6444 11.6102 9.15348 11.4639 8.71955 11.424 8.97509 10.4181 7.89179 5.62769 5.05262 4.87362 4.50441 9.48125 3.78537 3.33063 3.14877 2.39451 2.23969 2.21265 2.04432 1.66977 1.29966 1.24363
threshold=1.0000000180025095e-35 0.02387305292079565 0.013665658789304119 0.02165996957105332 -0.0226889400073816 -0.023701072589376922 0.72999239211468603 0.018517986224618393 29.141529394091226 20.092030115044938 1.0127104169369487 8.8716064950066329 -0.0044331638363921877 0.00055138491176087723 -0.074844372982427035 21.100119189785833 -0.030260113435134722 -0.097302082379052676 13.462748524867012 1.7860831794349277 0.018483940364592336 0.01154767215139642 1.5003983933147829 0.03253005604328215 0.031414545289763493 0.59278760631583716
decision_type=2 2 2 2 2 2 2 2 2 2 2 2 2 2 2 2 2 2 2 2 2 2 2 2 2 2
left_child=2 14 3 4 5 -1 7 -4 22 -10 18 16 -12 -6 15 -2 -3 -18 -5 24 -17 -21 -8 -9 -16 -13
right_child=1 11 6 10 13 -7 8 23 9 -11 12 25 -14 -15 19 20 17 -19 -20 21 -22 -23 -24 -25 -26 -27
leaf_value=0 0.54065083652532808 0 0.367645895367683 -0.11501021660199869 -0.040448866593566175 0.25390937226190974 -0.029874393659871414 -0.11569411788655322 0.16278078813749466 -0.031428991064073548 0.083212824638597957 0 -0.04806783082191983 0.13285186222140929 -0.11796710273739056 -0.09876622995948231 0 0.28233006205218597 0 0.26233682514667389 0.028659943431520767 -0.042707403823730533 0.072126346699647362 0 0 -0.094957587424247036
leaf_weight=9.878520745784046 1.4725228324532533 7.4771748222410723 2.8152018822729614 68.674472905695438 38.70076472684741 18.81613227725029 25.233717937022448 20.277502637356523 78.975165463984013 11.079080518335102 24.592132851481438 2.5718836765736324 32.090437516570091 9.7707378547638637 128.88850671797991 13.623641904443504 3.4069635942578342 9.9073187597095931 6.0698790773749343 1.4333064071834076 4.428587842732667 4.5968392305076122 14.681571274995802 7.2265739962458602 1.5216555967926968 7.1682928223162889
leaf_count=161 19 47 37 1336 675 252 405 320 892 161 407 29 641 201 3551 319 32 54 114 31 68 107 104 103 13 79
internal_value=-0.00594639 -0.0639494 0.0220084 -0.0116427 0.0528673 0.151487 0.0689532 -0.0247178 0.094693 0.133276 -0.0533642 0.0762903 0 0 -0.0946428 0 0.146376 0.217284 -0.100574 -0.108794 -0.0395131 0 0 -0.0832545 -0.115203 -0.0214337
internal_weight=555.379 186.497 368.882 208.593 77.1662 28.6947 160.289 30.3193 129.97 90.0542 131.427 30.5316 56.6826 48.4715 155.965 19.5248 20.7915 13.3143 74.7444 136.44 18.0522 6.03015 39.9153 27.5041 130.41 9.74018
internal_count=10158 4349 5809 3787 1289 413 2022 460 1562 1053 2498 241 1048 876 4108 406 133 86 1450 3702 387 138 509 423 3564 108
is_linear=0
shrinkage=0.219949


Tree=17
num_leaves=25
num_cat=0
split_feature=117 33 40 72 18 40 47 33 115 131 48 119 113 100 35 119 56 9 130 117 40 24 15 9
split_gain=8.72503 12.6845 12.6338 11.7704 9.99683 9.81642 9.79523 9.97921 17.4109 11.0578 8.83067 7.02864 6.58585 6.52857 6.45685 5.68385 5.64833 5.0568 5.04239 6.55596 4.85896 4.1139 2.8025 1.7837
threshold=6.0281850847078511 8.6871182054131406 1.7153192496203944 -0.021510634349316719 -0.043423350822480937 0.43094654462431209 0.083599288156277499 6.9202063965184699 0.014666209081939359 -0.5 8.0940810106336532 1.0140606334094817 1.0007567197400651 0.027129401055848105 0.10152174386157377 1.0786165638068599 0.847695077262134 -0.079645111348141548 0.93301270189221952 -0.41950090849231542 0.9091584037172401 82.782630640092222 14.107422074072403 -0.045508505553814298
decision_type=2 2 2 2 2 2 2 2 2 2 2 2 2 2 2 2 2 2 2 2 2 2 2 2
left_child=2 4 6 18 20 -6 7 8 -1 -9 14 17 -7 -12 -5 22 -8 -3 19 -4 -2 -17 -13 -19
right_child=1 11 3 10 5 12 16 9 -10 -11 13 15 -14 -15 -16 21 -18 23 -20 -21 -22 -23 -24 -25
leaf_value=0.012067895013174344 0.18651496503036269 0.041638494674510862 -0.046768196027357989 0.10479665664483448 0.074150901050862625 0 0.17241189872667073 0.019832150919586983 0.11287435356374625 -0.018517618790652318 0 0 -0.1460198051335008 -0.12236767628695043 -0.074527673813186007 -0.084186332503471559 0 -0.15980484389358088 -0.07979056656526852 0.10507732151180053 -0.0059344734155765879 0.080995359372705827 0.17009845285825007 0
leaf_weight=1425.5051177144051 8.6032837927341479 10.814313024282454 14.752620518207548 19.428880974650383 10.647448241710661 25.339919462800026 27.160937398672104 524.72237974405289 90.049980878829956 1140.8952222466469 16.029329761862755 11.696400210261343 99.690668448805809 117.59061372280121 17.994478911161423 15.55849674344063 11.058778077363966 16.178546190261841 14.12458288669586 43.590396851301193 8.4541197121143323 13.528140455484388 23.521359756588936 8.7825162112712878
leaf_count=3874 24 30 41 53 29 71 74 1427 243 3104 44 34 283 336 53 44 30 48 40 121 24 39 65 27
internal_value=8.28095e-05 -0.03922 0.00309811 -0.0449346 -0.0797556 -0.10124 0.00688821 0.0053918 0.018391 -0.00613283 -0.0771741 0.0175936 -0.120218 -0.10399 0.00506797 0.0647996 0.118217 -0.0531311 0.0241861 0.0580201 0.0615075 0 0.124397 -0.114435
internal_weight=3715.72 252.815 3462.9 243.511 152.735 135.678 3219.39 3181.17 1515.56 1665.62 171.043 100.08 125.031 133.62 37.4234 64.3044 38.2197 35.7754 72.4676 58.343 17.0574 29.0866 35.2178 24.9611
internal_count=10158 718 9440 688 431 383 8752 8648 4117 4531 486 287 354 380 106 182 104 105 202 162 48 83 99 75
is_linear=0
shrinkage=0.219949


Tree=18
num_leaves=28
num_cat=0
split_feature=117 123 46 68 119 98 115 117 16 117 116 46 122 9 124 116 119 115 93 103 7 96 31 112 31 84 95
split_gain=8.56897 8.61226 10.0988 7.50088 11.8345 10.2207 11.5591 9.93179 8.54693 8.4073 7.26381 8.47148 9.3291 6.15653 7.08724 5.81465 5.43935 9.75448 5.29227 5.26931 5.16172 4.2878 3.89939 2.95596 2.9114 1.91595 0.286742
threshold=6.297523307271053 11.396886044710483 -0.0077360636190540923 -0.0048371986511829357 1.0073737750338634 0.013359041026634403 0.014666209081939359 2.3062231631069929 25.102277902861832 5.5499446834985511 0.93166502572808396 0.030780640852612947 -0.43546578482943238 -0.017775577419577689 0.92232708415164522 -0.37908376631962476 1.0237079035942069 0.012211058621680898 39.082334940991593 0.0038926883442790975 0.035459099820814861 37.46734206253462 0.012789330340939688 0.99426974996392181 0.0097375533023309636 -0.066380881996484231 58.515981782610616
decision_type=2 2 2 2 2 2 2 2 2 2 2 2 2 2 2 2 2 2 2 2 2 2 2 2 2 2 2
left_child=3 2 16 10 7 8 -7 18 -6 -9 11 12 -1 14 -12 -13 17 -2 -5 -15 21 -4 24 -18 -3 -24 -27
right_child=1 22 20 4 5 6 -8 9 -10 -11 13 15 -14 19 -16 -17 23 -19 -20 -21 -22 -23 25 -25 -26 26 -28
leaf_value=0.0043515845105116498 -0.057892120952046718 -0.021364281254320515 0 0.089724466582018866 -0.052765198627002546 0.021094913049620599 -0.016912003447246353 0.13702940382007497 0.067170583373966239 -0.055758463708577913 -0.0077357275653905646 -0.020601214567619996 -0.045869859480792342 0.081572506960255226 -0.21609453570445736 0.03172641277083784 -0.17683124429990144 0.12263134339029519 0 -0.051192709994383051 -0.0018050863413563057 0.14011203852134738 0 0 0.13151642649983278 -0.18729456234797115 -0.018162182599053566
leaf_weight=286.48743411898613 22.602977007627487 8.8014472275972384 9.6678054183721525 40.640204578638077 259.09739156067371 981.73057745397091 627.55901610851288 76.081551671028137 28.828925877809525 8.7380083501338941 19.697860032320023 143.54136282205582 411.85189753770828 15.122880727052687 24.373295783996582 303.32990109920502 10.505580335855486 31.504050552845001 174.37653169035912 84.508936107158661 9.4736861288547498 86.699031367897987 9.2781867980957049 8.7017699778079969 8.5193092823028547 9.7513517588377017 9.065166234970091
leaf_count=782 63 24 28 110 713 2661 1737 210 80 24 54 392 1120 41 66 825 29 90 473 232 26 245 28 24 24 28 29
internal_value=0.000456598 0.0422101 0.0649755 -0.00208826 0.00555784 -0.00059734 0.00595971 0.0461902 -0.0390014 0.111211 -0.0155137 -0.00914516 -0.0245433 -0.0627497 -0.134434 0.0137872 0 0.0378789 0.0181906 -0.0259684 0.108453 0.124537 -0.0364673 -0.0982754 0.0246567 -0.0921378 -0.132669
internal_weight=3710.54 224.57 179.155 3485.97 2197.05 1897.22 1609.29 299.836 287.926 84.8196 1288.91 1145.21 698.339 143.703 44.0712 446.871 73.3144 54.107 215.017 99.6318 105.841 96.3668 45.4155 19.2074 17.3208 28.0947 18.8165
internal_count=10158 638 505 9520 6008 5191 4398 817 793 234 3512 3119 1902 393 120 1217 206 153 583 273 299 273 133 53 48 85 57
is_linear=0
shrinkage=0.219949


Tree=19
num_leaves=26
num_cat=0
split_feature=130 125 13 46 39 107 34 34 29 125 18 101 37 66 39 37 1 31 30 101 120 96 91 42 117
split_gain=13.6053 19.4545 29.7644 23.9243 10.7055 8.87604 13.3702 8.17288 8.12795 7.65385 8.62965 7.26092 13.1237 10.9362 6.91895 5.54789 5.5364 5.43772 3.68185 3.02529 2.55485 2.5202 2.51718 1.2616 0.408578
threshold=0.93301270189221952 1.0729409781701069 3.9800766054668988 0.0045535468140965518 1.5928375815012144 1.0069028712779655 -0.014446264048736666 -0.030261875301870685 -109.5949434894864 1.0803093855840684 0.066262413650580623 0.010503785852455807 1.7986119534773353 0.0056165955319033628 0.89492734379357486 6.7241795809930478 0.027440637271521042 0.0082457940590977656 55.742364397405332 0.0086656527191240531 0.0032246908326999638 52.940704719881296 -0.30584225358122547 -1.4332464734564418 7.8243285293444123
decision_type=2 2 2 2 2 2 2 2 2 2 2 2 2 2 2 2 2 2 2 2 2 2 2 2 2
left_child=5 2 4 -4 22 8 9 -5 11 14 -11 12 -1 -13 -7 19 17 -8 -17 -10 23 -18 -2 -3 -22
right_child=1 20 3 7 -6 6 16 -9 15 10 -12 13 -14 -15 -16 18 21 -19 -20 -21 24 -23 -24 -25 -26
leaf_value=-0.007501027202941114 -0.097064371006334957 0 0 0.24270510158296091 0.306557894719652 0.096105733197960772 0.19869899047046233 1.1939145211470483 0 0.14050319825276297 -0.0070098949230913326 -0.079069386809006909 0.43565801029907036 0.13059456278518172 -0.027118176587256619 0 -0.024226541584434907 -0.1150383278492312 0.22331014755430864 -0.10393078414635626 0 0.11027230873166019 0.060071632983210589 -0.12378411119410149 0.12201854494774293
leaf_weight=3.4242134764790517 8.8699810970574653 1.7378971967846215 1.972012748941778 2.4780381694436069 6.9911137074232093 29.467408629134297 1.6619273517280806 2.879809465259314 9.3905085362493974 55.675921214744449 19.814091831445694 43.441406574100256 5.1374762393534184 15.831261925399302 85.058527205139399 10.567723667249082 12.14207758381963 61.055931800976396 3.7487910147756329 127.68645212426782 1.8895824849605554 9.7188837341964227 10.586603745818138 15.363481650128959 1.7022095620632169
leaf_count=76 170 39 23 26 34 582 27 38 170 750 384 818 40 281 1254 119 207 1488 32 2956 46 165 139 289 5
internal_value=-0.00585334 0.0970388 0.203421 0.606747 0.0725289 -0.0182261 0.00651093 0.848318 -0.0515157 0.0405429 0.095091 0.00501017 0.199401 -0.0145438 0.000174899 -0.080181 -0.063971 -0.0986667 0.0248431 -0.0948365 -0.0521885 0.0124533 0 -0.100978 0.0394172
internal_weight=548.293 54.4707 33.7776 7.32986 26.4477 493.823 274.595 5.35785 219.228 190.016 75.49 67.8344 8.56169 59.2727 114.526 151.393 84.5788 62.7179 14.3165 137.077 20.6932 21.861 19.4566 17.1014 3.59179
internal_count=10158 809 430 87 343 9349 4857 64 4492 2970 1134 1215 116 1099 1836 3277 1887 1515 151 3126 379 372 309 328 51
is_linear=0
shrinkage=0.219949


Tree=20
num_leaves=22
num_cat=0
split_feature=85 14 46 121 117 112 121 13 18 86 11 18 85 119 43 14 13 116 104 117 116
split_gain=10.2436 7.93352 11.3933 19.4805 18.8079 18.0851 13.6069 12.2991 9.89507 8.37112 8.70773 7.5629 12.9881 11.0165 6.1536 4.89997 3.95699 2.87576 3.62392 2.23636 0.252517
threshold=-0.14811993734818568 44.381219710529443 0.0563119554974204 0.010414580381101168 0.83914775150834975 0.99352776954824917 0.0084361255708879264 -12.452707247984852 -0.0059907329039760029 -0.12431972371429804 -74.858118845737167 0.080368564897247877 0.10560560567156067 1.0140606334094817 0.69241253630764477 50.095242097785018 -16.919229410384567 0.23013237865782468 -0.71203639226298077 1.0281990769608089 -1.2067012150293122
decision_type=2 2 2 2 2 2 2 2 2 2 2 2 2 2 2 2 2 2 2 2 2
left_child=14 2 3 4 -2 8 -7 -5 -4 10 15 13 -13 -11 16 -3 -1 18 -16 -20 -18
right_child=1 9 5 7 -6 6 -8 -9 -10 11 -12 12 -14 -15 17 -17 20 -19 19 -21 -22
leaf_value=0 0.020073009859318806 0.13035791759135246 0 -0.013496117626238913 -0.05930259159213442 0.080317993583501918 -0.0037193593168947953 0.036199697479266095 -0.055098201444810493 -0.0023585128778870665 -0.20295998622289491 -0.1115017287518274 0.056695930727933296 0.099993583827466981 0.032331018082298039 -0.066684903384288244 -0.013792181945667684 0.073543800870200779 -0.17072925417161219 0 -0.18622434614192906
leaf_weight=6.7246120423078528 249.86637882888317 10.587771117687227 199.91847357153893 297.65073499083519 321.2192674279213 111.70131132006645 510.22432115674019 1026.7736223042011 545.57535085082054 61.356778472661972 13.409802556037901 35.183741807937622 59.397353410720825 156.96938291192055 8.3442860841751116 12.848747313022612 7.2721809297800055 11.956057310104368 11.98933067917824 9.1733566224575025 28.215669572353363
leaf_count=20 676 29 549 824 889 308 1401 2800 1502 172 38 98 164 427 23 35 24 33 35 28 83
internal_value=0.000273183 0.00217144 -0.00105326 0.00981944 -0.0236886 -0.0164945 0.0105617 0.0246495 -0.0397439 0.0337002 -0.059661 0.046309 -0.000530043 0.0689147 -0.0756443 0.000770449 -0.135606 -0.00241049 -0.0503131 -0.106778 -0.16513
internal_weight=3696.36 3612.68 3262.93 1895.51 571.086 1367.42 621.926 1324.42 745.494 349.754 36.8463 312.907 94.5811 218.326 83.6755 23.4365 42.2125 41.463 29.507 21.1627 35.4879
internal_count=10158 9912 8949 5189 1565 3760 1709 3624 2051 963 102 861 262 599 246 64 127 119 86 63 107
is_linear=0
shrinkage=0.219949


Tree=21
num_leaves=28
num_cat=0
split_feature=29 42 12 131 89 85 38 5 101 101 46 39 48 97 131 121 121 103 93 131 110 48 13 131 116 18 121
split_gain=7.66955 14.4432 9.99259 15.4067 13.6652 12.5585 10.2983 9.33708 11.5049 9.27499 10.0036 8.54515 7.9525 7.89822 7.2095 13.4427 6.69496 6.03833 5.63873 5.46921 4.73226 3.8147 3.5503 3.08784 5.87145 3.28626 2.16358
threshold=107.94471161318712 1.7272508652039138 10.889278767755 0.93301270189221952 -10.298591663216436 0.099592890453672575 0.62313547210439169 0.059415696790584289 0.013944112728042758 0.019642090261614044 0.18409712787412871 0.80532861709183357 10.438476878718408 0.019924080214969792 0.25000000000000017 0.0095360469689320677 0.024679973754663301 0.010976404926687567 43.54052429998503 0.93301270189221952 1.2500204401839847 10.713099344899002 24.439721933688038 -0.68301270189221952 0.44036864558058092 -0.0030280329176994854 0.010613926078033674
decision_type=2 2 2 2 2 2 2 2 2 2 2 2 2 2 2 2 2 2 2 2 2 2 2 2 2 2 2
left_child=1 2 4 5 13 -4 -6 8 14 12 16 -5 22 -1 15 -2 -11 -16 -10 -20 -12 23 -9 24 -3 -25 -14
right_child=7 21 3 11 6 -7 -8 9 18 10 20 -13 26 -15 17 -17 -18 -19 19 -21 -22 -23 -24 25 -26 -27 -28
leaf_value=0.078164707467911279 0.11660915569703401 0.05283599937213599 0.021774737123011079 0 0.0037075565081931259 -0.049523514475150181 -0.032653837555459211 -0.026831304346773267 -0.085939311006833288 -0.048557641547485757 0.12603745187296017 0.15268625336192887 -0.014434433543747583 0.0061866518841302122 -0.12848995514685738 -0.14213608988765458 0.13187038857549041 0.0070091337947832425 0.05852990964985131 0.17650372242106468 -0.0018848281788737668 0.008580964663620334 0.11384885006041835 -0.14659041634057052 -0.15501287114210205 -0.048862494525386282 -0.15691492442578298
leaf_weight=104.80841910839081 34.619174897670746 19.09096068143845 666.34082770347595 25.36867293715477 571.39987398684025 143.02770894765854 988.96196430921555 59.731136292219162 8.6592634320259076 69.407480299472809 49.722612768411636 60.491305261850357 16.054452389478683 314.14476317167282 36.560566157102585 12.264916777610777 10.724187970161436 16.630878865718842 269.91807189583778 26.447372496128082 9.1017082631587964 14.927184060215948 9.933162569999693 51.480702489614487 9.6027407050132734 56.71139557659626 34.63297963142395
leaf_count=287 96 53 1831 70 1573 402 2713 165 24 193 137 167 44 867 104 33 30 46 735 72 25 43 27 141 26 155 99
internal_value=0.000422559 -0.0041353 -0.000466184 0.0186295 -0.00935831 0.00855088 -0.0190145 0.021944 0.043038 -0.00906092 0.0272633 0.107751 -0.0551991 0.0253994 -0.0178082 0.0381423 -0.0181039 -0.0766245 0.0646577 0.070763 0.0976539 -0.0702803 0 -0.0825717 0 -0.100035 -0.121756
internal_weight=3690.76 3026.36 2874.54 895.229 1979.32 809.369 1560.36 664.408 405.1 259.308 138.956 85.86 120.352 418.953 100.076 46.8841 80.1317 53.1914 305.025 296.365 58.8243 151.813 69.6643 136.886 28.6937 108.192 50.6874
internal_count=10158 8328 7910 2470 5440 2233 4286 1830 1110 720 385 237 335 1154 279 129 223 150 831 807 162 418 192 375 79 296 143
is_linear=0
shrinkage=0.219949


Tree=22
num_leaves=23
num_cat=0
split_feature=48 38 110 34 23 40 77 31 10 12 82 58 15 130 7 10 130 43 29 97 113 45
split_gain=15.773 12.8599 9.25781 13.4254 11.5406 10.1034 8.52195 5.34317 5.43692 5.26583 9.19523 4.42603 4.33453 4.1052 6.82452 3.96043 3.44941 2.49339 2.51709 2.11871 1.60719 0.676149
threshold=8.6310862993621367 0.8135792275410022 0.26988853460162288 -0.040105684520416622 25.761393778635178 1.6722821359927911 -0.014658166190858305 0.0082457940590977656 -0.0074274980948256788 -6.4766213879158476 -0.013393139048417929 -0.0027032865898440951 25.164413533171029 0.93301270189221952 -0.015234726082881676 0.24836783284214328 0.93301270189221952 0.30787178186267433 173.29946811516626 0.055848622093013355 1.0128854712368951 30.193339273120774
decision_type=2 2 2 2 2 2 2 2 2 2 2 2 2 2 2 2 2 2 2 2 2 2
left_child=13 6 3 5 -5 -3 9 8 -8 20 -11 19 -13 15 -15 17 -9 21 -19 -4 -2 -1
right_child=1 2 11 4 -6 -7 7 16 -10 10 -12 12 -14 14 -16 -17 -18 18 -20 -21 -22 -23
leaf_value=0.12220575496372284 -0.10707746157396406 -0.008861486885176257 -0.09826697277941468 0.69082990848116488 0.12219691033699448 0.12444644937704331 0 -0.11106651263689014 0.42976317783356144 0.21727815317786447 -0.0078796206457695979 0.087659487405769412 -0.028584506757982079 0.23060450046467701 -0.082247172193474674 0.10650631968106017 0 -0.11861664087303452 0 0 0 -0.015111180802916626
leaf_weight=2.1093818172812453 10.913247859105466 99.789404323324561 32.674683697521687 2.2584603466093531 63.752284420654178 35.397706281393766 1.8995549827814104 78.871425598859787 1.7333039361983527 14.734967622905968 12.148908449336888 26.681061973795295 28.588090820237994 5.3293716087937355 7.1312313899397832 2.27538838982582 6.7739683706313363 93.278782224282622 3.697157770395278 3.9502840042114249 1.7220935709774483 5.2755878865718842
leaf_count=33 233 1452 558 32 849 247 46 2358 15 208 235 388 526 47 166 44 130 2322 92 22 34 121
internal_value=-0.00572669 0.0132115 0.0395782 0.0664864 0.14931 0.0223063 -0.0428652 -0.0823018 0.125426 0.0334393 0.0967325 -0.0138369 0.0183889 -0.0770564 0.0110063 -0.0920856 -0.0970138 -0.101258 -0.110805 -0.0762649 -0.0612338 0
internal_weight=540.986 421.889 293.092 201.198 66.0107 135.187 128.797 89.2783 3.63286 39.5192 26.8839 91.8941 55.2692 119.097 12.4606 106.636 85.6454 104.361 96.9759 36.625 12.6353 7.38497
internal_count=10158 7333 4074 2580 881 1699 3259 2549 61 710 443 1494 914 2825 213 2612 2488 2568 2414 580 267 154
is_linear=0
shrinkage=0.219949


Tree=23
num_leaves=29
num_cat=0
split_feature=122 124 14 120 123 7 33 37 14 130 41 5 117 122 11 110 106 13 122 9 117 37 9 14 90 33 123 122
split_gain=7.87073 13.725 9.31753 10.4056 23.1152 9.33535 7.94003 16.1515 11.8841 23.9542 24.8413 21.9263 12.5316 10.9898 10.5802 9.57747 8.67292 8.60302 7.19382 17.7237 6.4567 6.22805 5.64396 9.19163 5.00859 5.97583 3.32008 0.666119
threshold=-0.35351062220738166 0.98060192823851333 20.89752798988204 -0.0016070006149475873 2.4998610468822435 -0.05093661061780546 6.3723916346804961 4.1018878210668666 28.978757984409139 -0.24999999999999994 0.77302178468684801 -0.020542691934290626 -0.41950090849231542 -0.033517173018333617 12.311104029473542 -0.818998427281033 0.99514701340541301 -9.0738360021553728 -1.1750451194227871 0.072054557932916388 4.6110691829737043 7.4408184406572095 -0.039686878019898945 28.166752639068999 5.3802278024986281 8.0334176233335075 1.1199280178258759 0.093059894968971865
decision_type=2 2 2 2 2 2 2 2 2 2 2 2 2 2 2 2 2 2 2 2 2 2 2 2 2 2 2 2
left_child=1 2 5 21 -5 -1 7 14 9 10 -8 -11 17 -14 15 -2 -16 -10 19 -3 -7 -4 27 -24 26 -26 -20 -9
right_child=6 18 3 4 -6 20 8 22 12 11 -12 -13 13 -15 16 -17 -18 -19 24 -21 -22 -23 23 -25 25 -27 -28 -29
leaf_value=-0.16418448650538026 -0.030706812056880063 0.16906682262425332 0.015734550290869998 0.017415833890496914 -0.087230200482752915 0.045681618745876701 -0.068344201491874701 -0.055300156186222367 0.037836566331142622 0.021417601545127951 0.062619111349974499 -0.087785796261804341 0.083497459193592291 0.012032205190432755 -0.068977026875287048 0.042853556080668119 0.010728729347433271 -0.10743171196379009 0 -0.14561244755988531 -0.038423240870735176 -0.061149150288804729 0.15378531961470596 0 0.10799882396252308 -0.12576590587065231 -0.14880404462319588 0.022728623522305931
leaf_weight=11.358219683170317 97.071928054094315 16.867190062999725 383.495914041996 165.47786299884319 240.67532902956009 288.80755938589573 97.844722509384155 8.9330325722694415 23.436603188514709 116.24651843309402 230.86661434173584 304.33614248037338 146.94337379932404 439.26800298690796 117.2795547246933 458.39073672890663 131.20946899056435 58.328699111938477 9.1670386642217618 17.69975258409977 45.593923062086105 57.62336453795433 81.151544272899628 25.179500252008438 10.212835118174555 10.745917513966559 72.819366693496704 9.4970395267009717
leaf_count=32 267 47 1061 451 697 790 267 24 64 317 625 834 404 1211 319 1246 358 162 26 63 133 173 220 69 28 32 212 26
internal_value=0.000281015 -0.0130884 -0.00505039 -0.0178176 -0.0433504 0.0247737 0.00807902 0.0239305 -0.0019516 -0.0212891 0.022099 -0.0564011 0.0189835 0.0308082 0.0117864 0.0290885 -0.0248564 -0.0596127 -0.0791502 0 0.0327032 0.00454563 0.0981356 0.117761 -0.108393 0 -0.133071 0
internal_weight=3676.53 1330.54 1193.03 847.272 406.153 345.76 2345.98 928.713 1417.27 749.294 328.711 420.583 667.977 586.211 803.952 555.463 248.489 81.7653 137.512 34.5669 334.401 441.119 124.761 106.331 102.945 20.9588 81.9864 18.4301
internal_count=10158 3745 3337 2382 1148 955 6413 2529 3884 2043 892 1151 1841 1615 2190 1513 677 226 408 110 923 1234 339 289 298 60 238 50
is_linear=0
shrinkage=0.219949


Tree=24
num_leaves=24
num_cat=0
split_feature=95 36 121 108 39 130 121 110 11 84 18 48 111 39 128 107 18 121 125 30 28 24 130
split_gain=6.17998 7.44518 17.2956 14.6105 13.6887 10.3289 9.6805 9.13528 12.1679 10.8769 10.2565 9.49298 8.81567 8.47596 7.05577 5.08465 5.0839 8.40405 4.55268 4.20962 2.14485 1.72112 1.50309
threshold=74.675063280588503 1.0254256396707404 0.0076153205547170753 0.0066730610526487396 0.45193661960480913 0.25000000000000011 0.019815036554166107 -0.58435269954423041 -63.169045141967665 -0.00084529292892288673 -0.061596658717300405 8.312561765940341 1.6251207016270086 1.3712510509936291 -1.0000000180025095e-35 1.0187983407555319 0.080368564897247877 0.013923240746064257 1.091180181597031 63.085099274473748 -19.385978992593383 88.490865236464813 -0.6830127018922193
decision_type=2 2 2 2 2 2 2 2 2 2 2 2 2 2 2 2 2 2 2 2 2 2 2
left_child=1 7 4 6 12 -5 -4 9 10 15 -9 -10 -3 -11 19 -1 18 -18 -16 22 -20 -6 -2
right_child=14 2 3 5 21 -7 -8 8 11 13 -12 -13 -14 -15 16 -17 17 -19 20 -21 -22 -23 -24
leaf_value=0.0064389004456599118 -0.00090525301064311634 0.19621913511284336 0.037740521026804238 -0.062630018774017401 -0.16809542266070168 0.047392259570386522 0.14254179428166944 0 0.011766329271778224 0.063444340670873928 0.11199145279982807 -0.02769545973740049 -0.062858384931208836 -0.025890544873168761 0.050561859950914737 -0.044962503297207128 0.20658842538944111 -0.01268656383612133 -0.14063291700063058 0 0 0 -0.18122224338545914
leaf_weight=492.56544953584671 8.8911865651607496 11.226011574268343 529.7135805785656 116.85492494702339 41.269161760807037 59.115017145872116 51.585315525531769 104.65922892093658 364.54422414302826 269.84201729297638 64.250323116779327 1260.7994876950979 10.689323872327803 54.50325420498848 8.7539712786674482 113.20390409231186 12.507488250732424 14.994439721107481 21.130376100540161 10.849952489137648 8.9062376320362109 8.0696133077144605 27.396788865327835
leaf_count=1363 25 31 1447 326 122 167 151 295 1008 757 177 3465 31 155 24 319 35 44 59 31 25 24 80
internal_value=0.000487246 0.00223708 0.0205779 0.0308121 -0.0810965 -0.0227976 0.0479101 -0.00315516 -0.0124767 0.0142833 0.0428163 -0.0185338 0.0467948 0.0468744 -0.0498662 -0.0023326 0 0.068663 -0.0547515 -0.115 -0.102269 -0.148146 -0.150967
internal_weight=3666.32 3552.89 828.523 757.269 71.2541 175.97 581.299 2724.37 1794.25 930.115 168.91 1625.34 21.9153 324.345 113.43 605.769 66.2925 27.5019 38.7906 47.1379 30.0366 49.3388 36.288
internal_count=10161 9838 2299 2091 208 493 1598 7539 4945 2594 472 4473 62 912 323 1682 187 79 108 136 84 146 105
is_linear=0
shrinkage=0.219949


Tree=25
num_leaves=28
num_cat=0
split_feature=41 128 129 121 128 110 131 125 120 41 131 46 120 24 36 130 7 46 89 41 19 97 97 130 0 32 56
split_gain=13.5599 7.6543 6.46764 8.24637 5.01388 4.49732 5.99948 7.88224 4.19463 3.46089 3.27235 6.02499 3.26604 3.09883 2.88155 3.071 3.56477 2.8571 2.57027 2.48924 1.6209 1.57915 1.41443 1.16927 0.993024 0.528562 0.33135
threshold=0.71199819380343865 0.87837969732492682 1.0000000180025095e-35 0.021176488756203028 0.6078576107927941 0.56321262887143153 -0.68301270189221952 1.140127153899241 -0.0033021098552812752 0.87627279261238766 -0.9330127018922193 0.048489191125475666 -0.0054132656435943076 73.478393398810184 0.24243087479561379 -0.24999999999999994 -0.015234726082881676 -0.11481695682693542 -15.98680810484627 1.1674471839914868 61.538984389692487 0.018359137739408303 0.01796665637873953 0.68301270189221941 0.036387443592037348 1.1010287832478245 0.49611333747987701
decision_type=2 2 2 2 2 2 2 2 2 2 2 2 2 2 2 2 2 2 2 2 2 2 2 2 2 2 2
left_child=1 8 5 4 24 6 17 -8 23 -6 11 -7 26 -14 15 -3 -17 -2 22 -12 -16 -22 -10 -1 -4 -20 -5
right_child=2 14 3 12 9 10 7 -9 18 -11 19 -13 13 -15 20 16 -18 -19 25 -21 21 -23 -24 -25 -26 -27 -28
leaf_value=0 0.07726246509482658 0 -0.11909430058670128 -0.062076409261558316 0.11618227024879106 0.49873412325323641 0.044087238425768498 0.19716544407989198 0.20323249433971169 -0.038730815851539077 -0.081218443652867664 0 0.1615900668267663 0 -0.096212667160189405 0 0.31856826773551367 -0.049320748321712224 -0.12481755271662592 0 0.18830296748608025 0 -0.030184691312046374 0.15225663780379795 0 0 0
leaf_weight=2.959525564685463 9.1038239262998086 3.0980614982545367 46.371534764766693 4.1595925837755221 8.4859219267964345 1.5858725868165482 156.46953611634672 21.676374452188611 1.5658426815643895 35.251285508275032 28.520504061132669 2.4252089001238346 16.706187531352047 3.3560746014118186 8.507278857752679 3.3885192833840838 4.647017095237973 38.685403916984797 84.296688861213624 34.107068929821253 2.2352625373750916 2.0326599292457104 4.1065974393859506 2.5890152100473642 2.2074153497815123 1.2825385201722372 4.0615190714597702
leaf_count=37 108 55 1351 29 227 31 2175 283 12 888 671 59 121 51 163 38 32 566 2489 479 27 43 90 30 33 45 28
internal_value=-0.00547266 -0.0709733 0.0124404 -0.0282853 -0.063061 0.0309548 0.0463537 0.0655503 -0.0997886 0 -0.0136709 0.16028 0.0673543 0.119462 0.0245558 0.116306 0.192952 -0.0146321 -0.112912 -0.0328814 -0.0158499 0.0259365 0 0.0249641 -0.112027 -0.122667 0
internal_weight=533.882 120.709 413.173 120.6 92.3162 292.574 225.935 178.146 96.8002 43.7372 66.6387 4.01108 28.2834 20.0623 23.9088 11.1336 8.03554 47.7892 91.2517 62.6276 12.7752 4.26792 5.67244 5.54854 48.579 85.5792 8.22111
internal_count=10161 3061 7100 2728 2499 4372 3132 2458 2703 1115 1240 90 229 172 358 125 70 674 2636 1150 233 70 102 67 1384 2534 57
is_linear=0
shrinkage=0.219949


Tree=26
num_leaves=20
num_cat=0
split_feature=85 40 131 121 121 121 46 131 19 29 30 46 31 112 118 19 20 130 90
split_gain=7.21733 6.10779 15.0524 16.1065 7.2279 20.6993 17.9261 16.6637 25.9354 15.8124 11.6741 6.4058 6.08141 4.77242 3.72418 2.4762 2.20407 2.20168 3.21154
threshold=-0.14811993734818568 0.48139718900691653 0.25000000000000017 0.0053763578124910701 0.010316249137035499 0.010862785447252648 0.05106259517065443 0.25000000000000017 39.282397247373034 43.877554586325964 57.226243059557198 -0.14985517261390852 0.010503785852455807 0.95760648997906117 0.9500334980133025 57.421737490168589 66.658775374165657 1.0000000180025095e-35 -15.3207606508397
decision_type=2 2 2 2 2 2 2 2 2 2 2 2 2 2 2 2 2 2 2
left_child=13 2 3 11 7 10 -7 9 -9 -3 -6 -2 16 17 -15 -5 -4 -1 -19
right_child=1 4 12 15 5 6 -8 8 -10 -11 -12 -13 -14 14 -16 -17 -18 18 -20
leaf_value=0.066092718562668837 0.08846410457947726 -0.016933453072470205 0.23698593857431041 0.20311469559173931 0.037084185903014426 0.017618278981395397 -0.020759227644924945 -0.084954635262302541 0.041816844612014632 -0.10939175094542748 0.16979229439622703 -0.088560919075790098 0 -0.15722038766033797 0 0 0.021811478640187638 -0.12381344988595548 0
leaf_weight=11.831271909177302 9.0872640311717969 292.160440325737 25.492369681596756 16.111074030399326 126.10789009928703 1314.6582617238164 1065.7038993760943 99.993397802114487 340.37087002396584 141.02566009759903 51.329588919878006 60.318027637898922 12.557913959026335 30.300533019006252 9.097260117530821 8.2973241209983808 8.6337445974349958 13.711280226707457 15.843121066689493
leaf_count=34 26 819 71 45 347 3629 2981 278 934 387 138 174 36 96 26 24 26 44 46
internal_value=0.000172482 0.00178067 0.04673 0 0 0.00583947 0.000224119 -0.0173331 0.0118833 -0.0482003 0.0783225 -0.0581017 0.148897 -0.0646781 -0.120157 0.149411 0.197356 0 -0.0430716
internal_weight=3652.63 3571.85 140.498 93.8137 3431.35 2557.8 2380.36 873.55 440.364 433.186 177.437 69.4053 46.684 80.7835 39.3978 24.4084 34.1261 41.3857 29.5544
internal_count=10161 9915 402 269 9513 7095 6610 2418 1212 1206 485 200 133 246 122 69 97 124 90
is_linear=0
shrinkage=0.219949


Tree=27
num_leaves=25
num_cat=0
split_feature=103 104 95 10 85 117 85 121 110 14 88 36 100 121 80 66 117 123 22 83 1 45 81 45
split_gain=5.80056 7.11353 8.65612 8.50509 7.99334 7.65399 7.89748 7.25452 7.22378 7.11145 6.99691 6.01051 5.13284 4.90751 4.8123 4.90867 5.50751 5.10112 3.8982 3.41207 3.30775 2.73154 2.35416 1.08819
threshold=0.02278145911415104 -0.73950942129000452 55.50786283423183 0.049471612399473959 -0.040714830174290409 6.0281850847078511 -0.14811993734818568 0.009845868781657786 -0.68453896238130085 30.466823719537661 -11.291174692522555 1.5628394082692505 0.019062394655622247 0.0058428286072397112 0.058467630588590142 -0.0058795345897800153 0.71944703050326819 1.8755848615687072 -3.9814134294677532 0.078083732305740727 -0.001484430922938628 74.597850744259617 -0.057638401494374186 81.124505644044888
decision_type=2 2 2 2 2 2 2 2 2 2 2 2 2 2 2 2 2 2 2 2 2 2 2 2
left_child=1 2 3 12 -5 6 22 13 19 -8 -10 14 -1 -7 15 16 -2 -17 -16 -4 -9 -13 -3 -23
right_child=11 5 8 4 -6 7 9 20 10 -11 -12 21 -14 -15 18 17 -18 -19 -20 -21 -22 23 -24 -25
leaf_value=-0.0042901465235059087 0.01712687551105245 0.14299295389232025 0.12087973373326982 0.07527004186894995 -0.10515628729477372 0 0.0011691741977574938 -0.036459510907137574 -0.12544768497379377 -0.024236557094807945 0.03842194989445627 -0.16592056594962809 0.042752238849223204 0.15837392671394129 -0.17274415157336412 -0.01652958907237715 -0.074078709492821637 0.061345623300135994 0 0 0.04393102189470318 0 0 -0.071773097294613189
leaf_weight=225.20528075098991 41.99263334274292 21.952073484659195 82.346763163805008 11.684393107891081 56.649938941001892 9.1403643190860731 1608.0980702340603 37.672794967889786 12.609273761510847 773.08834053575993 157.19798770546913 21.989007502794266 194.88144367933273 35.828370600938797 15.898682981729509 68.572130307555199 77.153894707560539 79.292695313692093 10.770072668790815 12.229039043188093 60.009293973445892 9.5752588808536547 10.589185655117033 11.7653431892395
leaf_count=628 121 65 239 32 156 26 4432 111 35 2154 437 65 536 105 46 192 223 224 31 35 174 28 30 36
internal_value=0.000335342 0.0032715 0.0221237 0.00364952 -0.0669102 -0.00208242 -0.00519719 0.0470785 0.0543414 -0.00686696 0.0232775 -0.0269961 0.0163302 0.121263 -0.0137105 -0.0028468 -0.0376924 0.0218135 -0.103529 0.104772 0.00775369 -0.10538 0.101458 -0.0193195
internal_weight=3646.19 3309.18 752.804 488.421 68.3343 2556.38 2413.73 142.651 264.383 2381.19 169.807 337.01 420.087 44.9687 293.68 267.011 119.147 147.865 26.6688 94.5758 97.6821 43.3296 32.5413 21.3406
internal_count=10161 9195 2098 1352 188 7097 6681 416 746 6586 472 966 1164 131 837 760 344 416 77 274 285 129 95 64
is_linear=0
shrinkage=0.219949


Tree=28
num_leaves=26
num_cat=0
split_feature=41 48 14 124 101 131 112 101 128 18 82 92 9 14 82 101 91 30 9 80 34 124 14 56 91
split_gain=10.6366 8.68136 8.87096 13.8586 9.44297 9.52516 8.70629 6.71189 6.20685 3.16134 5.37697 3.67731 2.92603 2.2854 2.88124 1.9366 1.93264 1.82766 1.72915 1.55555 0.963075 0.753295 0.592702 0.545442 0.244964
threshold=0.71199819380343865 8.0940810106336532 15.803800769551474 0.96122198048704155 0.023477637464723308 0.6830127018922193 0.96877848521414822 0.01553221555325761 0.87837969732492682 0.10214873357325351 0.041612395335996574 38.250671409728632 -0.098643439154568621 19.659111812490035 -0.0070328712186871018 0.014390533436856508 0.24764695062409639 41.590075668932776 -0.049118473700020919 0.098268939335244151 -0.030966998501429973 0.7675729880772274 31.713633677952387 0.052412895861107499 -0.14798744201018363
decision_type=2 2 2 2 2 2 2 2 2 2 2 2 2 2 2 2 2 2 2 2 2 2 2 2 2
left_child=8 9 3 6 7 -6 -3 -4 12 11 -11 18 20 14 16 -5 -10 -14 -2 -13 21 -1 -15 -19 -16
right_child=1 2 4 15 5 -7 -8 -9 13 10 -12 19 17 22 24 -17 -18 23 -20 -21 -22 -23 -24 -25 -26
leaf_value=0 -0.045064392613200478 0.011452142413402209 0.028537731337724973 0.073881768598846223 0.022841003533356281 0.19247192278873837 0.36412059602586383 -0.048585434518054367 0 0.45110362465973858 0 -0.12860419953941482 0 -0.078766820612706373 0.032520234182012796 -0.079602610367413604 0.2756150657089691 0 0.12008233325221265 0 0.1584663243490389 -0.076580467644038835 0 -0.1219246680963576 -0.044389108322571848
leaf_weight=1.5292580556124447 6.7178947478532791 8.9499341640621441 88.766916824504733 4.5301520358771077 82.572917453944683 23.369296506047249 12.744249509647487 125.35792108625174 3.0260746665298939 1.3262858539819706 3.8840379640460014 39.529055465012789 7.1356977354735127 6.660358574241398 2.8290725275874138 10.889717876911162 4.4343048185110092 1.1836537830531586 4.8548019528388959 1.4275743030011643 1.8216862194240073 6.3569334913045168 2.9917500298470259 69.721167463809252 4.4955736119300145
leaf_count=13 160 84 1699 114 1007 248 123 2294 41 13 85 1007 184 134 35 170 22 36 66 30 18 103 49 2349 77
internal_value=-0.00509476 0.0101038 0.0239474 0.127073 0.0104103 0.0650294 0.241923 -0.0142535 -0.0658114 -0.0667812 0.0434051 -0.0873307 -0.0942873 0.0157602 0.0838616 -0.00173896 0.180611 -0.108673 0 -0.118849 0 -0.0103181 -0.0362022 -0.119354 0
internal_weight=527.106 414.921 357.181 37.1141 320.067 105.942 21.6942 214.125 112.186 57.7397 5.21032 52.5293 87.7484 24.4371 14.785 15.4199 7.46038 78.0405 11.5727 40.9566 9.70788 7.88619 9.65211 70.9048 7.32465
internal_count=10161 7100 5739 491 5248 1255 207 3993 3061 1361 98 1263 2703 358 175 284 63 2569 226 1037 134 116 183 2385 112
is_linear=0
shrinkage=0.219949


Tree=29
num_leaves=20
num_cat=0
split_feature=40 14 33 116 9 129 40 33 40 71 20 40 131 115 40 121 14 40 1
split_gain=5.60233 9.55373 8.03696 5.64809 12.0531 9.56272 10.5536 9.07362 15.4003 11.8953 10.402 8.85541 8.57839 6.97944 11.5651 5.74395 5.09765 3.51799 1.76243
threshold=2.1528681960852674 18.737751333915281 20.092035477838397 0.47671906963042349 -0.014869481006356209 0.81174490092936691 1.4239258629252471 6.9202063965184699 0.84511707201929442 -0.022907663935788605 62.96965589248574 1.4676060140781169 1.0000000180025095e-35 0.0070755716211252625 1.0846089721264038 0.0093403748521167871 33.108832998742692 0.6951294136355709 0.00023911916028100869
decision_type=2 2 2 2 2 2 2 2 2 2 2 2 2 2 2 2 2 2 2
left_child=3 -2 -3 7 13 6 -6 9 10 16 -9 -10 -11 17 -15 -7 -1 -5 -4
right_child=1 2 18 4 5 15 -8 8 11 12 -12 -13 -14 14 -16 -17 -18 -19 -20
leaf_value=0.13380111097347916 0.11657846649035648 -0.1872879729613755 0.079745306779445704 0.013083872349644362 0.023595542509823448 0.007577339048193639 -0.060570517722327806 -0.10192278052923708 -0.018595263094074738 -0.015427454432010308 0.015814963392012757 0.023131912602657297 0.023273038458350652 0.13947885378485625 0.024081912877406717 -0.084154591901323739 0 -0.13161818225778357 -0.061167381583030964
leaf_weight=51.418560743331909 8.5300432294607145 28.470127418637276 7.8564379811286953 10.675344198942186 608.20437566936016 37.831529155373573 79.287489235401154 148.9674443602562 862.23122298717499 523.15991955250502 38.732660382986069 336.7621220946312 575.20912170410156 83.00715833902359 111.9737942814827 88.094783708453178 10.523233890533445 11.876627922058104 9.434245824813841
leaf_count=140 24 83 23 30 1691 107 232 428 2393 1456 107 976 1597 227 309 246 29 34 29
internal_value=0.000263589 -0.0696784 -0.115441 0.00146611 0.0153039 0.00235567 0.0131537 -0.00393662 -0.0160877 0.0101497 -0.0749349 -0.00645385 0.00437967 0.0613981 0.0758005 -0.052583 0.104307 -0.0407141 0
internal_weight=3632.25 54.2909 45.7608 3577.96 1030.95 813.418 687.492 2547 1386.69 1160.31 187.7 1198.99 1098.37 217.533 194.981 125.926 61.9418 22.552 17.2907
internal_count=10161 159 135 10002 2876 2276 1923 7126 3904 3222 535 3369 3053 600 536 353 169 64 52
is_linear=0
shrinkage=0.219949


Tree=30
num_leaves=18
num_cat=0
split_feature=86 122 63 40 28 111 38 23 39 96 66 14 21 116 49 96 40
split_gain=5.47987 6.84975 7.83987 5.72595 8.93719 9.25588 9.65769 5.80069 5.74321 10.7754 8.39246 6.55611 6.22304 12.6993 11.439 4.22112 2.74531
threshold=0.15371664813499614 0.58939685785687057 0.012019374497718253 0.49993251751678131 -53.671489533686604 3.5425905580905295 0.24909206282457541 26.413089353978293 0.52431374068700298 47.965105648080367 0.009229950446073009 17.096923128205702 51.96102074219305 0.53528412275563142 0.73762677357322148 43.228035178570828 0.40670121269886678
decision_type=2 2 2 2 2 2 2 2 2 2 2 2 2 2 2 2 2
left_child=3 -2 -3 4 7 6 -6 16 9 11 -11 -5 13 -10 -14 -9 -1
right_child=1 2 -4 8 5 -7 -8 15 12 10 -12 -13 14 -15 -16 -17 -18
leaf_value=0 0.030032257313330899 -0.18415159544584261 0 -0.019144974273552363 0 0.066275687914615938 -0.15871801226861729 0 -1.1419204299957794e-05 -0.029905791150615531 0.10484066870076973 0.105806981716244 0.024525643291237225 -0.054732624710426059 -0.02253429542984314 0.13404962428061445 -0.14009060588436417
leaf_weight=13.974709063768389 15.702342644333838 28.146885767579079 10.755423992872236 17.244270548224449 23.73983770608902 13.243026673793791 60.004341080784798 18.052928626537323 1597.2829892784357 121.44858998060226 27.105378299951553 102.67449674010277 981.54489479959011 238.63760393857956 324.92581987380981 23.780880212783813 10.73283529281616
leaf_count=40 45 84 31 47 68 39 185 50 4449 335 76 284 2756 662 910 70 30
internal_value=0.000229782 -0.0687425 -0.121601 0.00142483 -0.0385289 -0.0821657 -0.111674 0.0174796 0.0034885 0.0344093 -0.0019179 0.0836249 0.000685945 -0.00739948 0.0124348 0.073031 -0.056125
internal_weight=3629 54.6047 38.9023 3574.39 163.529 96.9872 83.7442 66.5414 3410.86 268.473 148.554 119.919 3142.39 1835.92 1306.47 41.8338 24.7075
internal_count=10161 160 115 10001 482 292 253 190 9519 742 411 331 8777 5111 3666 120 70
is_linear=0
shrinkage=0.219949


Tree=31
num_leaves=25
num_cat=0
split_feature=129 37 123 48 122 9 45 41 48 118 130 18 84 45 124 91 29 66 34 110 50 81 121 3
split_gain=10.1958 7.79614 7.51642 4.88505 5.90018 12.1363 5.23004 3.48345 2.783 3.21102 7.0055 2.37194 3.96457 2.13238 2.01439 1.99572 1.93209 2.04242 1.59375 1.05391 1.03983 0.359538 0.291832 0.127128
threshold=-1.0000000180025095e-35 5.3812282628108159 0.40158973432852085 7.6612124244475881 0.23575469322003093 0.046686556330807323 24.17771764530394 1.190411597376517 9.0783992498219241 0.963362534512198 0.25000000000000011 0.10214873357325351 0.0210748867451265 10.853039665822061 0.86539482803026224 10.366135433490063 246.56683111159228 0.020804756413087679 0.0055321950984320587 -0.34994866438931632 0.043711014528631541 -0.084729260365274825 0.0087340922072087889 0.037406962222392016
decision_type=2 2 2 2 2 2 2 2 2 2 2 2 2 2 2 2 2 2 2 2 2 2 2 2
left_child=2 13 7 11 5 -5 -6 18 20 19 -11 14 -13 -2 -4 23 17 -15 21 -10 -3 -1 -18 -9
right_child=1 8 3 4 6 -7 -8 15 9 10 -12 12 -14 16 -16 -17 22 -19 -20 -21 -22 -23 -24 -25
leaf_value=0 0.0081991894973610785 -0.10402364177480918 0 0.033869478659593479 0.19791135377900143 0.20734473768843359 -0.026172529849225482 -0.035442904039935122 0.045321521668215875 0.29763526834242909 0 0.35312988537132423 0 -0.11132652514636819 -0.12498103150866972 0.2106758442892063 0.098007567393719866 0 0 -0.040917719355078909 0 -0.13397811400026491 0 0
leaf_weight=1.6356587111949945 0.94528078660368819 10.183737277984617 4.1151516679674449 189.07558030635118 5.1322223003953686 24.061013335362077 82.828536856919527 4.8955716136842948 13.490397376939653 6.4503963245078904 6.2084090635180473 1.5553429964929808 2.9473398495465517 88.28231025673449 18.837294353172183 2.1750261150300503 1.4695526510477059 6.4534946717321864 1.2690653204917897 13.901366801001133 3.0779968183487645 26.38139523379505 2.4584708511829376 2.2537467293441296
leaf_count=23 20 250 69 2577 64 289 1529 55 88 63 60 13 61 3310 490 25 30 242 23 165 55 569 70 21
internal_value=-0.00419922 -0.05266 0.0146081 0.0265408 0.0356899 0.0558243 -0.00735241 -0.0738435 0.00678459 0.0439017 0.135532 -0.05539 0.0220367 -0.0895488 -0.0925958 0 -0.0956072 -0.102501 -0.113768 0 -0.0672038 -0.127599 0 0
internal_weight=520.084 152.921 367.163 328.552 301.097 213.137 87.9608 38.6105 53.3123 40.0506 12.6588 27.4551 4.50268 99.6091 22.9524 9.32434 98.6638 94.7358 29.2861 27.3918 13.2617 28.0171 3.92802 7.14932
internal_count=10161 4353 5808 5092 4459 2866 1593 716 681 376 123 633 74 3672 559 101 3652 3552 615 253 305 592 100 76
is_linear=0
shrinkage=0.219949


Tree=32
num_leaves=24
num_cat=0
split_feature=40 72 86 104 73 13 18 97 47 109 97 42 63 109 71 71 35 99 111 125 125 111 49
split_gain=4.7392 11.361 7.78608 6.67466 10.1531 7.48976 11.3376 9.98282 6.02685 5.91402 7.42299 5.47065 5.26536 4.83755 6.49114 4.05937 3.69943 3.06377 3.05172 2.7723 2.40055 1.71751 0.327684
threshold=1.7153192496203944 -0.021510634349316719 0.15371664813499614 0.18469185403533173 0.028747977985887237 11.836294326209961 0.066262413650580623 0.032037323859623219 0.083599288156277499 0.015252625692268925 0.030033249539454847 0.051856614439835712 0.012019374497718253 0.019292305380210806 -0.015619946745842288 0.0011598457156798564 0.020039317496529322 0.030033249539454847 0.71199019233147365 1.0564342966366846 1.1051955561113143 0.56135510311889603 0.40650899132105978
decision_type=2 2 2 2 2 2 2 2 2 2 2 2 2 2 2 2 2 2 2 2 2 2 2
left_child=2 13 3 5 11 6 -1 -7 -6 16 21 -5 18 17 22 -12 -3 -2 -4 -19 -16 -11 -15
right_child=1 9 12 4 8 7 -8 -9 -10 10 15 -13 -14 14 20 -17 -18 19 -20 -21 -22 -23 -24
leaf_value=-0.006917116333528448 0.055787628477080208 0 0.19861758019448986 0.034385047395034028 -0.03474515397701617 0.050934770287805645 -0.08037236680106391 -0.15643060007069698 0.09182637650106619 0 -0.0035922889534104412 0.0025756356132968232 0 -0.047001740083071841 0.19410409012808072 -0.10704814696833198 -0.15633085780211992 0 0.011258667018134511 -0.14927812304716814 0 0.15126291448283449 0
leaf_weight=1599.6817613020539 9.5686256587505358 10.728536084294317 20.133748888969421 686.40780347585678 256.38522148132324 165.62153044342995 111.0815269947052 11.065634816884993 17.728585243225098 8.4120973050594348 50.730426445603371 481.59002795815468 10.986935496330259 7.1755502969026592 20.049960613250736 43.632666930556297 42.095659449696541 8.505013585090639 13.271455287933348 11.850501716136931 9.4084432125091535 10.022765070199965 10.123963341116903
leaf_count=4484 27 30 57 1904 720 456 325 32 51 24 157 1344 31 21 56 131 129 24 37 34 27 28 32
internal_value=0.000233593 -0.0293188 0.00250571 0.00113193 0.0125287 -0.00730804 -0.011982 0.0350875 -0.0247154 -0.0628935 -0.0284678 0.021702 0.0941601 0.0366075 0.0834043 -0.0567848 -0.126838 -0.0196276 0.13931 -0.0799041 0.147313 0.0890664 0
internal_weight=3616.26 242.304 3373.95 3329.56 1442.11 1887.45 1710.76 176.687 274.114 165.622 112.798 1168 44.3921 76.6821 46.7579 94.3631 52.8242 29.9241 33.4052 20.3555 29.4584 18.4349 17.2995
internal_count=10161 720 9441 9316 4019 5297 4809 488 771 499 340 3248 125 221 136 288 159 85 94 58 83 52 53
is_linear=0
shrinkage=0.219949


Tree=33
num_leaves=30
num_cat=0
split_feature=39 130 111 10 9 10 38 46 124 103 78 122 130 130 122 10 91 40 122 9 91 10 72 31 99 91 10 9 46
split_gain=4.40651 12.4495 14.7964 13.6385 16.4455 10.2044 10.1566 10.5431 9.19816 12.5927 8.78172 8.2396 11.5193 10.5896 7.45884 7.22786 7.26296 7.18044 6.97133 6.53331 8.76762 6.06337 5.33858 4.73157 6.74902 6.11191 4.35606 3.10246 1.71637
threshold=1.1405747770642007 -0.24999999999999994 0.62739588006227831 -0.15051298846248132 -0.072464121769963405 0.14585807537358889 1.0553296012018951 0.0456889592816868 0.89929323521787052 0.005087083764010689 -0.078126457317613848 -0.8005896481322915 0.25000000000000011 0.68301270189221941 0.34465925540048475 0.037156335127666147 -1.1362709872188297 1.2554062406419042 -0.04745183096030043 0.020306079800212932 1.3038327514170958 -0.21163716517393114 -0.0018681565322550976 0.021622102106719894 0.024057121383191767 10.745515102507516 -0.11100997052527815 -0.054101375961557556 0.098107598607966473
decision_type=2 2 2 2 2 2 2 2 2 2 2 2 2 2 2 2 2 2 2 2 2 2 2 2 2 2 2 2 2
left_child=6 3 14 28 17 -6 8 15 9 27 -11 13 -13 -10 18 16 -8 -5 -3 26 -21 -16 -17 25 -25 -4 -9 -1 -2
right_child=1 2 23 4 5 -7 7 19 11 10 -12 12 -14 -15 21 22 -18 -19 -20 20 -22 -23 -24 24 -26 -27 -28 -29 -30
leaf_value=0 -0.17953139862912956 0.038182355319969885 -0.11581819048457051 -0.051677498043781377 -0.065475293609649307 0.0068137394229462302 0.084077381454030736 0 0.016200164813625805 0.08924427818241551 -0.11082808828156378 0.011575790309827326 -0.027201261113671066 0.13105675278205645 -0.17179552093489447 -0.10941169949042852 -0.0078229845974882063 0.081953944684273805 0.13624163705869377 -0.016877025418931001 0.099757994163284694 0.0023396571737882557 0.0037444856741891963 0.049954351446890109 -0.034340572625588865 0.024231341821775693 0.16597392024021551 0.16264194672801199 0
